he 0.10278 -0.037982 -0.34679 -0.20236 -0.10104 -0.0041614 -0.18122 0.052666 0.63239 -0.017635 0.29064 0.55232 -0.18253 0.032052 0.10706 0.28863 -0.5465 0.63784 0.26307 -0.35245 0.78052 3.2884 0.13932 -0.1764 -0.21195 0.31297 -0.35545 -0.084663 0.19614 -0.36436 -0.4838 -0.029026 0.14678 -0.3716 0.035807 -0.60569 -1.0662 -0.24823 0.086176 0.44917 -0.27971 0.072874 -0.32838 0.45463 -0.087686 -0.22879 0.4479 0.56725 0.11629 0.18263 0.27651 0.48955 -0.047938 0.64848 0.087681 -0.39107 0.16413 -0.20127 -0.3754 0.021114 -0.13349 -0.37299 -0.27203 0.086235 0.32202 0.089046 -0.26556 0.33787 -0.014177 0.31975 0.3274 -0.47988 -0.058957 -0.01829 -0.13548 -0.27461 -0.38017 -0.31293 0.073876 0.0025744 0.42813 -0.17042 -0.20509 0.23494 0.16507 0.15267 -0.82546 -0.3771 0.30854 -0.60148 -0.16621 -0.13708 -0.031724 0.074703 -0.48448 -0.2303 0.24285 -0.1302 -0.06301 0.14626 -0.0081932 0.020477 -0.065081 0.38807 -0.070858 -0.2693 0.14757 1.0983 -0.18736 -0.10725 0.53126 -0.37668 0.24258 -0.17912 0.15185 -0.16 -0.086678 0.29508 -0.36161 -0.25959 0.15685 0.39739 0.024662 0.49537 0.16396 -0.36334 0.13761 -0.047526 0.48767 -0.60551 -0.37744 -0.27895 0.30921 -0.54864 0.23541 0.53319 0.0044727 -0.19318 -0.33792 0.032271 0.43456 -0.332 -0.16313 -0.12138 2.0354 0.64063 0.30325 -0.15715 -0.014365 0.069193 0.35589 -0.043891 -0.3299 0.14328 -0.20706 -0.58879 -0.087851 -0.1563 0.13603 -0.1601 -0.26251 0.30142 -0.029627 -0.070453 -0.24357 -0.15967 0.15829 0.19095 -0.50924 0.43491 0.057935 -0.20903 0.47752 -0.11511 0.32314 -0.061648 -0.65868 -0.1869 1.0805 0.063511 0.92858 -0.18946 -0.50856 0.18354 -0.4538 -0.47037 -0.42802 0.0049602 0.15261 0.011386 0.41096 -0.058602 -0.22928 0.10317 0.39274 0.42591 -0.25326 0.34194 0.23397 -0.045398
his -0.27002 -0.16067 0.066515 -0.52124 -0.094791 0.12395 -0.015233 -0.010942 0.0093558 0.11741 -0.19151 0.37225 -0.11444 0.37209 0.57027 0.072209 -0.38037 0.56744 -0.27584 -0.29915 0.53716 3.234 0.61755 -0.041772 0.016927 0.47861 -0.42695 -0.26614 -0.22283 -0.30836 -0.83129 0.031708 0.48611 -0.39461 -0.20405 -0.14476 -0.66294 -0.085002 -0.014626 0.10978 -0.37059 -0.15414 -0.093201 0.57348 -0.0288 0.045927 0.091574 0.75236 0.042547 0.011114 0.10725 0.31544 0.11039 0.37984 0.39131 -0.23319 0.38108 -0.025377 0.12458 0.029508 0.051679 -0.41149 -0.99742 -0.40902 0.0076677 -0.1147 -0.081738 0.15131 0.11018 0.16003 0.24294 -0.41872 0.048349 0.138 0.099553 -0.10435 -1.1409 -0.6056 -0.0122 0.14398 0.53029 0.083272 -0.44132 -0.31226 0.5536 0.29765 -0.49141 -0.74094 0.46249 -0.65685 -0.080812 0.35996 -0.2792 0.62088 -0.46297 -0.40052 -0.030983 -0.29279 0.34101 0.4236 -0.46606 -0.16867 -0.26364 0.12329 -0.62468 -0.63525 0.47773 0.92416 -0.22558 -0.60245 0.23708 -0.45433 -0.45251 -0.26017 -0.046001 0.46437 -0.16589 0.48278 0.00052534 -0.7243 0.32558 0.54023 -0.26951 0.37526 0.76966 -0.19603 0.31849 -0.10482 0.46023 -0.0091697 -0.35073 0.0035128 0.38199 -0.61741 -0.064229 0.85169 0.098449 -0.14159 -0.48155 -0.26448 0.25615 0.20852 0.096748 0.46412 2.1627 0.36636 0.26652 -0.12869 -0.24046 0.37517 0.36001 -0.13096 -0.12757 0.10667 -0.308 -0.23261 -0.31226 -0.11248 0.0096936 -0.17477 0.40333 0.16438 -0.24643 -0.072397 0.36526 0.11542 0.20688 -0.13413 -0.09221 0.92742 0.16167 -0.25909 0.46959 0.17633 0.099677 0.45298 -0.73499 -0.64646 1.0433 0.30424 0.34574 0.15241 -0.16375 0.021106 -0.39377 -0.40647 -0.29685 -0.3077 -0.036177 0.1096 0.47117 0.031807 -0.18969 0.1817 0.44191 -0.18987 0.20682 0.49099 0.079434 0.52251
new -0.13452 0.42318 -0.20052 0.16043 0.072093 0.047176 -0.53329 -0.10087 -0.62897 0.021857 0.54669 0.28186 -0.090876 -0.4549 0.12775 0.070347 -0.12941 0.10452 -0.048308 -0.075955 0.24103 2.9094 -0.25492 -0.18627 0.093805 0.21709 -0.13 -0.27553 0.54252 0.55803 -0.37457 -0.3869 -0.032438 0.012863 -0.023655 -0.28129 -0.4148 0.12563 0.40331 -0.1786 -0.36284 0.10082 -0.11117 0.32878 -0.0099503 0.34607 0.77248 0.14133 -0.014152 0.10549 -0.43223 -0.32693 -0.020656 0.61735 -0.19349 -0.19335 -0.067946 0.43914 0.044848 0.39201 0.031129 0.28789 -0.36572 -0.25379 0.05294 -0.47406 -0.46312 0.42217 0.12207 0.32481 0.33581 -0.32892 0.17957 0.33682 -0.19301 1.2484 -0.6608 0.51173 -0.58633 0.034322 -0.24678 -0.25317 -0.044691 -0.21357 -0.25454 -0.099525 -0.35785 0.036024 1.2422 -0.4345 0.25055 0.23014 0.24678 -0.13985 -0.83827 -0.3776 -0.70099 -0.42064 -0.0063801 0.036977 -0.56275 0.17485 0.21684 0.20051 -0.086846 0.19129 -0.43643 1.6072 -0.52758 0.10053 -0.3649 -0.78323 0.098113 -0.061414 -0.21226 -0.35474 -0.1232 -0.029869 -0.50379 -1.0841 0.15385 -0.15669 0.32125 -0.070431 0.32518 -0.16001 -0.089641 0.70459 -0.12921 -0.5643 0.064665 0.20837 0.48186 -0.76655 0.39477 0.4903 0.021111 -0.42402 -0.087438 0.12136 -0.052076 0.17173 0.13321 -0.12279 1.1855 0.24533 -0.013253 -0.26151 -0.40037 0.03485 0.06179 -0.128 -0.033019 0.044944 0.097161 0.17598 -0.38722 -0.27365 -0.21502 -0.71961 0.029054 -0.35485 0.22358 0.26153 0.14965 -0.30371 -0.33323 -0.41294 -0.32946 1.019 0.66025 -0.20471 0.55535 0.28952 -0.50582 -0.23537 -0.20454 -0.33348 -0.5405 0.028191 0.92001 -0.49083 0.50267 0.14169 0.30329 0.047497 0.092962 0.23511 -0.055688 0.61588 0.15872 0.6911 -0.099685 0.19878 -0.17053 0.14989 -0.37666 -0.0091233 0.31497 0.47436
she 0.41211 0.079153 -0.49295 -0.91919 -0.44001 -0.099675 -0.183 -0.13345 0.42396 -0.10121 0.41882 0.62225 0.12806 -0.11705 -0.12512 0.36832 -0.89545 0.15942 0.30175 0.36542 1.1233 2.772 0.4663 -0.21867 -0.30178 0.55115 0.15301 -0.27713 -0.18282 0.018998 -0.4174 -0.010658 0.10647 -0.39879 -0.27697 -0.22283 -0.88721 -0.4898 0.25713 0.015263 -0.24355 0.2885 -1.0639 0.61587 -0.54036 -0.25827 0.85338 -0.1882 -0.03264 0.60815 0.29144 -0.082538 -0.62729 0.79604 0.053006 -0.46325 -0.23009 -0.29284 0.04279 0.23661 -0.40124 0.064785 -0.30486 0.63962 0.21857 0.12414 -0.24911 0.12341 0.049811 0.17148 0.25779 -0.48417 0.45581 0.35226 -0.19893 -0.0023995 -0.89455 -0.29449 -0.0099874 0.032218 0.16257 0.35385 -0.37294 0.23688 0.61993 -0.43994 -0.74288 -0.61939 0.21903 -0.60592 -0.54015 -0.025327 0.2728 -0.018861 -0.23831 0.13344 0.18315 -0.0099648 -0.085624 0.32011 0.2269 0.51422 0.16821 0.28498 -0.047519 -0.81319 0.36531 1.1823 0.042205 -0.10328 0.50657 -0.15495 0.55613 -0.32022 -0.043574 0.0064982 0.022998 0.68925 -0.43813 0.086736 -0.13357 -0.20645 -0.093677 -0.13227 0.32812 -0.13869 0.073027 -0.18286 0.10987 -0.85518 -0.42975 -0.50674 0.23982 -0.25789 -0.0087388 0.068424 -0.078678 -0.43916 -0.39082 0.15629 0.6652 -0.57356 0.079674 -0.25521 1.99 0.34468 0.3028 -0.39453 -0.086561 -0.040733 -0.076436 0.33897 -0.12186 0.16447 -0.22418 -0.2831 0.3179 0.41608 -0.12358 0.17667 -0.16107 -0.18048 0.19145 0.45856 -0.00061902 0.13354 0.076349 -0.25765 -0.40517 0.18563 -0.2071 0.099826 0.64815 0.37795 0.064096 -0.14914 -0.45644 -0.65693 1.2638 -0.084638 1.2333 -0.11466 -0.64177 0.012386 -0.22981 -0.18303 -0.32118 -0.066191 0.68497 -0.024279 0.17139 0.028213 -0.56666 0.0032827 0.16149 0.046688 0.10774 0.056432 0.13225 -0.50225
her 0.20109 -0.028751 -0.1973 -1.0513 -0.4896 0.11454 -0.080364 -0.24105 -0.085593 0.10559 0.223 0.63689 0.37664 0.19185 0.28858 0.097486 -0.73545 0.11326 -0.14373 0.3544 0.90984 2.8556 0.80978 -0.094705 -0.16593 0.5174 0.33492 -0.45368 -0.47948 0.16185 -0.55062 0.043816 0.55213 -0.29277 -0.40599 0.041388 -0.55129 -0.47203 0.13965 -0.26843 -0.23016 0.1225 -0.93609 0.77788 -0.44905 -0.029394 0.46693 0.018004 -0.081685 0.68407 0.18586 -0.21193 -0.42257 0.55955 0.22439 -0.27699 -0.006258 -0.089116 0.44846 0.38479 -0.27865 0.032636 -0.64953 0.33341 -0.053234 -0.010306 0.021753 -0.059926 0.10984 0.093374 0.26688 -0.47513 0.57029 0.51537 -0.16313 0.15245 -1.7197 -0.50496 0.016409 0.15899 0.13071 0.7052 -0.63424 -0.15477 1.089 -0.30147 -0.32349 -0.97442 0.37324 -0.70589 -0.34926 0.46949 0.20352 0.49516 -0.22298 -0.0039907 -0.044661 -0.062751 0.26997 0.68533 -0.2793 0.45511 -0.13447 0.0034368 -0.62377 -1.2374 0.61228 1.0814 -0.0078683 -0.58069 0.2874 -0.09691 -0.08663 -0.36179 -0.24195 0.48767 0.10923 0.71689 -0.27614 -0.38816 -0.044323 -0.10153 -0.22954 -0.27234 0.91215 0.045539 0.19646 -0.089158 0.035623 -0.42748 -0.49215 -0.024195 0.29587 -0.3482 -0.22961 0.42597 0.12399 -0.52381 -0.34383 -0.17033 0.46675 -0.20474 0.49258 0.23186 2.0025 0.015508 0.44647 -0.37366 -0.22126 0.26314 -0.12273 0.3532 -0.1307 0.13432 -0.45318 0.1521 0.12026 0.48552 -0.13793 0.26726 0.4169 -0.35167 0.14374 0.57585 0.46379 0.34359 0.23211 -0.59627 -0.19388 0.57154 -0.13921 0.11995 0.79197 0.5727 -0.14566 0.11698 -0.43612 -1.0109 1.2711 0.0017571 0.74426 0.2679 -0.28611 -0.17831 -0.081972 -0.17439 -0.26864 -0.17702 0.63288 0.13231 0.26873 0.0072591 -0.47444 0.13886 0.22857 -0.51524 0.5952 0.28269 -0.14528 0.04313
most 0.37848 0.36332 -0.38444 -0.2868 0.046604 -0.031476 -0.69636 0.66059 -0.13827 -0.58062 0.23333 0.20917 -0.34694 -0.05538 0.065343 0.34486 -0.11342 0.66101 -0.43412 -0.47787 -0.23281 2.9472 -0.1458 -0.42894 0.27907 0.070225 0.14835 -0.092504 0.11583 -0.1795 -0.042164 0.18261 0.46037 0.26013 0.036866 0.15841 -0.67395 -0.49142 -0.30175 0.17579 -0.11461 -0.5258 0.13962 0.21166 -0.10582 -0.27449 0.38959 0.096483 -0.063483 -0.13852 -0.39501 -0.17761 0.044224 0.40618 0.62754 0.29176 0.13485 -0.033146 -0.64723 0.037269 -0.025783 0.074452 -0.49956 0.12987 -0.013539 0.59084 0.12369 0.23099 0.14904 0.00016251 0.44152 -0.0010631 0.09165 0.65287 0.063326 0.3247 -0.47495 -0.25561 -0.21874 -0.28955 -0.076714 0.011703 -0.23743 0.24601 0.28795 0.26607 -0.056188 -0.19077 0.6409 -0.78463 -0.13101 0.024337 0.40835 -0.34237 -0.15025 -0.22469 0.15148 -0.033817 -0.16501 -0.16926 0.65889 0.17435 -0.037301 -0.15591 0.43423 -0.033526 -0.099119 1.2954 -0.31918 0.32563 0.39645 -0.43599 0.14005 -0.07234 0.35816 0.060763 -0.42751 0.33811 -0.33478 -0.61055 0.77465 0.16892 0.46993 0.32644 -0.048094 -0.85445 -0.077664 0.048032 0.34259 0.02161 -0.23403 0.11051 0.60329 -0.4701 0.20825 0.029396 -0.49193 0.1948 -0.40813 -0.30323 -0.51402 0.12659 0.03184 0.070397 1.2 0.10059 -0.039373 -0.43292 0.533 0.18786 0.40875 -0.051996 -0.032028 -0.21631 0.91196 -0.21416 0.094043 0.14494 -0.093538 -0.054013 0.23817 0.21269 -0.11597 0.10812 -0.26714 0.16421 -0.22214 0.032099 -0.27646 0.45031 -0.4363 0.34159 0.22686 0.25908 0.23245 0.026303 -0.30722 -0.3152 -0.17517 0.16502 1.4305 0.24732 -0.23778 0.19649 0.07299 0.67775 0.085522 0.39827 -0.18253 0.50932 -0.13004 -0.08289 -0.22511 0.38197 0.66524 -0.23841 -0.44573 0.28819 0.061097 0.075883
china 0.58774 0.3612 -0.11296 -0.62175 -0.10325 0.019212 -0.1675 -0.30572 -0.0080747 0.027789 -0.60987 0.35025 -0.80828 -0.46394 0.8397 0.77523 0.33289 0.16633 -0.54131 -0.42315 0.75033 3.2082 -0.25684 -0.13687 -0.14613 0.93521 -0.13595 0.66101 0.046114 0.098371 0.54155 -0.81943 -0.39796 0.40344 -0.19738 0.5707 -0.32293 -0.10846 -0.82637 -0.020601 0.13851 0.34918 0.10125 -0.22282 -0.40119 0.18328 0.53619 -0.91611 -0.39041 -0.13162 0.052779 -0.30784 0.24295 0.24651 -0.19654 -0.055681 -0.80493 -0.15138 -0.0057331 1.0077 0.011414 0.35755 0.18176 0.73889 0.10311 0.26755 -0.58326 0.60994 -0.45482 -0.063762 0.21796 -0.19049 0.099971 0.5695 -0.35597 1.4769 0.74311 -0.021575 0.26444 -0.27903 -0.21532 0.20345 -0.11429 -0.37302 -0.31977 -0.17083 1.3066 0.032393 0.30115 0.069228 -0.042317 -0.14981 -0.78903 -0.40395 -0.91762 0.3554 0.28514 0.12307 0.23289 -0.11 -0.14124 0.17215 -0.85992 0.41792 0.37041 -0.18084 0.13941 0.46158 -0.50496 -0.42616 0.034435 -0.98928 -0.25506 0.22826 0.053784 -0.10081 -0.26101 0.58089 -1.2646 0.46155 0.36932 0.31397 -0.22899 0.085999 -0.33973 -0.2997 0.089269 -0.11748 -0.1185 0.22439 0.65149 0.017391 -0.3618 -0.79978 -0.35573 0.53552 -0.53695 0.42574 0.54035 -0.4198 0.65561 -0.2992 -0.039907 0.20887 1.5511 0.070692 -0.6203 -0.9035 -0.63032 0.091718 0.4037 -0.01093 0.36605 0.3233 0.36524 -0.43955 -0.22039 -0.50156 -0.4996 -0.34816 0.46716 0.076645 -0.12248 -0.64193 -0.21372 0.7902 -0.096637 -0.61155 -0.16174 0.80205 0.33295 -0.48579 -0.054287 -0.31692 -0.38919 0.75481 -0.14343 0.032473 -0.1062 -0.20402 1.3746 -0.056701 -0.17153 -0.15553 -0.4608 0.31237 -0.1724 0.59751 0.31304 0.41673 -1.021 -0.15293 -0.15955 0.58504 0.88183 0.74002 0.36718 0.13588 -0.32117 0.057076
high 0.49595 0.07312 -0.86207 -0.42374 0.32708 -0.024379 0.011892 -0.37037 -0.48104 -0.25296 -0.032228 0.10471 -0.24719 -0.10315 0.98056 0.27357 -0.97652 -0.20965 0.26397 -0.71636 -0.079117 3.0166 -0.26769 0.45457 -0.1784 0.10054 -0.41004 -0.026626 0.59279 0.32134 0.11802 0.17533 -0.14581 0.89834 0.26546 -0.10762 -1.0672 -0.2961 -0.098644 0.58533 0.25698 -0.30685 0.11525 -0.33411 -0.090624 -0.51514 0.6901 -0.23386 -0.23844 0.25466 0.12753 -0.018703 -0.44863 0.69206 -0.23599 0.026826 -0.21885 0.57885 -0.38544 -0.37127 -0.084787 -0.044351 0.12227 0.46832 0.029975 -0.21331 -0.067238 -0.30183 0.32125 0.37991 0.34251 0.3569 -0.16762 0.60589 0.2456 0.86465 -0.1932 -0.0083924 0.095427 0.25117 -0.13195 -0.34093 -1.1565 0.55825 0.25789 0.05885 0.091676 -0.18059 0.877 -0.80038 0.036984 0.13406 0.067581 0.17525 0.29459 -0.1086 0.46409 0.21881 0.48403 0.11216 -0.061902 0.75449 -0.45097 0.28256 0.282 -0.48042 -0.40244 1.1009 -0.35482 -0.089549 -0.1794 0.15174 -0.052863 0.67714 0.35627 0.50272 0.54501 -0.66027 -0.21831 -0.31358 0.012128 0.081917 -0.2044 0.37076 0.52655 -0.58386 -0.44056 0.56752 -0.034808 0.38242 0.11847 -0.050216 0.40536 -0.37176 -0.053586 0.77458 0.5379 0.12887 0.32891 0.45123 -0.4356 0.23785 0.27636 0.31508 1.3135 0.043884 0.27124 0.045634 -0.41395 0.45052 0.11233 -0.30853 -0.64525 0.40364 0.55119 -0.06642 -0.07103 0.41206 0.65217 -0.26842 0.23755 0.0025207 0.041094 0.52058 0.34752 0.22139 -0.034748 0.30379 -0.51884 1.1121 -0.014098 -0.23538 0.52988 0.44574 -0.1473 -0.78204 0.30567 -0.5478 -0.09165 0.35594 0.55984 0.25356 -0.95701 0.49731 0.27292 -0.49935 -0.34 -0.2788 -0.18014 -0.062117 0.46078 0.088803 0.15895 0.48133 -0.40885 0.010216 -0.13006 -0.29094 0.15151 0.13153
old 0.1607 -0.30028 0.058926 -0.62329 0.37253 0.65347 -0.18118 -0.37852 0.26836 -0.54894 0.0038971 0.27284 0.53332 0.1539 0.25004 0.2472 0.30319 -0.65136 0.10827 -0.10436 0.45123 3.0956 0.52346 -0.69155 0.10633 -0.36426 0.0079372 -0.25831 0.19613 0.38648 -0.099843 0.31345 -0.30424 0.54265 -0.087603 -0.6067 -0.45081 0.089447 -0.28875 0.18437 -0.2073 0.091385 -0.71079 0.017591 -0.29728 0.37757 0.78081 -0.20963 0.23376 0.19129 0.20646 -0.080998 0.20711 -0.58541 -0.2169 0.0099483 -0.46176 -0.11687 0.37907 0.17842 0.26435 0.14568 -0.77152 -0.18251 0.56524 -0.10819 0.037777 -0.33612 0.21662 0.17958 0.29249 -0.85039 -0.023691 0.51784 -0.66511 0.40291 -0.96039 0.031984 -0.18387 0.1579 0.40724 -0.33086 -0.58008 -0.40645 0.36437 0.051441 0.16651 0.065173 -0.1146 -0.28961 0.35149 0.68148 0.37377 0.24279 -0.80161 0.047475 -0.75305 -0.086819 -0.39896 -0.0043551 -0.23125 -0.62827 -0.56002 0.33938 0.1734 -0.85245 -0.21578 1.2744 -0.11221 0.177 0.68007 -0.15376 -0.094076 -0.14584 -0.87455 0.14347 -0.39915 0.44832 -0.30101 -0.71917 -0.33558 0.71994 0.56995 0.15617 0.60442 -0.53744 0.28022 0.037717 0.40766 0.32809 0.06632 -0.26756 0.094361 -0.028664 0.11605 -0.04907 0.37629 -0.28979 -0.90656 -0.13749 0.23959 0.34613 0.034948 -0.38387 1.4472 -0.023876 0.53227 0.27935 0.40766 -0.11285 0.27556 0.0018406 0.34765 -0.057347 -0.66184 -0.066845 -0.35407 0.20659 -0.41834 0.15407 -0.030615 -0.4493 0.27937 0.28849 0.40704 -0.11539 -0.25611 0.78137 0.24729 0.43934 -0.32559 -0.63469 0.23246 0.57262 -0.36754 -0.6533 -0.23351 -0.89468 0.21031 -0.10634 0.52132 0.15065 -0.95724 -0.05549 -0.16597 0.62156 0.25542 0.78104 0.0095676 0.63704 -0.045699 -0.019388 0.80875 0.29235 -0.34632 -0.51005 -0.052258 -0.082766 0.16071 0.89097
long 0.041052 -0.54705 -0.72194 -0.31236 -0.43849 0.10691 -0.50641 -0.45401 -0.28623 0.018973 0.020495 0.4286 -0.0057162 -0.21272 0.71865 -0.091906 -0.55365 0.39133 0.15351 -0.27454 0.56528 3.0483 0.30467 -0.37893 0.37866 0.13926 -0.11482 0.48213 -0.30523 0.43125 -0.09667 0.069156 0.31426 0.26351 -0.3119 -0.39881 -0.55657 -0.35934 -0.25402 0.072061 -0.12967 -0.11247 -0.041192 -0.042619 -0.07848 0.31992 0.41636 0.26131 -0.18175 -0.1279 0.21332 -0.41973 -0.50444 0.37705 0.83955 -0.34571 -0.43001 -0.18654 -0.061082 -0.087612 0.092833 0.52605 -0.57611 -0.19328 0.20576 0.24607 0.1631 -0.18138 0.032592 0.19169 0.73565 -0.25719 0.30073 0.56699 -0.21544 0.18933 -0.12287 -0.6576 0.021702 0.1041 0.098952 -0.43172 -0.27517 -0.15448 0.31301 -0.032041 -0.090526 0.1449 0.68152 -0.88242 0.30817 -0.62702 0.12274 0.014773 -0.16887 0.56159 0.022004 0.52085 -0.22685 0.09633 0.26957 0.30489 0.018463 0.31009 0.04198 0.32382 0.13153 0.89722 0.15475 -0.38807 -0.52993 -0.35384 -0.0913 0.5723 0.48067 0.24438 0.074138 -0.019957 -0.3503 -0.034695 -0.12045 0.39999 -0.37015 -0.53041 0.10655 -0.44973 0.43105 -0.44937 0.48676 0.43837 0.043421 0.52675 0.61176 0.26704 0.59239 0.23651 0.12841 -0.10665 -0.46715 -0.039081 -0.24921 0.030486 0.092933 -0.04841 1.8358 0.077535 -0.11494 -0.13668 -0.23983 0.31948 0.19206 0.38894 0.34755 -0.038804 0.19541 -0.371 -0.027576 -0.24127 -0.16868 0.032815 0.08139 0.054121 -0.42786 0.26447 0.054847 -0.21766 0.015181 0.57656 0.24033 0.62076 -0.019055 -0.31509 0.76425 0.35169 -0.28512 0.15175 0.11238 -0.6083 0.35087 0.1914 0.51754 0.20893 -0.63814 0.19403 0.24493 0.46606 -0.32235 0.37286 -0.19508 0.13238 -0.35421 0.22849 0.36032 -0.0050241 -0.051955 -0.37756 -0.087065 0.3592 0.11564 0.44372
good 0.51507 0.35596 0.1571 -0.074075 -0.25446 -0.11357 -0.49943 -0.12626 0.38851 0.54204 0.10479 0.44099 -0.06549 0.058463 0.4115 0.56709 -0.11869 0.25107 0.2564 -0.21615 0.6417 2.7875 0.12036 0.049481 0.24843 -0.6739 0.0011957 0.35802 -0.17588 -0.39135 -0.014093 0.2361 -0.43184 -0.027045 0.022829 -0.28283 -0.50008 -0.11275 -0.45002 0.33634 -0.0057722 0.33005 -0.24671 0.17358 -0.35508 -0.039378 0.48834 0.1418 -0.17579 0.3176 -0.15194 -0.11244 -0.070078 0.74877 -0.062074 -0.17296 0.15001 -0.058035 0.19471 -0.29521 0.50281 -0.33074 -0.54041 0.064659 0.041465 0.4993 0.080902 0.47806 0.58307 0.40874 0.68926 -0.17099 -0.18371 0.20223 -0.16941 0.060234 -0.55287 -0.45837 -0.49883 0.048763 -0.034175 0.096349 -0.36416 0.28792 -0.094959 -0.032941 0.22893 -0.21029 0.59527 -1.1885 0.49904 -0.17831 0.23057 0.21432 -0.11995 -0.27463 0.23447 0.00030226 0.22574 0.021555 0.19446 0.19949 -0.012335 0.37444 0.1819 0.074717 -0.068229 1.2678 -0.80215 -0.26504 -0.1695 -0.12885 -0.20571 0.0027484 -0.53354 -0.21775 0.025734 -0.55903 -0.51352 -0.4224 0.59187 -0.14522 0.332 -0.12381 -0.24094 0.15827 0.024885 -0.093409 0.44351 -0.20636 -0.11982 0.1457 0.15496 0.098869 -0.15562 -0.33651 -0.17413 0.1588 0.1445 -0.60348 -0.19199 -0.27604 0.026225 -0.26559 1.7026 0.47807 0.38597 -0.91549 0.26385 0.61281 0.26567 0.36172 -0.011723 0.15029 0.20089 -0.44063 -0.43547 -0.029687 0.1861 -0.081141 0.36631 0.36358 0.35067 -0.21211 0.10592 -0.14738 -0.10271 0.46204 -0.54369 0.026473 -0.34436 -0.28099 0.27903 0.22506 0.13079 -0.12761 -0.74556 -0.14482 -0.1178 0.46916 1.0226 -0.12157 -0.38652 0.20441 -0.38827 -0.18671 0.36354 -0.33577 -0.039282 0.33316 -0.048109 -0.38057 -0.35258 -0.0062655 0.27227 -0.16222 -0.31979 0.14338 -0.072859 0.17815
won -0.3788 0.51459 -0.73694 -0.056198 0.052874 0.15662 0.21436 0.34249 0.1424 -0.093278 0.16948 -0.11071 -0.56108 -0.60902 0.86495 0.088216 0.019156 -0.18672 -0.45746 -0.2999 0.76822 1.9607 0.20502 -0.24833 0.079986 0.2278 0.46934 -0.093518 0.29816 0.033182 0.3859 0.047495 -0.17896 -0.74432 -0.66266 -0.045246 -0.42622 -0.45248 0.071457 -0.44291 -0.44779 0.004831 -0.72398 -0.15956 -0.31243 -0.18692 0.58064 0.41169 0.11543 0.49991 0.038175 -0.4462 0.64993 1.1448 -0.24783 -0.27646 -0.47514 0.65408 -0.065782 -0.27297 0.0024473 -0.15304 -0.56501 -0.32696 1.3107 0.49093 -0.28914 0.17231 0.76938 -0.28518 -0.22873 -0.50518 0.60937 0.14541 0.3929 0.055956 -0.55703 -0.038893 -0.20495 0.56423 0.0082132 -0.066767 -0.29927 0.60117 -0.063384 -0.64189 -0.55444 0.50138 -0.36673 -0.049304 -0.72545 -0.29274 -0.0021346 0.18312 0.46072 -0.77038 0.26467 0.33044 0.22858 -0.44268 -0.54123 0.38888 -0.14331 0.11509 0.12356 -0.15888 0.15258 1.7362 -0.395 -0.27246 0.020712 -0.22041 -0.5703 0.23306 -1.0842 0.86591 -0.51683 0.37414 0.20773 0.05471 -0.32593 0.56176 -0.033873 0.59226 0.22097 -0.99521 -0.70702 -0.60332 0.75742 0.003747 -0.39539 -0.041141 0.52373 -0.10311 0.64206 0.6367 -0.18812 0.13518 -1.0743 0.098547 -0.032638 -0.19948 -0.32529 -0.15256 0.66934 0.54685 0.22348 0.0064717 0.07902 0.84018 -0.37394 0.40915 0.20513 -0.37579 -0.038788 -0.464 -0.26361 0.35504 -0.52044 -0.26436 -0.44091 0.21041 -0.17172 0.0524 -0.20947 0.048091 0.37248 0.28542 -0.26875 0.27937 -0.01213 0.042894 0.19882 -0.31488 0.10614 0.27269 -1.034 -0.6199 -0.04645 0.13484 1.2803 0.34117 0.15021 0.51793 0.10658 -0.45049 0.039682 0.62014 0.41656 -0.37139 -0.21261 0.49009 -0.29024 -0.043822 0.36139 0.86226 0.48318 0.0044144 0.18841 -0.38341
dollars -0.13134 -0.094572 -0.49613 -0.32576 -0.21097 0.526 0.28123 0.11061 -0.043377 0.83972 -0.51206 -0.16587 0.12381 -0.84022 1.0376 -0.41105 0.28366 0.52833 0.61437 -0.13449 -0.67446 3.1191 -1.1678 -0.22655 -1.5461 0.13984 -0.23211 0.72034 0.11537 0.73895 0.23631 -0.87948 -0.060243 -0.11122 -0.21178 0.23763 -0.16638 -0.82897 -0.4994 -0.77319 0.32423 0.14055 -0.13272 -0.3023 -0.24659 -0.29543 0.20011 0.47052 -0.46682 0.84139 -0.098228 -0.4908 0.69868 0.81769 -0.016902 -0.4744 -0.94407 0.3288 -0.40427 -0.03882 0.40822 0.23488 -0.27391 0.26749 -0.49998 -0.19574 0.26344 0.25708 -0.63569 -0.794 -0.23406 -0.08439 -0.51445 -0.32703 0.52644 1.3756 0.21301 0.2152 -0.60645 0.35384 -0.19558 -0.25623 -0.11656 0.24902 -0.22872 0.060286 0.57828 -0.2702 0.26725 0.27394 0.17264 -0.24831 -0.44668 0.17821 0.65843 0.25937 0.54728 -0.10887 -0.39238 -0.35372 -0.21077 0.029466 -0.93457 0.5998 -0.38069 0.60111 0.64624 1.4402 -0.6901 -0.45014 0.33827 -0.32729 -0.10416 0.56125 -0.60738 -0.43886 -0.26172 0.41811 0.71096 -0.71268 -0.29073 -0.84358 0.77497 0.23966 -0.17011 -0.94913 -0.37348 0.040115 0.3212 -0.48612 -0.14831 0.048846 -0.762 -0.64142 0.17533 0.74766 0.050051 -0.26559 0.38233 0.38879 0.98881 -0.30135 -0.15492 -0.026283 0.16582 0.0062952 0.33644 0.43707 -0.1366 0.033182 -0.032714 -0.097151 0.40439 0.37445 -0.61808 0.49478 -0.6321 0.16332 -0.11515 -1.1335 0.16787 0.068025 0.52448 -0.21488 -0.26262 0.47931 0.19924 -0.32502 -0.62682 0.6218 0.080226 0.28497 -0.045524 0.31778 0.38203 -0.3173 0.4615 0.21542 -0.18445 -0.02342 1.7613 0.45391 0.1801 0.030584 0.16262 0.19826 -0.090246 0.078647 0.21149 -0.45424 -0.034975 0.080006 0.1874 0.5035 0.38461 0.035018 -0.27936 -0.14165 -0.047526 0.25046
iraq -0.169 -0.26466 1.1095 -0.32535 -0.68019 0.37876 -0.74451 0.96507 0.4946 0.419 0.024036 0.12788 -0.24245 0.35549 0.11256 0.2277 -0.38552 0.35677 -0.52651 -0.024329 0.72162 3.4446 -0.16947 1.1144 0.11663 0.26161 -0.70119 -0.16779 0.09196 -0.41846 0.23721 -0.5986 0.46218 -0.83259 -0.34366 -0.093492 -1.4786 -0.91049 0.037558 0.014447 0.016546 0.22281 -0.23086 -0.43465 0.34553 -0.10551 -0.63282 -0.5028 0.24762 -0.42363 1.0296 -0.21596 0.13367 0.33936 0.19995 0.11717 0.17605 -0.46699 -0.044854 -0.18187 0.36281 -0.43791 0.76525 -0.17663 0.73872 -0.47833 0.35901 -0.22599 -0.3507 -0.3723 0.084253 0.77597 -0.42934 0.29991 0.82523 0.43833 0.064554 -0.18284 0.41509 -0.54522 -0.36757 -0.21838 0.1409 0.080161 0.047938 -0.010348 -0.048646 0.32108 0.29458 -0.77637 0.2766 -0.40533 0.15696 -0.32737 -1.0211 0.072854 -0.41626 0.35135 -0.30577 0.052886 0.81381 0.10791 -0.56361 0.21558 -0.080328 1.0195 0.14041 0.78408 0.55648 -0.27516 -0.39818 -0.10868 0.29514 0.20488 -0.201 -0.48323 0.12844 0.26245 0.32185 -0.51705 0.071809 -0.1823 1.0385 -0.19687 0.61214 -1.1988 0.78654 -0.36572 0.37199 0.50275 0.38805 0.8796 0.065737 -0.5576 0.093372 0.41928 0.27804 -0.2057 0.2659 -0.14632 -0.10919 0.20297 -0.82183 0.023498 0.85781 -0.19441 -0.36003 -0.4646 -0.43937 -0.078091 -0.15731 -0.092871 0.012741 -0.10305 0.21871 0.16446 -0.50384 0.19637 0.4491 -0.15216 0.24393 -0.39877 0.17424 -0.10251 -0.50316 -0.49471 -0.4825 -0.48039 0.04825 0.2686 0.44884 -0.11125 -0.25444 -0.78522 -0.22205 0.34848 0.19425 -0.59019 0.018642 -0.70933 1.1282 -0.17153 0.19388 -0.021412 0.14229 -0.24727 -0.17497 0.21031 0.39143 -0.5262 -0.28985 -0.46412 -0.029123 0.44945 0.2559 -0.5627 0.018539 0.16965 -0.26051 0.15887
women 0.30834 0.23346 -0.48038 -0.16742 0.17602 0.13814 -0.71571 0.33146 -0.45749 0.43242 0.22606 0.042362 0.20451 -0.39499 -0.11533 0.42714 -0.51412 -0.38323 -0.24799 0.67052 0.97969 2.6143 -0.021031 -0.44619 -0.10812 0.42473 0.6569 -0.28049 -0.18088 0.5353 0.6012 -0.19846 0.39529 0.27598 -0.33022 0.45306 -0.67972 -0.80223 0.33498 0.39773 0.51149 -0.44098 -0.32294 -0.18579 -0.95809 -0.11046 0.035554 -0.9443 -0.40411 0.079851 -0.21971 -0.15414 -0.20636 0.84151 -0.18724 -0.088716 -0.12331 0.095787 0.46582 -0.22578 -0.065484 0.40656 -0.42367 0.96444 0.60683 1.0994 0.30847 0.64299 -0.27597 0.085474 0.59606 0.57301 0.82597 0.24745 -0.14648 0.33006 -0.55757 -0.34949 0.17762 -0.2351 -0.89173 0.68744 -0.60737 0.73746 0.46797 0.10026 0.10029 -0.31598 0.29205 -0.1986 -0.38231 -0.1217 0.046869 0.028645 0.31438 -0.15964 0.17811 0.28985 0.025385 -0.096847 -0.063294 0.21185 0.35575 -0.45624 0.25316 -0.67159 0.90738 1.5024 0.11755 0.12415 0.05924 -0.29405 0.63726 -0.040833 -0.42257 0.63337 0.2366 0.7886 -0.45727 0.21545 -0.17738 0.1983 0.057768 0.34501 0.20226 -0.17147 0.034344 0.26811 -0.090035 -0.54975 0.31195 0.05372 0.36018 0.275 0.30529 -0.046442 -0.63438 -0.41293 -1.1117 0.17026 0.10739 -0.58715 0.30673 0.090665 1.0648 0.11886 -0.58119 0.0066049 -0.56752 1.2936 0.20112 0.27324 -0.026032 -0.96176 0.02853 0.36976 0.49353 -0.46658 -0.74949 0.66433 0.36401 0.15722 0.71511 0.32553 -0.07344 0.24831 0.14961 -0.5207 -1.0156 0.38221 -0.040121 0.47419 0.18508 -0.03487 -0.39391 -0.5905 -0.46314 -0.54933 0.028044 -0.35792 1.3214 0.0059011 -0.80795 0.092005 -0.37175 -0.14274 -0.4429 0.43894 0.1346 0.10288 -0.056445 0.71122 0.40734 0.25407 0.31966 0.087852 0.58422 -0.22234 -0.31319 0.29816
children 0.13907 0.32276 -0.33376 -0.020556 -0.3393 -0.36751 -0.85157 0.16778 -0.904 0.96269 0.48702 0.099472 0.71964 -0.12537 -0.29363 0.59295 0.17012 -0.07992 -0.32542 0.5414 0.50939 3.1144 -0.10128 0.35303 -0.26428 -0.37826 0.20698 -0.92745 0.12604 0.54464 0.45627 0.39618 -0.097164 -0.12294 0.30392 0.17621 -0.25415 -0.44733 -0.013707 -0.16825 0.012098 -0.24318 -0.51804 0.018472 -0.092968 0.18548 1.0536 -0.24087 -0.31487 0.19996 0.11874 -0.029425 -0.27132 -0.17407 0.011075 0.087924 0.050102 0.55936 0.45135 -0.068566 0.041742 0.11765 -0.44299 1.279 -0.23025 0.43858 0.041617 0.27528 -0.45392 0.057413 0.52577 0.21535 -0.17091 0.75458 -0.21489 -0.046911 -0.054458 0.22947 0.55618 -0.2013 -0.14982 0.87349 -0.93434 0.38697 0.25277 0.37026 -0.41509 -0.97738 0.5086 -0.19616 -0.020124 0.13751 0.50991 0.24441 -0.035752 0.23541 -0.10357 -0.2412 -0.28857 0.22688 0.28505 -0.067496 -0.13239 0.33646 -0.055138 -0.9053 0.88125 0.91565 -0.11117 -0.74873 0.32642 0.0088569 -0.067518 -0.44574 -0.12153 0.059307 0.12264 0.064106 -0.01795 -0.90339 0.31339 -0.46263 0.13013 0.016284 0.48869 -0.99227 0.35631 0.38799 0.23841 -0.35826 0.44782 -1.0036 0.033949 0.089648 -0.11032 0.25289 0.39619 -0.40385 -0.76274 0.17581 -0.11536 -0.06591 0.018736 0.36022 0.76748 0.39179 -0.21592 -0.13644 -0.40684 0.48017 0.22007 0.53523 -0.71518 -0.17551 0.16769 0.037175 0.18011 -0.0070168 -0.29891 0.46593 0.012633 -0.28149 0.58474 -0.11694 0.11394 -0.1466 -0.40483 -0.15749 -0.12463 0.61278 -0.54431 0.67296 0.13868 1.0649 0.25855 -0.45314 0.086542 -0.092094 0.58437 -0.074823 1.4466 -0.18852 -0.43325 -0.53058 -0.43244 -0.17275 -0.080637 -0.22889 -0.21259 0.058827 -0.3548 -0.15852 0.18931 0.36534 0.40527 -0.61372 0.1788 -0.20907 -0.25497 -0.064445
washington 0.20907 0.37161 0.17479 -0.55491 -0.41478 -0.18916 -0.18598 -0.3208 -0.10431 0.08591 0.19249 -0.049072 -0.30858 -0.57319 0.65677 0.16475 -0.35993 0.056707 -0.51631 0.18231 0.73479 2.6201 -0.53544 0.77904 0.16685 1.2312 0.1455 -0.071567 0.45417 0.42805 -0.37034 -0.12054 -0.026705 0.050434 -0.62526 -0.17195 -0.87475 -0.15928 0.57958 -0.12417 0.2254 0.18682 0.44254 -0.19368 0.072875 0.019991 -0.071542 -0.45872 0.62462 0.41955 0.54856 0.44754 -0.09845 0.57517 0.27382 -0.30478 -0.18546 -0.4268 0.22662 0.053776 -0.036415 0.68793 0.2941 -0.22958 0.12166 -0.60107 0.27426 -0.16513 0.75411 -0.12858 -0.27504 0.26161 0.0078633 0.05681 0.24236 0.59022 -0.34636 0.1489 0.30185 -0.15256 -0.23413 -0.070004 0.48952 -0.0016071 0.11014 -0.21734 -0.22086 -0.12596 0.60649 -0.3778 0.038151 0.38138 0.64715 -0.42776 -1.0016 0.6029 -0.1995 0.21829 0.36599 0.14822 -0.01572 0.12234 -0.13676 -0.53569 -0.36428 0.14257 -0.064997 1.7526 -0.25561 -0.38952 -0.40266 -0.29479 -0.41816 0.35067 0.38698 -0.32656 -0.24222 -0.11604 -0.54498 -0.016429 -0.15318 0.4961 0.54848 0.25322 0.3889 -0.32918 -0.7701 0.74599 -0.35666 0.28159 -0.0057188 -0.034727 -0.3043 -0.1723 0.027084 0.29642 -0.2014 0.73929 -0.06847 0.28713 -0.1042 -0.1899 -0.52866 0.38809 1.8185 1.0984 0.328 0.1966 -0.049922 -0.20551 0.339 0.052789 -0.14216 -0.053628 0.64193 0.25784 0.05085 0.021195 0.012785 -0.56812 0.068974 -0.39462 -0.32876 -0.49556 -0.1055 -0.25593 -0.69477 0.47223 0.28388 0.052722 0.38225 0.24609 -0.19318 0.12236 -0.36911 0.067121 0.1026 0.28608 0.36201 -0.03491 0.09242 -0.32752 0.0065487 -0.12861 -0.023079 0.01533 -0.28808 -0.020553 0.18943 0.41204 -0.20437 -0.22985 -0.10414 0.097717 -0.19838 0.23785 -1.1337 0.38331 0.21829 0.047564
man 0.10627 -0.58248 -0.27217 -0.26772 -0.11844 -0.0013373 -0.18707 0.1511 0.20336 -0.50561 -0.056029 -0.14278 0.27876 0.5657 0.10539 0.20012 -0.10245 0.38694 0.0049881 -0.20792 0.43314 2.7799 -0.0037724 -0.15376 0.003544 -0.32788 -0.22937 -0.32938 0.10435 0.1837 -0.20869 -0.12898 0.19762 0.57719 0.48807 -0.22012 -0.7815 -0.26464 -0.46928 0.4823 -0.72708 0.017301 -0.35347 0.16986 -0.40509 0.031622 -0.085332 0.11077 0.23554 -0.18391 0.23047 0.50146 0.18733 0.33038 0.38698 -0.16126 -0.12255 -0.064396 0.52114 -0.19056 -0.29464 -0.2826 -0.84987 0.208 -0.04265 -0.30999 0.45363 0.34151 -0.0066935 0.062788 0.043688 -0.31161 -0.17607 0.65094 -0.58473 -0.36569 -0.34423 -0.43389 0.065343 -0.12442 0.17572 -0.284 0.019135 -0.53385 -0.40021 0.21464 0.014933 0.016345 -0.31991 -0.68469 -0.057154 0.31403 -0.28191 0.62003 -0.59969 0.075217 -0.17093 -0.21516 0.31219 0.64726 0.057606 -0.23318 0.17409 0.18636 0.12784 -0.85055 -0.12307 1.1455 -0.037782 0.32608 0.32714 -0.41493 -0.03378 -0.020761 -0.7491 0.26303 -0.34439 0.32692 -0.70086 -0.046634 -0.050236 0.2561 0.046046 0.2167 0.027547 -0.19104 0.29514 -0.26253 0.51427 -0.47265 -0.3965 -0.014644 0.11092 -0.42111 -0.17097 -0.27003 0.23945 0.2782 -0.75243 -0.12806 0.49752 0.25289 0.73583 -0.25678 1.8087 0.26838 0.58882 0.044866 0.43145 0.2781 0.34408 0.17439 -0.12762 0.11552 -0.39833 0.12771 -0.22887 -0.14351 -0.52339 -0.29325 0.088909 0.84056 0.1871 -0.13646 0.19423 -0.66192 8.5687e-05 0.24278 -0.6809 -0.06271 0.25439 -0.30117 0.38821 0.13239 -0.31887 -0.27511 -0.47149 -0.30114 0.32686 -0.0038738 1.0342 0.173 -0.77236 0.059479 -0.38417 -0.26487 0.081626 0.11445 0.15213 0.12093 -0.34896 -0.13335 0.23203 -0.021832 0.65154 0.11376 0.13703 0.45007 0.05151 0.70033
men 0.14214 -0.43638 -0.15235 -0.18906 0.15795 0.28928 -0.55834 0.29494 -0.072932 0.32652 -0.23279 -0.49685 -0.0091973 -0.07777 0.0082944 0.1467 -0.32942 0.17819 0.19982 0.32639 0.6682 2.4428 0.098563 -0.3145 -0.19537 0.12332 0.11881 -0.45425 -0.013015 0.43888 -0.051906 -0.089571 0.50242 0.10496 0.091405 0.3375 -1.2533 -0.58771 -0.053807 0.71802 -0.001873 -0.40223 -0.075902 -0.025499 -0.52497 0.086534 -0.061356 -0.39373 -0.006362 -0.43929 -0.41079 0.49334 -0.28166 0.92023 0.27626 -0.017443 -0.0013603 -0.10759 0.57198 -0.37266 -0.096396 0.26769 -0.79921 0.4841 0.55758 0.51022 0.25864 0.2029 0.0085081 -0.18813 0.38165 0.34936 0.15847 0.049318 0.060899 -0.23964 -0.13579 -0.28556 0.33835 -0.12995 -0.5656 0.74746 -0.38659 0.18662 -0.27957 0.36866 -0.13764 -0.34769 -0.62925 -0.4476 0.012886 -0.30656 0.12173 0.66711 0.41992 -0.017399 -0.043614 -0.052462 -0.15512 -0.07239 0.22341 -0.061801 0.093182 -0.20521 0.32667 -0.42311 0.92308 1.4499 0.060372 0.49584 -0.11669 -0.39333 0.28648 0.40856 -0.666 0.77641 -0.024419 0.52776 -0.17704 -0.11747 -0.1713 0.71294 -0.15357 0.14781 0.10696 -0.54364 0.070223 -0.0027464 0.37961 -0.55131 0.15486 0.3318 0.267 -0.19911 0.10948 0.17242 -0.3003 -0.24874 -1.0596 0.03213 -0.086968 0.085051 0.43164 0.028638 0.98139 0.51031 -0.54538 0.048121 -0.1617 0.91369 0.70505 0.19893 0.29032 -0.68752 0.017643 0.2704 0.12019 -0.47453 -0.61641 0.079361 0.06898 0.75108 0.36632 0.33315 -0.043556 0.45442 -0.19887 0.00074474 -1.0589 0.14219 0.36452 0.15352 -0.13178 -0.053054 -0.25374 -0.42222 -0.32548 -0.67489 -0.11898 -0.22038 1.2531 -0.18114 -1.0042 0.31924 -0.22606 -0.40642 -0.25136 0.30788 -0.063864 0.082261 -0.17667 0.60052 0.35827 0.11427 0.57594 0.38559 0.61149 -0.075121 -0.23768 0.76222
israel 0.14507 0.89732 0.88267 0.39924 -1.1544 0.074871 -0.46511 0.38954 -0.22635 0.48873 -0.57647 1.0434 0.21441 0.30983 0.17102 -0.49238 0.43241 0.1345 -0.73671 -0.17786 0.28914 3.3983 0.042806 -0.13095 -0.48158 0.18177 0.14761 0.54263 -0.341 -0.26934 -0.65734 -0.63743 0.27983 0.011448 -0.55963 0.18892 -1.7801 -0.88511 0.26041 0.10951 -0.22338 0.53068 0.32084 -0.11978 -0.029579 -0.578 -0.40138 0.061918 0.72357 0.1564 0.06578 -0.88115 -0.40197 0.020126 -0.01337 0.1456 0.4597 0.019684 0.14725 -0.61994 -0.49563 0.38626 0.66154 0.088088 0.46019 -0.12201 -0.020456 0.24507 0.37436 -0.093289 0.91558 0.77463 0.082476 0.44019 0.14821 0.71339 1.0921 0.49835 0.2366 -1.1807 0.14841 -0.53516 -0.458 0.66604 -0.72621 -0.61965 0.22189 0.21388 -0.39361 -0.30236 0.44366 -0.18667 0.058203 -0.76237 -1.2012 0.15046 -0.40898 -0.010545 -0.61021 -0.13857 0.24207 -0.78575 0.37966 -0.74309 -0.5868 -0.43047 0.15173 0.57673 0.26462 -0.51449 -0.48495 -0.0092324 -0.54749 -0.6875 0.10671 0.24075 -0.3958 0.10815 -0.45708 0.19827 0.0060068 0.15462 0.24995 0.60566 0.11033 -0.1417 -0.24939 -0.23607 -0.21746 -0.70183 0.34199 -0.03219 -0.16876 -1.1239 0.17476 0.39607 -0.059771 -0.70543 -0.68468 0.4987 0.26566 -0.25628 -0.35353 0.5817 1.144 0.82354 0.18365 -0.13226 -0.18576 -0.063276 -0.22493 0.19306 0.43884 0.39709 0.13065 0.45357 -0.49012 0.75733 -0.064728 -0.50851 -0.12154 -0.98247 -0.16132 0.5329 0.4915 -0.5188 -0.32742 0.30324 0.50668 0.49017 0.078065 -0.44927 -0.46167 -0.61844 0.15882 -0.12596 -0.53477 0.20972 0.30188 -0.1375 0.072198 0.25766 -0.43957 0.45582 0.92975 0.66805 -0.024571 -0.079035 0.099815 -0.19971 -0.68474 0.68001 0.31917 0.0656 0.51851 0.18837 0.103 0.31922 -0.23938 -0.1566
chinese 0.79137 0.1308 -0.057917 -1.108 0.44915 -0.16197 -0.33573 0.32837 0.17944 0.03969 -0.1775 -0.14091 -0.76377 -0.63083 0.64275 0.11997 0.87757 0.27455 -0.43675 -0.4673 0.86869 3.1415 0.11992 -0.26586 -0.20034 1.0791 0.090875 0.4086 -0.070893 0.51153 0.83121 -0.62051 -0.098004 0.37709 0.35941 0.25713 -0.16583 -0.29776 -0.2029 -0.22827 0.52383 0.56737 0.10318 -0.83014 -0.596 0.40477 0.82823 -0.34153 -0.46227 0.17679 -0.36134 0.037451 0.11999 0.046473 -0.49009 -0.52315 -0.49328 0.44123 0.063178 0.77272 -0.017249 0.57736 -0.1701 1.0627 -0.30937 -0.0031591 -0.23152 0.47369 -0.23183 -0.20005 -0.18528 0.16217 0.48094 0.05608 -0.76234 1.1479 0.20509 -0.12092 0.10734 -0.23437 -0.14161 0.1085 -0.32926 0.070264 -0.29108 0.37208 1.1783 0.0034658 -0.022316 0.025553 0.19144 -0.057774 -0.40923 -0.50771 -0.47861 0.046677 -0.00010426 -0.37304 0.11232 0.059236 -0.068391 -0.21162 -1.0587 0.30958 0.19778 -0.15465 0.26604 0.06612 -0.03105 0.042682 0.66833 -0.87267 0.34189 0.13802 -0.12888 0.13131 -0.40269 0.41917 -0.93168 0.19856 0.19019 0.52408 -0.19945 0.21986 -0.2938 -0.30567 0.048141 0.13436 0.35243 0.59737 0.7863 0.22096 0.025139 -0.1372 -0.46564 -0.054446 -0.80742 0.41259 0.01243 -0.30504 0.46608 -0.31082 0.23334 -0.01118 1.369 -0.33181 -0.32702 -0.77132 -0.54244 0.015805 0.14718 0.34981 -0.015178 0.43776 0.19275 -0.39013 -0.2978 -0.38222 -0.5056 0.05487 0.53898 0.54009 -0.043846 -0.37377 -0.20297 1.0663 -0.42507 -0.17587 -0.56349 0.72856 -0.28689 -0.68228 -0.27152 0.16645 -0.28517 0.34366 -0.21784 -0.087708 -0.11195 0.093724 1.0364 -0.20572 0.011236 -0.93227 -0.3084 0.11064 -0.27425 0.52655 0.18361 0.078768 -0.71193 0.11917 0.13041 0.35172 0.38166 0.61623 0.13243 0.27976 -0.14048 0.64866
french 0.55495 -0.64143 -0.026605 -0.71064 0.80083 0.067061 -0.46596 -0.14986 0.78226 -0.36595 -0.39602 -0.08048 -0.15658 0.11019 0.12627 0.053099 0.28986 0.84596 0.35286 -0.20453 0.013586 2.7437 0.83541 0.16195 -0.29453 0.5424 -0.57967 -0.053391 -0.24135 0.099372 0.68074 0.48935 0.10308 -0.59185 0.47797 0.14515 -0.67023 -0.090428 -0.049951 -0.94132 0.24871 0.11755 -0.11531 -0.27966 -0.35654 -0.10623 0.33851 0.51611 0.08003 -0.058415 -1.0743 0.7836 -0.62773 0.54511 -0.47842 0.37044 -0.56109 0.3829 0.91861 0.23391 0.36173 -0.35084 -0.24653 0.12641 -0.029442 0.67432 0.14307 0.33283 -0.20993 -0.41951 -1.2822 1.1205 0.77294 0.021185 -0.47255 0.59067 -0.94633 -0.19492 -0.21116 -0.49823 0.38245 -0.71356 0.14404 0.10923 0.22974 0.46177 0.6152 0.64764 -0.12887 -0.56747 0.020304 0.44397 -0.058733 -0.33705 -0.8209 -0.65532 -0.0092776 -1.0048 -0.6051 -0.5239 0.2966 0.27689 -0.056033 -0.079362 -0.44369 0.58101 0.21583 1.0202 0.69575 -0.024948 0.098475 -0.55184 0.85545 0.57212 -0.18006 -0.36477 -0.55144 -0.16977 -0.58853 0.12116 -0.39813 0.78384 0.87625 -0.12392 0.71636 0.091164 -0.51086 -0.43588 0.52584 -0.70312 0.13837 -0.90077 0.35645 -0.27746 -0.12686 -0.07536 -0.61514 -0.057554 -1.0124 0.09828 -0.36587 -0.54027 -0.40546 -0.2631 0.84986 -0.4937 0.49171 -0.46219 -0.2135 0.026573 -0.18996 -0.090859 -0.17107 -0.83648 -0.04108 -0.34939 -0.228 0.28636 0.50311 -0.65066 -0.14351 -0.5781 -0.27568 0.84504 0.19711 0.62209 -0.44957 0.37573 -0.30191 0.32438 -0.47684 -0.049025 -0.25967 0.14022 -0.05921 -0.1845 -0.32764 -0.39802 0.73964 -0.010879 1.2919 -0.72714 0.58165 -0.34891 -0.10023 0.14159 -0.098667 -0.11833 0.55728 0.030451 -0.63389 0.46469 0.05945 -0.21203 -0.30627 0.23228 1.0518 -0.11513 0.33169 1.142
great 0.52559 0.13313 -0.25822 -0.35589 0.19426 0.012541 -0.2661 0.21794 0.17734 0.014566 0.15909 0.19091 0.22196 0.69873 0.39646 0.44945 0.045873 0.4098 0.18525 -0.21667 0.53482 2.398 0.49459 -0.060762 0.46428 -0.3864 -0.4689 0.36738 0.10273 0.018488 0.044144 -0.083392 -0.41997 -0.31633 -0.46418 -0.20707 -0.45538 0.36926 -0.32159 -0.33229 -0.19297 -0.14694 -0.3431 0.15939 -0.21216 0.15657 0.35494 0.48976 -0.13349 0.10426 -0.17967 -0.30722 0.21122 0.49915 0.46088 0.25375 0.056918 0.2772 0.093081 -0.20423 -0.25596 0.002089 -0.74692 -0.18127 0.085217 0.065036 -0.19157 0.62644 0.53927 -0.19639 0.44153 -0.66676 0.29403 0.3882 -0.14249 -0.14232 -0.39452 -0.19124 0.35051 -0.11519 0.2467 0.0097777 -0.68308 0.52415 -0.41691 0.21288 0.092311 0.11338 0.99037 -0.76199 0.29411 -0.071651 0.067358 -0.16296 -0.88182 -0.36317 0.27995 -0.15678 -0.34243 -0.44231 0.32603 0.38239 0.040579 0.13821 0.23832 0.2914 -0.069573 1.0109 -0.036482 0.1333 -0.19942 0.040488 -0.31374 -0.43999 0.012746 0.15247 -0.53864 -0.18918 -0.82685 0.29905 0.31877 0.49832 0.33199 -0.087668 0.25584 -0.33326 -0.33451 0.077968 -0.073756 -0.15263 0.10932 -0.0058965 -0.1979 0.0881 -0.1661 0.27236 0.1471 0.66279 0.26539 -0.41039 -0.015656 -0.29069 -0.38817 0.09144 1.6994 0.44434 0.23167 -0.6106 0.15437 0.65307 0.021339 -0.063 -0.83494 0.11619 0.58443 -0.20987 -0.25716 -0.14879 0.2332 0.086988 0.34157 1.0534 0.5286 -0.59574 0.45074 0.091493 0.049 -0.13462 -0.80646 0.89404 -0.55344 -0.37839 0.45078 -0.0082608 -0.037581 -0.052625 -0.13529 -0.6453 -0.083655 0.47983 0.98883 -0.17486 -0.33018 0.11869 -0.68533 -0.28206 0.15661 0.24844 0.02714 0.43374 -0.2385 0.30149 -0.40179 -0.044029 0.18347 -0.2626 0.022597 0.41602 0.18878 0.25919
small 0.14383 -0.22725 -0.066752 -0.42349 -0.19718 -0.5831 -0.47963 0.4266 -0.38857 -0.25738 0.26876 0.38185 0.29901 0.11876 0.43104 -0.38802 0.22745 -0.18781 -0.15235 0.16902 -0.024228 2.5966 0.12089 -0.1146 -0.19397 -0.027462 -0.28805 -0.099409 -0.43808 -0.35471 0.28524 0.29429 -0.26361 0.59643 0.15076 -0.20141 -0.31632 -0.15967 0.12404 0.067507 -0.092289 0.57134 0.014043 0.93957 -0.44267 -0.17662 0.81758 -0.011167 -0.56328 0.38469 -0.19694 -0.047975 -0.84622 0.24271 0.41488 -0.046143 -0.33709 0.12655 0.079719 0.21727 0.24353 -0.073579 -0.54741 -0.3344 -0.12698 0.23742 -0.4886 0.0014765 -0.12462 -0.55294 0.29878 -0.067004 -0.55305 0.32021 -0.14905 0.3602 0.10131 -0.21225 -0.10632 -0.19544 0.0050526 0.040371 0.15627 0.29602 0.49255 0.2482 -0.36033 -0.009445 0.77741 -1.0028 -0.16486 -0.16023 -0.13834 -0.18572 0.17201 -0.18009 0.49521 -0.74208 -0.24242 -0.2136 0.71 0.026674 0.31474 -0.19777 -0.28816 -0.2731 0.28365 0.59744 0.0060665 0.25834 -0.33038 -0.075266 0.0086015 0.32096 -0.073261 -0.0017961 0.19658 -0.5635 -0.29024 -0.27931 0.66357 0.68233 -0.35781 -0.30345 0.21693 -0.50851 0.9942 0.38633 0.34144 -0.0086911 -0.24522 -0.17243 0.35769 -0.41718 -0.054429 0.064956 -0.30889 -0.42063 -0.18184 -0.21182 0.18213 0.11867 0.15674 0.021427 1.0197 -0.18982 -0.063876 -0.39928 -0.047606 -0.18584 -0.40174 0.024589 -0.13021 -0.39461 0.90985 -0.29898 0.14076 0.12775 0.032745 -0.99574 -0.19862 0.27279 -0.081907 -0.037515 -0.29044 0.049081 0.16714 0.11025 -0.71257 0.50209 -0.53262 -0.30853 0.16731 0.64416 0.20366 -0.4351 0.29895 -0.50831 -0.024278 0.25105 1.0739 -0.13967 -0.58397 0.45009 0.52775 -0.11872 -0.36417 0.23498 0.14982 0.4625 -0.55384 0.77635 0.15409 -0.094165 0.082762 0.38151 -0.67745 0.40581 -0.13974 0.062642
japan 0.11557 0.30654 -0.099759 -0.60698 -0.47956 -0.093203 -0.34112 0.018065 0.82363 -0.3903 -0.29231 0.24322 0.043279 0.1591 0.37781 0.89608 -0.38243 -0.30553 0.34854 0.18982 0.55301 2.5504 -0.20216 -0.9146 -0.032709 1.1474 -0.19384 0.31012 0.38183 -0.19353 0.18881 -0.83463 -0.8503 -0.0039497 -0.83407 0.4395 -0.85073 -0.16585 -0.024979 0.10057 0.31688 -0.25115 -0.0085714 0.62737 -0.43142 0.12891 0.48305 -0.35468 0.10945 0.069445 -0.02765 0.15453 -0.30983 -0.053497 -0.1587 0.12537 -0.5941 -0.53508 0.3065 0.42601 -0.30159 -0.081267 0.03902 0.023065 0.75045 0.29117 -0.010115 0.24164 0.55622 0.085542 0.58035 0.011922 0.18614 0.66483 -0.65217 1.5082 0.41376 0.97874 -0.17499 -0.19225 -0.78963 -0.49498 0.29805 -0.33279 -1.1265 -0.90425 0.53098 -0.26371 0.23409 -0.21054 -0.22711 0.16697 -0.42929 -0.84087 -0.45074 -0.22061 -0.36999 0.2189 -0.32953 -0.24366 0.34221 0.40946 -0.91467 0.39694 -0.58528 0.64927 -0.34418 0.22005 -0.613 -0.12493 0.17332 -0.18142 -0.16529 0.32361 -0.22602 0.41049 0.15915 0.36003 -0.53445 -0.1793 0.74328 0.52326 -0.39493 0.072413 0.10459 -0.36393 0.015283 0.24572 0.19913 0.28799 0.40666 -0.23003 -0.08938 0.10302 0.2676 -0.011873 -0.34186 0.29408 -0.33057 -0.50705 -0.0050181 -0.21579 0.090285 0.28382 0.18597 0.16135 -0.17871 -0.59307 -0.8202 0.22121 0.1071 -0.25283 0.56919 0.092207 -0.015623 0.095133 0.42414 -0.38915 -0.24739 -0.86494 0.37129 0.37751 -0.53458 -0.46065 -0.49616 0.66675 0.22067 -0.56037 -0.050762 1.2368 1.1904 0.1781 0.16545 -0.23906 -0.51473 1.0254 -0.81814 -0.62659 0.97579 -0.5586 1.3035 -0.077604 0.16345 0.19121 0.060454 0.64601 -0.25954 0.31181 0.24442 -0.69425 -0.97122 0.097615 0.16877 0.058354 0.89227 0.15108 -0.20629 -0.40401 -0.44657 -0.389
big 0.1965 -0.13586 -0.78151 -0.46159 -0.25448 0.010221 -0.3009 0.0576 -0.23677 0.26843 -0.27285 -0.086485 0.37483 -0.32967 0.71206 -0.18927 -0.26853 0.19408 -0.15147 0.18652 0.49812 2.4908 -0.0093752 -0.024163 0.34138 -0.0010182 0.046969 0.14695 -0.20614 -0.24105 0.23737 -0.50453 -0.44353 0.49605 0.0041297 -0.14543 -0.17554 -0.24542 -0.22371 0.083625 0.25181 -0.10676 -0.29526 0.52608 -0.20973 0.0067736 0.16815 -0.078266 -0.54699 0.26991 0.065516 0.010385 -0.25201 0.48456 0.26783 0.29299 -0.93362 0.20397 0.078456 0.31052 0.215 -0.18201 -0.70936 -0.53086 0.17616 0.12321 -0.0069337 0.55135 0.74651 -0.15613 0.76704 -0.24943 -0.21887 -0.12716 -0.23757 0.083966 -0.46264 0.17248 -0.46218 -0.4338 -0.28526 -0.17397 -0.078202 -0.10374 -0.27711 -0.046546 -0.53143 0.14324 0.87583 -1.5997 -0.23772 -0.28418 -0.0055842 0.21722 -0.11172 -0.16697 0.19571 -0.56517 0.10511 -0.47131 0.83867 0.30052 0.13991 -0.47781 -0.056953 0.0015317 -0.1718 1.4015 -0.51571 0.63396 -0.30088 -0.14548 -0.2669 -0.11265 0.074027 0.45955 0.21625 -0.30148 -0.13666 0.03053 0.51026 -0.012133 0.3728 -0.4578 0.013064 -0.43108 -0.048845 0.069995 0.62009 0.28937 -0.70055 -0.49797 0.083132 -0.56988 -0.3708 -0.085167 -0.39842 0.39107 -0.086718 0.15121 -0.17054 -0.12612 0.2501 0.23093 1.0628 0.40069 0.75211 -0.74064 0.016633 0.0059955 0.20724 -0.15794 -0.52948 -0.14669 0.35385 -0.17989 -0.16975 -0.26191 0.11102 -0.42003 -0.0016324 0.50708 0.35045 -0.57345 0.034199 -0.09402 0.28216 0.019523 -0.39758 0.35008 -0.23103 -0.40234 0.55079 0.48549 -0.25477 -0.13076 -0.35898 -0.20454 -0.42976 0.60268 0.97868 -0.025818 -0.31953 0.54255 -0.12713 -0.033811 0.12478 0.42487 0.40869 0.13873 -0.27804 0.34443 -0.15151 0.046257 0.4185 0.055063 -0.31555 0.21763 -0.030997 0.29519
france 0.35895 -0.23826 0.10966 -0.20719 0.25959 -0.12635 -0.21755 -1.0249 0.36569 -0.098827 -1.0076 0.38503 0.0078451 0.39194 0.06353 0.29581 -0.43215 0.8419 -0.12609 -0.42416 0.24723 2.3522 0.28514 0.039622 -0.29905 0.51506 -0.67845 0.082014 0.16715 -0.57623 0.48384 -0.45361 -0.12113 0.060057 -0.3261 0.17674 -1.1333 -0.13792 -0.11139 -0.64115 -0.046856 -0.36625 0.026819 0.56172 -0.33858 -0.30754 0.29828 -0.030486 0.1602 -0.49176 -0.4646 0.0623 -0.8098 1.1166 -0.16258 0.49816 -0.94076 -0.36432 0.97526 -0.2105 0.086335 -0.49671 0.19538 -0.065841 0.27487 0.8688 -0.34972 0.299 -0.43865 -0.67921 -0.76558 0.70844 0.97794 0.75151 0.34561 0.2734 -0.35574 -0.25023 0.043579 -0.4468 0.51176 -0.17289 0.2538 -0.20891 -0.093699 -0.29496 0.8703 0.65502 -0.22479 -0.20237 -0.089818 0.2851 -0.64446 -0.54146 -1.0009 -0.6412 0.22023 -0.38737 -0.6744 -0.75765 0.3505 0.60692 0.048801 0.10846 -0.22434 0.65698 0.32763 1.2799 0.34212 -0.19658 -0.58371 -0.3706 0.3367 0.81586 -0.26926 -0.9541 -0.50637 -0.12763 -0.63652 0.33627 -0.0065266 0.75743 0.47637 -0.08603 0.55983 -0.42907 -0.50985 -0.6263 -0.11979 -1.1244 -0.041267 -0.58395 0.02732 -0.55245 0.31962 0.35528 -0.56374 -0.047892 -0.93712 -0.26904 -0.46115 -0.71106 -1.0465 0.04666 0.92866 -0.30804 0.31511 -0.25954 -0.32379 0.26791 -0.071118 -0.43342 0.14789 -0.90603 0.20775 -0.045094 -0.078621 0.12094 0.56834 -0.56051 -0.61078 -1.1862 -0.066136 0.84068 0.59027 0.24977 -0.20199 0.062045 0.52374 0.62419 0.039687 -0.16314 0.073009 -0.27563 -0.025747 0.27912 -0.39414 -0.20131 0.9549 -0.27161 1.1537 -0.63805 0.24133 0.23688 -0.12868 0.080935 0.31995 0.18305 0.62087 -0.053079 -1.2148 0.16307 -0.44674 0.3144 -0.050074 0.21148 0.95315 -0.29231 0.14578 0.72513
israeli 0.22176 0.82566 0.3624 0.091068 -0.47764 0.2447 -0.7814 0.72488 0.41759 0.33087 0.013145 0.71789 0.63652 0.14364 0.10803 -1.004 0.76519 -0.012591 -0.53844 -0.20038 0.063536 3.532 0.84113 0.035497 -0.55289 -0.11486 0.16533 0.037949 -0.48792 -0.073396 -0.77954 -0.23642 0.28788 0.15414 -0.093933 0.41012 -1.6237 -0.83012 0.17294 0.2189 0.40253 0.73098 0.21576 -0.48522 -0.27835 -0.51509 -0.7249 -0.10631 0.80209 0.3496 -0.0088862 -0.35252 -0.27789 -0.13115 -0.30133 0.24182 0.89335 0.58224 0.027951 -0.882 -0.19941 0.36614 0.42824 0.16506 0.35285 -0.27711 0.48708 -0.048512 0.40919 -0.12825 0.45354 0.79042 0.34726 -0.067872 -0.077248 1.0937 1.0436 0.61275 0.50742 -1.4076 0.035041 -1.0049 -0.84851 0.89771 -0.58996 0.041228 -0.010685 0.12678 -0.65009 -0.81661 0.76941 -0.12189 0.31339 -0.53887 -0.77049 0.18727 -0.52054 -0.76076 -0.50581 0.15616 0.29656 -1.2489 0.085623 -0.81755 -0.85832 -0.29764 0.119 0.10416 0.45407 -0.30154 -0.11682 -0.054403 -0.266 -0.85741 0.32613 0.45133 -0.21633 -0.033606 -0.51579 -0.46549 -0.27656 0.30106 0.62597 0.62415 0.33692 -0.16905 -0.12334 -0.2691 0.32297 -0.54721 0.82914 -0.20127 0.0011388 -0.86104 0.035078 0.42611 -0.35793 -0.85146 -0.89882 0.74275 0.16771 -0.059239 0.20782 0.5286 1.3735 0.51023 0.45317 -0.053093 -0.068206 -0.0093352 -0.50301 0.27287 0.21903 0.31483 0.009981 0.268 -0.13586 0.98155 -0.28947 -0.90711 -0.085381 -0.38404 -0.26975 0.81156 0.39316 -0.22817 -0.37028 0.32854 0.080108 -0.056362 -0.064455 -0.62196 -0.98387 -0.28688 0.17073 -0.19849 -0.43542 -0.19518 0.048373 0.05781 0.061541 0.018619 -0.14668 -0.33694 1.1979 0.98104 -0.043977 -0.029663 -0.10213 -0.057569 -0.11883 0.75092 0.86483 -0.16292 0.23112 0.55103 0.28419 0.32046 -0.84855 0.22448
russia 0.88506 0.52781 1.0596 -0.14134 -1.0677 -0.30127 0.12791 0.031878 0.25419 0.47179 -0.50861 0.43129 -0.1294 -0.51255 0.67664 0.72049 -0.23186 -0.093678 -0.41914 0.40833 -0.10006 2.8853 -0.93547 -0.094159 -0.4225 0.23953 0.38857 -0.13362 0.44328 -0.15199 -0.58021 -0.74661 -0.44772 -0.63165 -1.0785 0.26944 -1.0558 -0.32956 -0.89974 -0.34638 -0.20051 -0.37624 0.303 -0.13653 0.035294 -0.33395 0.10055 -0.74299 -0.056199 -0.058714 0.1981 0.34692 -0.59197 0.082542 -0.17867 -0.75976 -0.70459 -0.31045 0.76998 0.97656 -1.0073 0.62959 0.12341 -0.63523 0.74723 0.6416 -0.32488 -0.27913 -0.10547 -0.36826 0.026582 -0.2685 -0.16561 -0.044877 -0.18112 1.208 0.2433 -0.1023 -0.11116 -1.0982 0.14653 -0.12416 0.058228 -0.48159 -0.15527 0.32745 0.97891 -0.02459 0.41759 0.51768 -0.46052 -0.040209 -0.27437 -0.19905 -0.32952 -0.3032 -0.14293 0.2374 -0.22807 -0.88899 0.20273 0.46819 -0.14425 -0.37215 0.11326 0.28659 0.40724 0.31575 0.41577 0.17467 -0.34859 -0.16331 0.39166 -0.17773 -0.19648 0.1507 -1.1506 0.018356 -0.5339 0.57535 0.050886 0.68101 0.76171 -0.10542 -0.24556 -0.69626 0.059532 -0.60126 -0.37948 -0.24443 -0.019106 0.15329 -0.54923 -0.24413 -0.10042 0.98592 0.41908 -0.22607 -0.26218 -0.28978 0.34613 -0.19449 -0.27434 0.6107 1.4208 0.39695 -0.99168 -0.48199 -0.70221 0.48694 -0.20287 -0.26683 0.44951 -0.0033105 0.043485 -0.52859 -0.41906 -0.10596 -0.52013 -0.1622 -0.0020456 -0.40042 -0.60019 0.52079 -0.49375 -0.4781 -0.48158 -0.30528 0.33256 0.35232 0.57536 -0.35632 -0.24062 -0.49565 0.26497 0.55524 -0.20027 -0.25338 0.81979 0.08689 1.3244 -0.78433 -0.088789 0.68975 0.24452 0.0027988 0.65815 0.86068 -0.065844 0.20409 -0.18232 0.66343 -1.0548 0.26814 0.57273 -0.038315 0.20506 -0.66608 0.26399 0.5668
free -0.18335 0.17794 -0.24214 0.23286 -0.029716 -0.25644 -0.33917 0.0086091 -0.64328 0.17975 -0.040831 0.16329 0.041135 0.38169 0.11986 0.57975 -0.087387 0.16001 0.028985 -0.11602 0.37265 3.0076 -0.62532 -0.078363 0.21527 0.23814 -0.33172 0.14316 0.19923 -0.036443 -0.13864 0.43665 0.16988 -0.45053 -0.20453 -0.30864 -0.14183 -0.14256 -0.54131 0.0055162 0.1595 0.13088 0.54953 -0.0020004 0.14253 -0.31212 0.76442 -0.44078 -0.47075 0.029434 -0.56347 0.35395 -0.12884 0.09806 -0.87177 0.11542 -0.15652 0.51424 0.25638 -0.035253 0.01944 -0.18819 -0.017907 -0.10637 0.43932 0.056721 0.16118 -0.13938 -0.1365 -0.14114 0.74438 -0.1709 0.30009 -0.0056526 -0.023204 0.29731 -0.17322 -0.29664 0.19264 -0.046433 0.082068 -0.3675 0.29169 0.098118 -0.18719 0.038407 0.28687 -0.6829 0.37564 -0.79738 0.12297 -0.19798 0.061923 -0.0057411 -0.0083981 0.054762 -0.32304 -0.026323 -0.084788 -0.3402 0.081351 0.17714 0.38485 -0.24689 0.33952 -0.90466 0.13768 1.7557 -0.40387 -0.26719 -0.41635 -0.6888 -0.13335 0.35861 0.13225 -0.048421 0.46771 -0.30042 -0.51277 -0.33248 -0.42064 0.38245 0.44757 -0.19554 0.10533 -0.41848 0.42114 -0.26331 -0.48244 0.51325 -0.4245 0.39256 0.39597 -0.072173 0.2316 -0.098748 -0.31975 0.027586 0.31191 0.11711 0.36256 -0.078215 -0.075791 -0.29319 0.75208 -0.18933 -0.96027 -0.16375 -0.61878 0.44647 0.23199 0.57367 0.071325 0.64222 0.16792 -0.20376 -0.027153 -0.49403 -0.39828 -0.2264 -0.48434 0.19371 0.14284 0.25052 -0.10791 -0.18532 -0.44977 0.48166 -0.62396 0.80546 -0.060519 0.21702 0.20493 0.79275 1.0659 0.5585 -0.74867 -0.32964 0.23689 0.02686 0.85465 -0.10395 -0.093683 -0.46929 -0.21688 0.21994 0.023492 -0.43488 -0.049712 0.095294 -0.48526 -0.67474 0.24703 -0.27448 -0.57628 -0.28761 -0.99595 -0.37221 -0.56497 0.23337
large 0.40733 -0.62964 0.063709 -0.34533 -0.11115 -0.27927 -0.36759 0.29519 -0.33691 -0.42212 0.11296 -0.10034 0.24741 0.17139 0.33949 -0.33341 0.28832 0.21171 0.032963 -0.032416 -0.15622 2.7731 0.0090639 0.13111 -0.11403 0.30505 -0.1667 0.063798 -0.15644 0.10392 0.41223 -0.45123 -0.037276 0.40065 0.54958 -0.087336 -0.36342 -0.4831 0.22664 0.086185 0.035261 0.071198 -0.15366 0.75582 -0.43321 -0.21851 0.52773 -0.27509 -0.39891 0.10374 0.097573 0.021193 -0.67318 0.23454 0.83431 -0.068542 -0.41106 0.085869 -0.13846 0.25525 -0.029282 0.32853 -0.58732 -0.49084 0.03186 0.31032 -0.09008 0.071254 -0.16935 -0.5263 0.13042 -0.21791 -0.12744 0.24098 0.07657 0.36928 0.11116 -0.073401 -0.080724 -0.41314 -0.28021 0.091297 0.28573 0.29472 0.091268 0.52408 0.1215 -0.076932 1.2006 -1.2478 -0.22152 -0.033902 -0.19722 0.18382 -0.081068 -0.18608 0.80701 -0.60908 -0.28202 -0.35637 0.43356 -0.39469 0.17162 -0.40654 0.15587 -0.32488 0.35524 0.55261 0.065574 0.43988 -0.40697 0.036506 -0.31451 0.21126 0.62395 0.18972 0.32143 -0.41673 -0.44458 -0.20616 0.55231 0.40733 -0.27487 -0.19168 0.17556 -0.86619 0.95049 0.16183 0.20974 0.84316 -0.10491 -0.040273 0.37795 -0.70861 0.20803 -0.0184 -0.25171 -0.52165 -0.035216 0.0027061 -0.018399 -0.13375 0.15997 -0.079843 0.84676 0.14826 -0.11812 -0.21735 -0.14388 -0.51922 -0.29745 -0.15096 -0.40536 -0.51415 0.93367 -0.34546 -0.043516 0.14743 0.30051 -0.75093 0.1021 0.5461 0.13215 0.058529 -0.171 0.14353 0.35727 -0.22236 -0.72718 1.0654 -0.40114 -0.29191 0.065524 0.52635 -0.21044 -0.13302 0.15437 -0.48631 -0.31109 0.48038 0.99823 -0.18654 -0.49119 0.21127 0.65917 -0.14374 -0.43644 0.46361 0.37806 0.26222 -0.25686 0.55288 -0.016099 -0.32564 0.25209 0.033358 -0.2116 0.38301 0.06681 -0.016562
better 0.28758 0.41002 -0.16365 0.34996 -0.15445 -0.30822 -0.79037 -0.12045 0.28549 0.45915 -0.12851 0.19657 -0.14273 -0.26366 0.21048 0.6105 0.060025 0.26559 0.29183 -0.16671 0.26403 2.9983 -0.091205 0.12911 0.23796 -0.17579 0.45706 0.17302 -0.11643 -0.089938 0.10095 -0.090818 -0.39334 -0.25838 0.16788 -0.38793 -0.24657 -0.027568 0.00096368 0.11341 -0.61039 -0.081568 -0.52489 0.004247 -0.39614 -0.066843 0.38212 0.064264 -0.054051 -0.14699 -0.41072 0.16308 -0.18386 0.64547 -0.063783 0.044485 0.19949 0.093023 -0.16299 0.089872 0.13393 -0.394 -0.4609 0.30527 0.17842 0.46683 -0.25186 0.31042 0.42397 -0.043089 0.70815 0.55338 0.36613 0.18987 -0.25247 -0.15412 -0.39739 -0.29472 -0.21284 0.20084 -0.095059 0.45598 -0.14345 0.2386 0.0506 -0.055588 -0.085721 -0.48159 0.92455 -0.88562 0.58742 -0.14093 0.1959 0.035666 0.07249 0.067498 0.23133 -0.24471 -0.015857 -0.087482 0.17038 -0.278 -0.42399 0.36646 0.29537 0.74796 -0.30165 1.5512 -0.66373 -0.28988 -0.1567 -0.11971 -0.31498 -0.081889 -0.17483 -0.37206 0.25181 -0.31363 -0.15961 -0.17768 0.65292 -0.28896 0.55659 -0.031076 -0.56011 -0.11958 -0.15385 0.38178 0.093221 -0.21531 -0.14802 0.020917 -0.060966 0.075 0.2052 0.15461 -0.084418 -0.10065 0.22979 -0.39601 -0.14365 -0.49426 0.10748 0.097025 1.1001 0.62689 0.12846 -0.743 0.2809 0.22046 0.20078 -0.0034906 0.30286 0.028557 -0.37234 -0.1414 -0.17838 0.21722 -0.2387 0.27825 0.33969 0.2606 -0.11341 -0.1788 0.099424 -0.079952 0.12013 0.22992 -0.46559 -0.13208 0.015878 -0.31799 0.24818 0.049274 0.20652 0.015103 -0.27665 -0.063889 -0.13172 0.57845 1.0327 -0.24422 -0.23463 0.11484 -0.04054 -0.37873 0.19075 -0.17899 -0.11016 -0.027668 -0.38293 -0.16075 -0.3233 0.33199 0.0010362 -0.064936 -0.18844 0.16052 0.012687 0.025178
building -0.067834 -0.13145 -0.041222 -0.2484 0.0010617 -0.29467 0.011324 -0.5861 -0.45701 0.44158 0.44514 -0.08157 0.39464 0.29928 0.35169 0.53463 -0.038137 0.17057 0.86858 -0.081165 -0.63931 3.1355 0.66348 -0.23126 0.13833 -0.023253 0.028722 0.0041246 0.3612 -0.21134 -0.087977 -0.45203 -0.51552 -0.052361 -0.55605 -0.16042 -0.52336 -0.0097022 0.3597 0.37383 -0.24071 0.2396 -0.57369 0.011051 0.076065 0.11197 0.09536 -0.46255 -0.34924 0.28654 -0.17161 0.39087 0.1815 0.27011 -0.21564 0.045033 -0.049644 0.17626 -0.29078 0.084702 0.088898 0.59731 -0.36613 0.0048354 0.017095 -0.28712 -0.70407 -0.15652 -0.64916 -0.028058 0.091262 -0.34123 -0.15747 0.15516 -0.1513 0.53032 -0.32444 -0.019479 -0.20121 -0.14637 0.13936 -0.28173 0.099965 0.52676 0.37062 0.22956 -0.17307 0.078549 1.1175 -0.48279 0.5217 1.0721 0.2707 -0.21668 -0.82027 0.4677 0.11765 0.072782 -0.088738 0.37189 -0.35616 -0.43405 0.088038 -0.12378 -0.11699 -0.52744 -0.074784 0.69336 -0.013655 0.80054 -0.39372 -0.60516 -0.75021 0.37097 -0.38891 -0.15443 -0.24544 -0.20869 -0.087193 -0.047857 0.17184 0.13786 0.21512 -0.01022 0.0029315 -0.79575 0.40042 0.15856 -0.021862 -0.36336 0.011581 0.065335 0.13783 -1.0078 -0.24041 -0.12789 0.54376 0.36919 0.28629 0.4392 -0.33836 0.17923 0.23428 -0.32078 0.55288 0.79581 0.20274 0.10332 -0.020852 -0.35735 0.078426 -0.46211 0.15862 -0.60604 0.60289 -0.29172 -0.3911 -0.16413 -0.15105 -0.54207 0.85146 0.09874 -0.25406 0.2179 0.15551 -0.29923 -0.17079 -0.086674 -0.56751 0.94642 0.22588 -0.10882 -0.17744 -0.41204 -0.0012653 -0.69693 0.55992 -0.1926 -0.1322 0.2792 0.61611 -0.08582 -0.07839 -0.36629 0.89291 0.0040237 -0.049034 0.2381 0.25761 0.6867 0.16741 0.80766 0.16752 -0.14984 0.53992 -0.14964 -0.39377 0.82218 0.17277 0.0016726
young 0.44117 -0.38503 -0.65742 0.0027367 0.49731 -0.47697 -0.40062 0.49824 -0.021506 0.46502 0.58553 -0.45356 0.3424 0.22456 -0.17768 0.37364 0.16107 -0.24486 -0.36226 -0.029832 0.66598 2.2419 -0.22036 0.10277 0.15722 -0.20341 0.17694 -0.70927 -0.13138 0.43077 0.14568 0.2184 -0.18058 0.38755 0.22618 -0.024495 -0.36914 -0.23269 -0.016 0.65939 -0.32197 -0.30523 -0.19919 -0.18371 -0.34682 -0.034119 0.48694 -0.065408 0.0064013 0.76469 0.20611 0.23135 -0.22313 0.38099 -0.13436 -0.077543 -0.031826 0.67737 0.47418 -0.063642 -0.2217 0.14896 -0.80991 0.36596 -0.10845 0.12983 0.58818 1.0915 -0.41581 0.085958 0.72208 -0.12891 -0.0052375 0.84998 -0.6551 0.092756 -0.43789 0.12288 0.28551 0.035689 0.058332 0.57248 -0.2331 0.32873 0.12491 1.0456 0.24676 0.0082004 0.39217 -0.40113 -0.023556 -0.14379 0.093961 0.43759 -0.69324 -0.031209 -0.18531 -0.21254 0.36253 0.3658 0.58436 0.27193 -0.083698 -0.26048 0.092387 -0.57335 -0.3298 1.1478 0.060125 0.14984 0.2672 0.090799 -0.16953 -0.55399 -0.28648 -0.027267 -0.12655 0.31575 -0.46293 -0.23819 0.021387 0.12139 0.013687 0.6125 0.45447 -0.73769 0.28997 0.19677 0.80558 -0.062752 0.061955 -0.19409 0.61145 0.1919 -0.18051 0.042992 0.10158 -0.0014579 -1.1254 -0.33885 -0.19308 -0.16144 0.037199 0.36654 1.4235 0.22303 0.33534 -0.47472 -0.076904 0.42831 0.72848 0.27193 -0.66109 -0.44227 0.22022 0.13356 0.061665 -0.27488 -0.49244 -0.20638 -0.22847 0.44801 0.3276 0.56039 -0.074891 0.34721 -0.19257 -0.20196 -0.29458 0.11751 0.26697 -0.17949 0.303 0.73323 0.073806 -0.37918 -0.77767 -0.48633 0.19617 -0.13116 1.1712 -0.34018 -0.50559 0.11249 -0.27197 -0.019539 0.095402 -0.26501 -0.52318 -0.12799 -0.17439 0.27386 0.2976 0.17072 0.26929 -0.030119 0.18223 0.079701 -0.19668 0.36745
russian 1.0881 0.20305 0.75391 -0.72573 -0.51395 -0.3154 -0.062747 0.47716 0.76453 -0.0023427 -0.069689 -0.014351 -0.086187 -0.65063 0.68361 0.33429 0.32839 -0.14796 -0.40191 0.42221 -0.24573 3.0802 -0.25821 -0.21131 -0.68653 0.30007 0.32096 -0.42014 0.16678 0.1443 -0.71197 -0.0019355 -0.24021 -0.85602 -0.090378 0.10375 -0.69653 -0.29105 -0.31875 -0.57335 0.28263 0.13556 0.0098241 -0.82255 -0.27161 -0.26435 0.0031096 -0.43909 -0.060715 -0.030179 -0.18108 0.74342 -0.45369 -0.42281 -0.70955 -0.71545 -0.34203 0.41556 0.70475 0.90271 -0.94994 0.62022 -0.24372 -0.47957 0.46866 0.47859 0.026775 -0.37171 0.11204 -0.14785 -0.57654 0.014527 0.17244 -0.84943 -0.60371 1.265 0.04057 -0.1073 -0.072029 -1.0894 0.12748 -0.48163 -0.40749 -0.2362 -0.068731 0.99938 0.95397 0.0058856 0.48831 0.055633 -0.23026 -0.022725 0.32931 -0.15874 -0.042681 -0.33073 -0.48398 -0.4717 -0.033473 -0.5399 0.11289 0.079594 -0.24706 -0.46919 0.071939 -0.074358 0.46609 -0.075239 1.0606 0.50841 0.31591 -0.13573 1.0469 -0.23004 0.0064108 0.55339 -1.1933 -0.18568 -0.14672 0.093359 -0.25595 0.63098 0.89544 -0.12089 -0.081962 -0.42197 0.083561 -0.30077 0.31089 -0.12117 0.0086441 0.14097 -0.24894 0.1165 -0.5369 0.58244 0.7422 0.040048 -0.65807 0.023713 0.33127 -0.16689 0.22133 0.53863 1.6366 0.11424 -0.86602 -0.53157 -0.39456 0.20374 -0.22659 -0.0084315 -0.0066824 0.11069 -0.14826 -0.7125 -0.33851 0.1124 -0.46003 -0.40265 0.26178 0.36998 -0.50789 0.76015 -0.51812 -0.14119 -0.72784 0.038987 0.052557 0.25843 0.26702 -0.32665 -0.57846 -0.042198 0.21179 0.32716 -0.49428 -0.54497 0.63103 0.37554 1.1024 -1.0367 0.22498 0.19431 0.3763 -0.18333 0.37817 0.7554 -0.15865 0.28065 0.23093 1.0674 -0.62018 0.14675 0.10216 0.23373 0.14609 -0.62058 0.46361 1.2577
india 0.70372 0.63592 -0.049522 0.08013 -0.23837 0.16099 0.40911 0.010195 -0.038136 -0.11211 -0.15057 1.0014 -0.51784 0.11428 -0.25988 -0.12952 -0.38066 0.56304 -0.20361 0.42629 0.0031651 3.2066 -0.14814 0.19738 0.60954 -0.20487 -0.16529 1.5731 0.81018 0.0054659 0.44647 -1.1974 -0.1667 -0.034957 -0.23592 0.19449 -0.30062 -0.47871 -0.054198 -0.093299 -0.34409 -0.29381 0.25181 0.63102 -0.72367 -0.38043 -0.087755 -0.43951 -0.17207 -0.5217 -0.244 -0.044542 -0.16838 -0.26438 -0.17562 -0.33746 -0.38011 0.11634 0.3515 0.19324 -0.71287 0.54914 -0.16859 0.32083 0.84012 0.023606 -0.36049 -0.16917 0.021749 -0.83271 -0.26476 -0.58098 -0.84177 0.90855 -0.88447 0.62128 0.33015 0.24048 -0.31179 -0.026093 0.09993 0.17869 -0.75065 0.38359 0.32446 -0.031412 -0.087693 -0.25653 0.35572 0.55505 -0.6383 -0.1076 -0.21922 -1.1987 -0.76799 -0.45337 -0.1787 -0.2628 0.58932 -0.19539 0.63909 0.52982 0.16076 0.40558 -0.29594 0.20216 0.0067106 0.3227 0.15105 -0.16511 -0.75351 -0.95208 -0.16975 -0.12012 -0.33244 0.57209 0.3261 0.4684 -0.49835 -0.26977 -0.0088386 0.44159 -0.1949 0.66333 0.49532 -0.18726 -0.4709 -0.13573 0.015765 -0.39402 0.2464 0.52535 -0.68423 0.16882 -0.23455 0.23791 -0.16323 0.13812 0.10544 -0.45747 0.057875 -0.66852 0.066011 -0.090329 1.0341 -0.14296 -0.37009 0.3901 0.079722 -0.2437 0.32992 -0.43281 0.19374 0.097304 0.42588 0.14239 -0.13104 -0.031096 -0.31748 -0.61463 -0.27041 -0.27942 0.060646 0.39452 0.36715 0.29296 0.19578 -0.76442 -0.18261 0.3598 0.222 0.15049 0.13977 -0.0081448 -0.039114 0.39332 -0.12253 0.46466 0.24893 -0.32011 1.034 0.029634 0.43713 0.87066 -0.60383 0.31843 -0.66131 0.56136 -0.19788 -0.30963 -0.39618 0.21651 0.010276 -0.18712 0.55347 0.74848 0.16399 -0.49797 -0.009289 0.2104
germany -0.13017 -0.62753 -0.015186 -0.087395 -0.11605 0.079062 0.59441 -0.66375 1.0093 0.41546 -0.52338 1.3384 0.12546 1.3155 0.49967 0.47705 0.39114 -0.33547 0.27999 -0.2673 -0.10675 2.5974 0.090074 -0.63574 -0.41926 0.3596 -0.45834 0.018393 0.74297 -0.38207 0.33974 -0.71945 -0.62603 -0.20062 -0.91253 0.40214 -0.89249 -0.27152 -0.043663 -0.75051 -0.042918 0.12397 -0.22033 0.23931 0.37125 -0.90033 0.13232 -0.55112 0.40724 -0.88173 -0.0012972 0.24937 -0.41687 0.17019 -0.55293 0.15233 -0.36008 0.30886 0.43646 0.33213 0.13964 0.10226 0.12472 -0.05565 0.22151 0.7347 -0.020917 0.6317 0.32181 -0.059585 -0.35675 0.20782 -0.19689 0.54054 0.60003 0.34821 -0.15117 -0.062275 -0.15888 -0.21218 -0.22082 -0.020818 -0.047335 0.23158 -1.4867 -0.79253 0.51526 -0.37088 -0.2672 -0.096542 0.30134 -0.43375 -0.17934 -0.020962 -0.31732 0.038212 -0.8182 -0.18674 -0.027134 -0.36134 0.51425 0.50338 -0.14612 0.16915 -0.33736 0.20472 0.28161 0.90689 0.07207 0.028373 -0.56139 0.16426 0.30576 0.05697 0.040031 0.14918 -0.25229 0.58538 -0.054894 0.44549 -0.069489 0.8423 0.49829 -0.48992 0.2162 -0.54154 0.086335 -0.3668 -0.72382 -0.1759 -0.0098721 -0.31613 0.3349 -0.90436 0.668 0.20022 -0.73981 -0.18924 -0.6307 0.045388 -0.28242 -0.85276 0.08175 0.24306 0.76667 0.028379 0.11254 -0.35988 -0.38625 0.6937 0.19816 -0.21588 0.36795 -0.61718 0.64773 0.42786 0.015888 0.029372 0.30324 -0.080295 -1.1787 -0.56989 -0.78357 0.085288 -0.13558 -0.10268 -0.092785 -0.36163 0.62766 0.85099 0.39096 -0.20859 0.15432 -0.52672 0.65936 0.20525 -0.78766 -1.0905 0.52559 -0.34423 1.0929 -0.15887 -0.0089608 0.72786 0.11744 -0.48439 0.79012 0.90627 0.33812 -0.22661 -0.60268 0.32258 -0.74514 0.88331 0.51703 -0.099919 -0.64537 -0.15966 -0.063609 0.1202
german 0.19148 -0.80242 -0.17437 -0.69922 0.49242 0.33625 0.1738 -0.23754 1.6726 -0.15844 0.014778 0.98455 0.065446 1.0213 0.76041 0.13587 1.1357 -0.30212 0.59507 -0.04705 -0.28435 3.0593 0.51115 -0.63588 -0.64579 0.16334 -0.41551 -0.089418 0.32246 -0.063015 0.36428 0.19088 -0.47775 -0.72847 0.2239 0.21267 -0.67071 -0.18002 -0.11549 -1.1252 0.61184 0.571 -0.47019 -0.60396 0.30539 -0.63691 -0.001604 -0.083232 0.38776 -0.73217 -0.51354 0.77144 -0.017334 -0.38199 -1.1781 0.65089 -0.15474 0.94854 0.70685 0.5352 0.29153 -0.0019242 -0.26207 -0.040184 -0.25643 0.63682 0.38132 0.49231 0.45117 0.038564 -0.74753 0.51187 0.066669 -0.050766 -0.16533 0.73167 -0.55012 -0.018621 -0.030214 -0.27375 -0.010061 -0.37051 -0.19932 0.38498 -1.4305 0.13683 0.41233 -0.57804 0.032373 -0.59398 0.75891 -0.48078 0.42826 -0.028203 -0.23594 -0.15627 -0.94669 -0.80932 -0.041248 0.081106 0.5282 0.1559 0.036803 -0.1386 -0.58052 0.048593 0.22098 0.51208 0.56347 0.24744 0.23677 -0.057187 0.88435 -0.28545 0.38795 0.7503 -0.37142 0.47407 0.10167 -0.003511 0.054708 0.8372 0.69317 -0.39625 0.4377 0.016586 0.18382 0.20738 0.0623 -0.1077 0.079356 -0.6896 0.50433 -0.37394 0.31836 -0.1017 -0.61129 0.056703 -0.70899 0.25262 -0.30131 -0.61115 0.72232 0.0053455 0.80037 -0.29402 0.14261 -0.36025 -0.35081 0.57807 -0.085791 -0.055249 0.10242 -0.43989 0.49179 0.12791 -0.16158 0.40447 0.36553 -0.13486 -0.73398 0.070612 -0.54017 0.58495 -0.40575 0.22377 -0.2147 -0.22359 0.29223 0.84836 0.18048 -0.19673 -0.078078 -0.16946 0.58968 -0.30922 -0.85983 -1.1458 0.18824 -0.15123 1.0353 -0.28852 0.36911 0.51114 0.085393 -0.54272 0.28097 0.68098 0.52015 -0.40581 -0.47218 0.62493 -0.14661 0.41295 0.14712 0.10172 -0.35712 0.39721 0.015095 0.64872
london 0.71532 0.16641 -0.48097 -0.020402 0.10218 0.014272 -0.019702 -0.81312 0.36719 -0.037414 0.58157 -0.019543 0.43348 -0.22288 -0.044915 -0.5476 -0.59102 0.19714 0.25647 -0.012524 0.34845 2.4127 -0.051494 0.23437 -0.35661 0.031817 -0.33128 -0.094288 0.34012 0.27699 0.33538 -0.46079 -0.01537 0.32493 -0.063064 -0.16182 -0.34936 -0.016132 0.25468 -0.49273 -0.31397 -0.17617 -0.08401 -0.024731 0.099926 -0.23143 0.0034358 -0.38911 0.78794 -0.47933 -0.14844 0.42871 -0.038955 0.67145 0.26889 -1.218 0.42376 0.71623 0.42107 -0.084601 0.42918 0.12589 0.01619 -0.71168 -0.24818 -0.53149 0.066935 -0.1474 -0.30841 0.46548 -0.84722 -1.0067 0.15405 0.4752 0.65231 0.0062474 0.18088 0.33116 0.20791 -0.031167 0.30941 0.11484 -0.4954 -0.26838 -0.60091 0.22556 -0.08426 -0.41468 1.4238 -0.22948 -0.16462 0.68971 -0.63198 -0.53514 -0.81902 0.31548 -0.48266 0.035228 -0.52247 -0.079732 -0.46111 0.45808 -0.12971 0.43956 -0.24224 0.11665 0.047534 0.83804 -0.075789 0.37285 -0.64649 -0.18055 -0.48613 0.31936 -0.10219 -0.38716 0.2474 0.42406 0.24252 -0.20398 -0.37547 0.25658 0.46489 0.29222 0.57025 -0.7493 -0.64625 0.69929 -0.17276 -0.83043 -0.41305 0.12522 1.4378 -0.069694 -0.052447 0.60584 -0.50048 -0.85163 -0.27407 0.67016 0.27653 -0.24095 -0.021487 -0.28441 0.3864 -0.2427 0.087311 -0.28494 -0.25985 0.57415 0.01271 0.10353 0.33888 0.40656 0.12879 0.037916 -0.30293 -0.11896 -0.10053 -0.37028 -0.041512 -0.24005 0.4976 1.0177 0.042994 -0.51258 -0.60908 0.15219 -0.35468 0.34067 -0.36024 0.35701 -0.14384 0.16956 -0.080289 0.85426 -0.41229 -0.55716 0.75397 -0.1812 1.3508 0.069142 -0.51958 -0.59479 0.3574 -0.74673 -0.10371 0.31954 0.13669 0.28459 0.36563 -0.15316 -0.39386 0.30581 0.6123 0.48508 -0.79744 0.43418 0.88277 0.49588
europe 0.28492 -0.22451 0.33027 0.082976 -0.39986 0.39863 -0.21172 -0.76332 0.15485 0.45658 0.17484 0.55246 -0.60239 0.69079 0.32392 0.34232 -0.27763 0.54188 0.069432 0.31798 0.23328 2.5916 -0.12192 -0.48795 -0.03135 0.020064 0.21602 0.15276 0.58241 -0.11073 0.34957 -0.53733 -0.36657 -0.33415 -0.090124 0.37598 -0.39233 0.044154 -0.11656 -0.21755 -0.22577 -0.37906 0.17442 0.31137 -0.12955 -0.1781 0.1606 -0.12838 0.32276 -0.53614 -0.032041 0.15399 -0.72927 0.37303 -0.11693 0.016281 -0.33544 0.11126 0.0063468 -0.0049011 -0.068677 -0.1073 0.18299 -0.18729 0.47219 0.30248 0.053105 0.44465 0.11043 -0.81414 -0.048093 0.43696 0.17387 0.67668 0.11335 0.48248 0.13126 0.021122 -0.14841 -0.736 -0.11588 -0.30989 0.33007 0.18891 -0.53734 0.35015 0.55894 0.1648 0.81394 -0.75031 0.059852 -0.11455 -0.60776 -0.50318 -0.66177 -0.33106 0.10655 -0.14558 -0.83086 -0.59253 -0.01081 0.27415 0.114 0.30832 0.1397 0.76759 -0.15815 0.64245 0.075818 0.084565 0.27604 -0.57366 0.093724 0.067914 0.20118 -0.2928 -0.41747 0.17203 -0.10503 0.2371 0.62944 0.28826 0.90919 -0.41825 0.84369 -0.64564 0.12333 -0.070981 -0.52461 0.015535 -0.47379 -0.36943 0.64732 0.042333 0.31195 0.28961 -0.46477 -0.32616 -0.18652 0.28149 0.17838 -0.89699 0.032906 0.17524 0.56462 0.2109 -0.11161 -0.40182 -0.12091 0.57252 0.16624 -0.23641 0.14404 0.12624 0.42178 -0.12361 0.18641 -0.26367 -0.010003 0.047318 -0.63933 -0.14729 -0.39533 0.29759 0.024197 -0.22911 0.013811 -0.84284 0.19696 0.94089 0.22562 -0.023774 0.26959 -0.31897 0.062609 0.65147 0.052609 -0.24001 0.28642 -0.41957 1.6579 -0.0052309 -0.14354 0.27542 0.058173 -0.085564 0.25016 0.2386 -0.26864 -0.0072531 -0.25645 -0.061166 -0.53786 0.85874 0.40777 -0.4696 -0.54145 0.24571 0.84902 0.98948
iran 0.037556 0.31592 0.6348 -0.70743 -0.36346 -0.0081204 -0.63122 0.57773 0.27638 0.13263 -0.30286 0.79088 -0.5684 -0.50227 -0.089208 0.30199 0.12623 0.52134 -0.095926 0.54924 0.24274 2.9603 -0.98301 -0.13106 -0.41888 0.44051 -0.40002 0.16673 0.33525 -0.59731 0.01131 -1.2104 0.11301 -0.70937 -0.52313 -0.44388 -1.3483 -0.80805 0.17932 0.096928 -0.33242 0.024345 -0.19052 -0.32976 0.28538 -0.38868 -1.1692 -0.34777 0.20341 -0.049953 0.25039 -0.30291 0.19383 0.14873 0.2407 -0.16707 -0.43902 -0.13887 1.1654 0.41058 -0.84531 0.17759 0.786 0.56035 0.71606 0.55307 0.29947 -0.19195 -0.35791 0.48611 0.034725 0.36474 -0.75829 0.16839 0.48319 0.24601 0.27825 -0.026042 0.93675 -1.1514 0.21133 -0.27817 0.68619 -0.44574 0.90506 -0.28152 0.5701 0.29742 -0.019709 0.072152 0.30401 -0.46022 -0.14572 -1.7103 -1.212 -0.11118 -0.27403 0.83982 0.22866 -0.19073 0.3818 0.14779 -0.92847 -0.53373 0.27922 0.81676 0.54 0.37633 0.28261 -0.16666 -0.84225 0.11974 -0.24529 0.4025 0.007945 0.1626 -0.22736 -0.099988 -0.8744 -0.14562 0.26271 0.18873 -0.15208 0.16149 -0.1318 -0.70175 0.064602 -0.48679 -0.18949 -8.4432e-05 0.18883 0.65418 -0.65897 -0.85869 -0.43115 0.4844 0.46674 0.33384 0.53101 -0.013974 -0.2274 -0.24904 -0.34373 0.10836 1.2056 -0.05226 -0.36009 -0.49715 -0.25116 0.42056 0.13817 -0.19304 0.38641 0.10968 0.69452 0.78527 -0.61662 -0.12764 0.73622 -0.79705 -0.045213 -1.0279 -0.060963 0.21367 0.06675 -0.70391 -0.22559 -0.76083 0.63152 0.63104 0.42067 -0.61811 0.048556 -0.55433 0.32705 -0.21943 -0.52374 -0.26791 0.13312 -0.70094 0.94657 -0.14293 -0.51125 0.42263 0.15313 -0.75701 0.19237 0.64068 -0.18996 -0.43581 -0.11294 -0.18673 0.20138 0.48174 0.31649 0.071989 0.014103 -0.25356 -0.40759 -0.010026
possible 0.31709 0.36451 0.029208 -0.53823 0.35389 0.35332 -1.0008 -0.23285 0.069463 0.26201 0.12835 0.43155 -0.17265 0.33837 0.33031 0.083955 0.1261 0.78341 -0.036168 -0.41997 -0.26828 3.0052 -0.20353 0.34056 0.32384 -0.083126 0.055446 0.0018728 0.07402 -0.58474 -0.18203 -0.10078 0.0053471 0.16174 0.29968 0.033388 -0.23341 -0.32498 0.12873 0.1774 0.0043665 -0.50346 -0.092187 0.75284 -0.12353 0.19557 -0.15625 0.31157 0.54152 -0.17181 -0.20121 -0.33169 -0.47914 0.53168 0.54874 0.13543 0.36076 -0.17423 -0.45168 0.40407 -0.048415 0.40441 0.021511 0.10409 0.57778 -0.56692 0.12178 0.50506 -0.31306 0.61135 0.23189 0.26699 0.28362 0.31925 0.16728 0.69218 -0.18064 -0.35172 -0.15595 -0.60479 0.10939 -0.082646 -0.010179 0.0041357 -0.21349 -0.15744 0.089242 -0.50903 0.37454 -0.90729 0.60124 -0.015947 0.26312 -0.097725 -0.0010651 -0.30604 0.065056 0.34844 -0.33012 -0.034719 0.69637 -0.16154 0.10056 0.20717 -0.090342 0.34142 -0.10647 0.7354 -0.043703 -0.020876 -0.55665 -0.091701 0.23265 0.050585 0.23835 0.058065 -0.095092 -0.4223 -0.4249 -0.073951 0.45579 -0.01573 0.59171 0.026488 -0.52147 -0.53986 -0.059763 0.3068 -0.028989 0.16224 -0.4095 0.51001 0.03359 -0.34878 0.0081617 0.39362 -0.17404 -0.40244 0.069593 -0.15159 -0.087646 0.42283 0.4801 0.21269 1.07 0.17508 -0.091181 -0.059902 -0.15419 0.056966 -0.64135 0.38783 0.12416 0.10946 -0.43214 -0.23002 0.27352 0.16161 0.06384 -0.11273 -0.19017 0.035983 -0.059947 -0.15236 0.041237 -0.01831 -0.15975 -0.24465 -0.16048 0.59982 0.19573 -0.044537 0.25418 -0.43849 0.42882 -0.11164 0.19012 -0.04837 0.085757 -0.076521 1.0074 -0.67135 0.17018 -0.2198 -0.040414 -0.22853 0.40403 0.72832 0.043253 -0.064671 -0.18722 -0.44173 0.07596 0.053199 0.17076 -0.095245 -0.048391 -0.433 0.023814 0.16851
strong 0.42485 -0.06655 -0.10606 -0.41178 -0.12939 -0.23145 0.13162 0.25125 0.23794 0.44568 0.18158 0.55866 -0.48375 0.18387 0.71153 0.42969 0.11768 -0.01505 0.10623 -0.50226 0.25236 2.1689 -0.62255 -0.072687 0.059469 0.10505 0.21822 -0.11126 0.16761 -0.66164 -0.096339 -0.39091 -0.2732 -0.31404 0.26861 -0.34906 -0.51516 -0.2387 -0.73356 0.098805 0.56133 -0.18745 -0.6006 -0.13615 0.12465 -0.40832 -0.22303 0.08674 0.12819 -0.54392 -0.62945 -0.46461 -0.36219 0.34786 -0.088537 -0.33464 0.073427 -0.16777 0.11574 0.10393 -0.0016618 -0.068983 -0.14625 0.034103 0.89544 0.58795 -0.19963 0.48393 -0.37057 -0.19598 0.33864 0.17464 -0.22965 0.12984 0.32865 0.56534 -0.84201 -0.57321 -0.34423 -0.19442 -0.72755 -0.20916 -0.14382 0.36841 -0.32105 0.016614 0.09262 0.13902 1.3176 -1.0732 -0.15883 0.022584 -0.069047 -0.075822 -0.40392 0.090953 0.32256 0.47491 0.3779 -0.34919 0.39842 0.12258 0.22437 0.10047 0.44444 0.10377 -0.18362 1.187 -0.82639 -0.27307 -0.28258 -0.41615 -0.70598 -0.16528 0.23707 0.63594 -0.66356 -0.19175 0.192 -0.22969 0.57272 -0.087921 -0.033007 0.063806 0.19702 -0.090888 0.20113 0.27296 0.32066 0.17599 0.50517 0.095997 0.4772 -0.19938 -0.056588 -0.30445 -0.58014 0.038 -0.35266 -0.56393 -0.70752 0.024784 0.43086 0.12099 1.6377 0.097026 0.57979 -0.94284 0.23411 0.7283 -0.019342 0.20548 -0.029109 0.034836 0.25436 -0.47065 0.15161 0.081382 -0.084701 -0.84858 0.40435 0.045635 0.025374 0.2611 0.15089 0.52215 0.27766 0.065881 -0.21095 0.65475 0.20836 -0.28437 0.18566 0.37811 -0.91099 0.51417 -0.028464 -0.50311 0.0142 -0.0070801 0.76128 0.28246 0.045157 0.37617 0.20083 -0.19271 0.14404 -0.37635 0.13745 0.045726 -0.36617 -0.21756 0.13497 -0.37394 0.29448 -0.28331 0.3325 0.030987 -0.026366 0.29995
england 0.22048 -0.036548 -0.092576 0.319 -0.095863 0.27313 0.30949 -0.38143 0.4871 0.29641 0.47514 0.29517 -0.21971 -0.028364 -0.25131 0.13383 -0.027262 -0.41135 0.21213 0.29343 0.38287 2.0527 0.072205 -0.22631 0.44816 -0.24728 -0.34804 0.53542 0.52549 -0.35387 1.0926 -0.20614 -0.068299 0.72415 -0.24497 -0.61111 -0.62175 0.57772 0.23075 -0.1141 -0.30733 -0.4852 0.36881 0.85935 0.098243 0.47384 0.60313 0.4086 0.59206 -0.42925 -0.083506 -0.31521 -0.109 0.38049 0.26368 -0.023914 0.28558 -0.029174 0.47456 0.019106 -0.20736 0.055977 -0.83933 -1.0836 0.74984 0.21603 0.13759 0.40335 0.27106 0.20201 0.0034425 -0.88743 -0.17601 0.34906 0.0064189 -0.090828 -0.35255 -0.25821 0.021944 0.050416 -0.073456 0.11619 -0.23038 0.19637 -0.081982 -0.37796 -0.050685 -0.50992 0.16187 -0.012786 -0.030472 0.92726 -0.71546 -0.36405 -0.51973 -0.51703 -0.29085 -0.38132 -0.45691 0.063965 -0.050856 -0.31496 0.28104 0.95866 0.031286 0.12359 -0.30123 1.1936 -0.45332 -0.33349 -0.83014 0.15936 0.044263 0.079282 -0.35079 -0.032745 -0.59079 0.10652 -0.70219 -0.41612 -0.26705 0.16261 0.61347 0.62925 0.5706 -0.52021 -0.82431 0.30389 0.043404 -0.63171 0.17909 -0.04209 1.1136 -0.21395 0.17388 0.55613 -0.04859 0.032277 -0.39917 0.22558 0.012412 -0.20136 -0.27479 -0.03929 0.64366 -0.55275 -0.060243 -0.70436 -0.33739 0.75727 -0.067366 -0.6937 0.42441 0.10836 0.22718 -0.32905 -0.87296 -0.40483 0.7924 -0.20858 -0.26928 0.20447 1.1223 0.63731 0.51908 0.55095 -0.074788 -0.39996 0.086199 0.5939 -0.2132 0.38935 0.47673 -0.12142 0.35553 0.56894 -0.0067391 0.066099 0.37764 -0.96279 1.3011 0.15795 -1.0528 0.76113 -0.66288 -0.86325 0.2845 0.091519 -0.46616 0.11904 0.053213 0.4427 0.29901 0.31486 0.47718 0.5814 0.14904 0.65451 0.13299 0.7342
real -0.14151 0.46202 -0.40225 -0.24256 -0.17685 -0.12708 -0.57138 0.79312 0.19091 0.59872 -0.40946 0.28273 0.12673 0.47386 0.45909 -0.089689 0.56641 0.19079 -0.20792 -0.68626 0.38264 2.6768 -0.044729 0.10833 0.25036 -0.045306 -0.23113 0.22326 0.40908 0.27753 -0.35569 -0.13956 -0.64114 0.24718 -0.039214 -0.80588 -0.62582 -0.32656 -0.13113 0.1671 0.27126 0.028271 -0.30438 0.026265 -0.3135 0.33879 0.85873 0.10835 0.32301 -0.0011318 -0.30814 0.13367 0.12408 0.54871 0.71838 0.16024 0.22006 -0.32325 0.70057 0.048327 -0.10618 -0.37251 -0.31799 0.24906 0.34927 -0.64669 -0.37473 0.52516 0.35096 0.13067 0.29403 -0.19108 -0.67245 0.34677 0.12767 0.38326 -0.20072 -0.54206 -0.39893 -0.33137 -0.37427 0.1471 0.21007 -0.14613 -0.16533 0.15624 -0.063325 0.19742 0.94525 -1.4685 0.16907 0.38003 0.086713 0.023327 0.15582 -0.1229 -0.18697 -0.39437 0.56704 0.046441 0.2588 -0.063856 -0.57947 -0.2081 -0.29619 -0.60474 0.21029 1.3383 -0.12051 0.54391 -0.27713 0.059182 -0.33086 -0.030181 0.16427 -0.062741 -0.28777 0.25426 -0.21938 0.32754 -0.22941 -0.35531 0.52712 -0.54975 -1.1063 -0.20674 -0.30486 0.01686 0.2816 -0.44779 -0.44521 -0.53568 -0.24917 -0.23763 -0.23003 0.048216 0.18373 0.12121 0.070069 0.08459 -0.12382 0.60469 0.24237 -0.60507 0.85086 -0.059629 0.67094 -0.48872 -0.094447 0.42051 -0.28764 -0.33691 0.037157 -0.30533 -0.15373 -0.052795 0.23953 -0.36616 0.24334 -0.3016 0.045387 -0.33606 0.062437 -0.19073 0.11294 0.094024 0.062231 0.023289 -0.36857 -0.11456 -0.47853 -0.19574 0.65271 0.12408 0.49735 0.37513 -0.047544 0.63558 -0.32606 0.54922 0.89657 -0.10316 -0.56377 0.18022 0.052405 0.072049 0.386 -0.28642 0.099582 -0.026373 0.019857 0.15039 -0.17887 -0.28107 -0.0030322 -0.1637 0.01391 0.32691 -0.032379 0.278
car 0.015682 0.19355 -0.55093 -0.070453 -0.65923 0.25597 -0.34435 -0.17964 0.63907 -0.4188 0.31996 0.33546 0.21122 0.41592 0.28599 -0.25777 -0.13341 -0.25731 0.27712 -0.32695 0.11008 2.7322 0.46684 -0.73542 0.11934 -0.60756 0.18882 0.16739 0.071712 -0.65601 -0.51485 0.7697 -0.016761 -0.19893 0.27478 0.15767 0.0030154 -0.3517 0.1383 0.60107 0.19442 -0.11802 -0.75983 0.68567 0.31139 0.2628 0.39558 -0.69782 -0.21649 -0.29196 0.025405 0.23887 0.77817 -0.047592 -0.23215 0.061213 -0.048265 -0.20152 0.32679 -0.34759 0.099897 -0.51759 -0.59987 0.13594 0.0094825 -0.90824 -0.13166 -0.37136 -0.096381 -0.43759 -0.15774 0.33517 0.13741 0.082091 -0.32295 0.24789 -0.0073261 0.0025045 -0.10734 0.38338 -0.46347 -0.17817 0.28995 -0.23342 0.35332 -0.54913 -0.71703 -0.49411 -0.10706 -0.86577 0.097669 0.8972 -0.63157 0.24803 -0.13675 -0.1769 -0.24218 -0.62428 -0.47577 -0.14146 -0.34351 0.12621 -0.58372 0.12055 -0.041401 -0.12253 0.1596 0.31284 0.48291 0.03733 0.37515 -0.32352 -0.45301 0.21923 -0.1468 -0.57464 0.42237 -0.5758 0.4801 -0.49366 0.83043 0.10251 0.1435 0.44801 0.42419 -0.22976 0.22213 -0.28515 0.43249 -0.73253 -0.14583 -0.070181 0.94005 -1.2931 -0.57515 0.17507 -0.087849 -0.011623 0.19701 -0.058473 -0.42427 -0.12315 0.13216 -0.053331 1.4086 0.2252 0.17757 -0.35679 0.67832 0.54996 0.54456 -0.33238 -0.35155 -0.048678 -0.035712 0.69322 0.31964 0.16584 -1.0904 -0.81568 -0.35108 -0.2578 0.03024 0.44872 -0.20936 -0.27535 0.070283 -0.45958 -0.46557 -0.13999 0.31803 -0.86461 0.12341 0.45735 0.5717 -0.002236 0.34744 -0.13559 -0.20164 0.3056 1.352 -0.6027 0.27976 -0.4182 0.76646 -0.31769 -0.3051 0.7664 0.48001 0.26505 -0.61196 0.72399 -0.53557 0.23302 0.55782 0.19308 -0.059356 -0.042328 -1.1459 0.51091
korea 0.74086 0.20621 0.68975 -0.26548 -0.51916 -0.24887 -0.067414 0.34402 0.077367 0.27198 -0.53506 0.35598 -0.27451 -0.15654 0.6669 0.31051 0.6666 0.071657 0.13568 0.28237 0.79016 2.3748 -0.77728 0.13744 0.72079 1.3576 0.016038 0.53217 0.11306 0.22921 0.25401 -0.7106 -0.26233 -0.06474 -0.97386 -0.14704 -0.89491 -0.37895 0.0053008 0.68968 -0.40379 -0.12735 0.12915 0.20967 -0.16244 -0.1566 0.41086 -0.19001 0.17899 0.4815 0.46034 -0.65751 -0.26877 0.4339 -0.26476 0.08517 -0.7541 0.50374 -0.0062247 0.67281 0.0039093 0.52156 0.28047 0.65349 0.023782 0.034174 -0.08252 -0.66962 0.36759 -0.18798 0.55564 -0.54906 -0.39558 0.41294 -0.53715 1.3436 0.292 -0.24948 0.44297 -0.75253 -0.18429 -0.16393 0.64467 -0.39083 -1.0695 -0.75071 0.52733 0.1639 -0.51873 0.31961 0.0095578 0.24044 0.41089 -0.86831 -0.73755 -0.26991 -0.2059 0.92395 0.57622 -0.14958 0.53413 -0.17165 -0.54336 0.2255 0.14185 0.6339 -0.2522 0.061741 -0.46085 -0.17506 -0.29484 -0.21038 -0.5773 0.58531 0.16689 0.2741 -0.30608 -0.076436 -0.57422 0.33235 -0.045571 0.23896 -0.1516 0.29199 -0.23126 -1.2242 -0.15694 -0.097542 0.54537 0.52255 -0.10408 0.055199 -0.025862 -0.21704 -0.40703 0.54342 -0.12705 0.66618 -0.48858 -0.73311 0.66196 -0.27302 -0.2316 0.48101 0.77618 -0.29943 -0.23054 -0.63792 -0.51755 0.008152 0.15989 -0.0022605 0.77862 0.64167 0.17417 0.17478 -0.11783 0.094648 -0.45441 -1.2026 0.21468 -0.23293 -0.4388 -0.29927 -0.56346 0.21689 0.31817 -0.75961 -0.47215 0.78742 1.3062 0.13098 -0.44887 -0.77765 0.98009 0.24199 -0.68803 0.015891 0.64034 -1.3377 1.7959 -0.17956 -0.58209 0.15809 0.3834 -0.11467 -0.16681 0.52175 0.20091 -0.60554 -0.90346 -0.034158 0.046629 0.22924 1.1109 0.020751 -0.13855 -0.66442 -0.11003 0.02793
road 0.10152 -0.19677 -0.82188 0.49037 -0.27085 0.11725 -0.69041 -0.48843 -0.5275 -0.22929 0.11058 -0.72349 -0.30377 -0.42597 1.0243 -0.32101 -0.039947 -0.12414 0.85166 -0.045294 -0.21744 2.2402 1.0111 0.41956 0.98201 -0.44628 -0.05416 0.66722 -0.16233 -0.50161 0.31556 0.39326 -0.40991 0.76152 -0.036701 -0.69283 -0.79702 0.39098 0.22822 -0.10607 -0.16353 0.20391 -0.13446 0.45177 0.097759 -0.065267 -0.34009 -0.98385 -0.4845 0.035576 0.2633 -0.094793 0.79755 0.57208 -0.059414 0.2811 -0.25823 0.52219 0.56084 0.10611 0.36944 0.13279 0.22871 -0.49789 0.20078 -0.5422 0.28472 -0.055843 0.36746 -0.41293 -0.24804 -0.33284 -0.53117 0.16179 -0.36315 0.17459 -0.19063 0.61744 -0.10418 0.0038077 0.18132 -0.069725 -1.2793 0.13299 0.08889 -0.43035 -1.0873 -0.22434 0.0094234 -0.085499 -0.26046 -0.15628 -0.28347 -0.46716 0.00059502 0.22888 -0.51196 -0.26446 -0.30179 -0.4188 -0.16516 0.34136 -0.33564 0.74751 0.072157 -0.11213 -0.20899 0.98051 0.11994 0.036262 -0.59878 -0.097317 -0.39068 0.21911 -0.099649 -0.03258 0.19757 -0.17995 0.058091 -0.35691 0.18185 0.11664 0.40677 -0.1004 0.04079 -0.39314 0.3476 -0.41825 0.22086 -0.34618 0.2781 -0.17356 0.89002 0.21488 0.64098 0.77977 0.10872 0.075162 0.33545 0.2677 0.046941 0.41941 0.06411 -0.08881 1.3232 0.7904 -0.29181 -0.16525 0.1813 0.43966 0.21145 0.20752 0.19131 -0.012129 0.4928 0.19435 -0.50213 -0.072991 -1.1372 -0.42884 0.35653 -0.20512 -0.46793 0.007875 0.099497 -0.16791 -0.50754 0.57937 -0.33175 0.81028 -0.51394 0.12067 0.7676 -0.57155 0.51825 0.082297 1.0723 0.37369 -0.14875 -0.11817 0.81018 -0.23989 -0.56977 -0.90637 0.11656 0.36437 -0.45951 0.059978 -0.061421 0.5756 -0.014742 0.34917 0.24442 0.17765 0.46724 0.19665 0.05608 0.15886 -0.64366 0.56142
australia 0.15119 0.61394 -0.58009 -0.017659 -0.55154 0.51417 0.67045 -0.10916 0.27887 0.62498 -0.44908 0.35891 -0.34017 -0.38525 0.36317 0.18221 -0.49359 0.10141 0.18153 0.72318 0.36592 2.0251 -0.26541 -0.048755 0.41579 0.16642 -0.35037 0.91418 0.57154 -0.231 0.73159 -0.62221 -0.29733 0.057852 -0.73649 0.038454 -0.29321 0.068853 0.10594 -0.28408 -0.5444 -0.35113 -0.10165 0.38808 -0.32225 -0.50706 0.36575 -0.44715 0.53417 -0.28992 -0.078455 -0.251 -0.2346 0.31358 0.2699 -0.81748 -0.56391 -0.39594 -0.0013573 0.38768 0.0020287 0.37998 -0.6972 -0.6261 0.45327 0.21506 0.0038186 -0.0011817 -0.19811 -0.56478 0.2472 -0.73969 0.042183 0.53967 -0.22264 0.43053 0.44039 0.36098 -0.42039 0.3075 -0.36863 -0.087974 0.40698 0.57277 -0.38758 -0.066867 -0.40274 -0.46065 -0.47256 0.2323 0.27371 0.87187 -0.70931 -0.46716 -0.73582 -0.66076 0.30097 -0.40793 -0.31205 -0.42488 0.28558 0.44199 -0.059786 0.61719 -0.10399 -0.29681 -0.6343 0.90502 -0.86838 -0.32193 -0.87678 -0.11637 -0.34867 -0.74663 -0.34241 -0.083667 0.02607 0.52898 -0.69278 -0.6936 -0.0036594 -0.20081 0.16495 0.73673 0.027762 -0.55124 -0.25675 0.2945 -0.035923 -0.34817 0.51106 0.00055513 0.40215 -0.098821 0.44324 0.00543 -0.49369 -0.22765 -0.4681 -0.48311 0.16704 -0.30439 -0.42082 0.57476 0.49424 -0.21191 -0.28689 -0.035093 0.34453 0.31902 -0.71014 0.28161 0.24821 0.51555 0.50511 0.056416 0.44601 0.17104 0.0034013 -0.65754 -0.33713 0.16094 0.42258 0.71514 0.45794 0.3633 -0.49221 -0.62658 -0.36572 1.1366 0.18787 0.35898 0.16152 -0.35846 -0.26338 0.20386 -0.48594 -0.042231 0.4737 -1.0583 1.3201 0.5623 0.097997 0.53258 -0.42681 -0.51304 0.6403 -0.16352 -0.12191 0.12987 -0.63479 0.053335 -0.063338 0.86572 0.96898 0.79425 0.6178 -0.14215 0.11564 0.45879
hard 0.13049 0.38653 -0.50136 0.24636 -0.32013 0.31495 -0.4357 0.080588 0.056445 0.36885 -0.43006 0.14718 -0.13683 -0.060075 0.035066 0.17879 -0.14009 -0.43051 -0.043976 -0.23492 0.26726 2.5545 -0.64227 -0.20085 0.021886 -0.0013993 0.23076 0.051483 0.050747 -0.19774 -0.20155 -0.30145 -0.19562 -0.27504 0.26047 -0.49125 -0.14988 -0.61844 -0.22872 0.21308 0.14792 -0.24888 -0.053797 0.46942 -0.11857 -0.398 0.40043 -0.14907 0.48204 0.54393 -0.12765 -0.44111 0.32388 0.39376 0.37949 -0.16295 0.010801 -0.08261 0.0076761 0.35568 -0.099065 0.13766 -0.28365 0.053013 0.27223 0.34793 -0.30332 -0.097277 0.12804 -0.072176 0.45789 0.077989 0.46924 -0.018732 -0.24999 -0.018092 -0.56592 0.20871 -0.56736 -0.083706 -0.038664 -0.2525 -0.62339 -0.15476 0.59085 -0.098551 0.026081 0.2607 0.5404 -1.5588 0.20477 -0.25359 0.3546 0.055345 -0.045869 -0.61447 -0.084037 0.091815 0.27659 -0.41777 0.48272 0.032374 -0.39133 -0.18326 0.7054 0.6329 -0.39759 1.1817 -0.22011 -0.13377 0.043113 0.11032 -0.074606 -0.011085 0.0017603 -0.0065603 0.093882 0.20328 -0.2415 -0.41857 0.62337 0.18469 0.15151 -0.073865 -0.63931 -0.30236 0.39912 -0.2248 0.099498 0.052052 -0.15214 0.051462 0.2806 -0.21602 -0.10506 -0.01293 0.87028 0.43341 -0.1219 0.11671 0.11805 -0.294 0.35582 0.17362 1.6218 -0.1378 0.29179 -0.6778 0.49523 0.25201 0.54 0.39261 -0.17769 -0.053983 0.029961 -0.14363 -0.58345 0.21809 -0.033735 -0.17801 -0.11234 0.29396 -0.35863 -0.053871 -0.1152 0.0085379 -0.2426 0.97715 -0.44646 0.018016 -0.51277 -0.48194 0.18897 -0.099558 0.39436 0.13406 -0.35169 -0.21084 0.58274 -0.035501 0.43827 0.16032 -0.23595 0.28499 -0.024529 -0.21487 0.082335 -0.60164 0.038611 0.1186 -0.54913 0.12395 0.11963 0.2504 0.63096 0.088241 -0.041641 0.24611 -0.27143 0.35706
higher 0.2373 0.69711 -0.14741 0.096345 0.70393 -0.27878 -0.12729 -0.67153 0.067886 0.39074 -0.22697 -0.062676 0.16078 -0.79836 0.9198 0.12685 -0.3706 -0.075838 0.57998 -0.75359 -0.42664 3.0842 -0.58432 -0.039939 -0.3273 0.2701 -0.096182 0.56779 0.2098 -0.18723 0.45182 -0.43166 -0.54408 0.26765 0.66601 0.15776 -0.3907 -0.37024 0.046436 0.25389 -0.042276 -0.32172 -0.13436 -0.17085 0.078763 -0.44669 0.51101 0.071121 0.096118 -0.26836 -0.61612 0.18019 -0.21234 0.69266 -0.69294 -0.19798 -0.098845 0.28507 -0.24063 0.084953 -0.31546 -0.37949 0.42472 0.33933 0.25275 0.24522 0.1672 0.08195 0.12195 -0.038419 0.12197 0.77248 -0.15781 0.15119 0.39053 0.73057 0.20744 -0.24305 0.033995 0.41536 0.09782 0.061523 -0.67148 0.49399 -0.17096 0.31098 0.17104 -0.94515 1.0247 -0.64843 0.08031 0.30943 0.058503 -0.091127 0.65832 -0.17478 0.82223 0.15902 0.28109 -0.31664 0.043336 -0.083089 -0.55996 0.4306 0.040139 0.43773 -0.41286 1.0939 -0.058038 -0.097172 0.0097517 0.10441 0.30959 0.76787 0.30358 0.029201 0.18457 -0.085788 0.90675 -0.0088404 0.29347 -0.20016 -0.34518 0.17139 -0.22904 -0.33686 -0.39367 1.0054 0.014091 -0.11 -0.06163 -0.029596 0.13782 -0.11208 -0.20486 0.52376 0.073852 -0.076808 0.93439 -0.42256 -0.19787 0.063262 0.30591 0.26333 0.69622 -0.0079781 0.17545 -0.17777 -0.27854 0.098057 -0.32243 0.056646 -0.50844 0.40927 0.094633 0.47556 0.16879 0.53662 0.19249 -0.65246 0.0099598 -0.13522 0.6283 0.19845 -0.41952 0.074834 0.39433 -0.43147 -0.50021 0.64678 0.15846 -0.022012 0.20791 0.33903 -0.30687 0.10024 0.11054 -0.58021 -0.021581 0.70806 1.3291 0.34218 -0.68434 0.78181 0.77117 -0.32492 -0.22862 -0.36218 -0.114 -0.12306 -0.46204 0.09937 -0.31921 0.93876 -0.15883 -0.43637 -0.10309 -0.087379 -0.019357 0.0595
japanese 0.39895 -0.024549 -0.46692 -1.3129 0.018089 -0.046613 -0.81048 0.45284 1.2476 -0.79365 0.12182 0.10595 -0.12757 -0.056121 0.35846 0.40523 0.37311 -0.12199 0.55568 0.27367 0.15558 2.9344 0.35599 -0.72986 -0.31407 1.0144 -0.035774 0.10164 0.21063 -0.01289 0.34832 -0.49413 -0.72532 -0.16394 0.0019263 0.25011 -0.50513 -0.34351 0.40134 0.044299 0.97634 0.15069 -0.32245 -0.085459 -0.55044 0.095468 0.57724 0.15306 0.09777 0.4065 -0.36944 0.68419 0.027763 -0.36592 -0.68547 0.44908 -0.19675 -0.026282 0.51298 0.45743 -0.35572 -0.061433 -0.15457 0.3894 0.33866 0.14089 0.070945 0.10786 0.54728 0.054645 -0.034808 0.10386 0.40154 0.30808 -1.1361 1.6385 -0.17842 0.83189 -0.18839 0.039113 -0.71536 -0.89518 -0.14165 -0.075152 -1.0736 -0.39848 0.56682 -0.49264 0.17758 -0.69759 0.10801 0.19117 0.2466 -0.69424 -0.10075 -0.16971 -0.60936 -0.48885 -0.26947 0.26411 0.45039 0.020807 -1.41 -0.067385 -0.6101 0.83716 -0.47013 -0.37951 -0.092925 0.21073 0.62864 -0.044489 0.41151 0.1449 0.014715 0.50031 0.018605 0.21398 0.036466 -0.68747 0.82395 0.3721 -0.31694 -0.04634 0.20486 -0.23676 0.0060566 0.69748 0.55982 0.49767 0.36259 -0.10037 0.19106 0.51549 -0.16669 -0.36713 -0.44697 0.36931 -0.7038 -0.38841 -0.01455 -0.21967 0.34678 -0.086483 0.13493 -0.40218 -0.07121 -0.8205 -1.0074 0.28991 -0.047112 0.058777 0.11316 0.33066 -0.12485 -0.013962 0.2459 -0.013646 -0.5309 -0.76204 0.92628 1.0282 -0.30636 -0.19109 -0.79721 1.0916 0.029548 -0.33988 -0.40272 1.0698 0.90364 -0.16102 -0.02904 0.23861 -0.53391 0.48 -0.80532 -0.84529 0.83159 -0.38637 0.95084 -0.11915 0.51611 -0.48453 0.236 0.51645 -0.42959 -0.16031 0.13001 -0.83051 -0.61749 0.37741 0.67631 -0.073257 0.54697 0.16655 -0.24799 -0.18157 -0.14679 0.068747
california -0.55001 0.35613 -0.19755 -0.92031 0.40404 0.27082 0.053192 0.13732 3.2572e-05 -0.4953 0.2096 0.19625 -0.00050789 0.22391 0.42521 0.21661 0.17629 0.11578 0.20308 -0.13665 0.32927 2.221 -0.3232 0.11763 0.81029 0.89593 0.30054 -0.10313 0.36495 -0.02301 0.10062 -0.53239 0.22595 0.296 -0.39454 0.18343 0.056747 0.34298 0.83953 0.3319 0.077416 -0.053135 -0.34244 0.15188 -0.12499 0.047049 0.39718 -0.33043 0.0067798 0.50756 -0.093057 0.27416 0.070936 0.31582 0.12076 0.1227 -0.68815 -0.3741 -0.075926 -0.064148 0.58227 0.23009 -0.58509 0.26331 0.092735 -0.48454 -0.13188 0.29746 0.98759 -0.098119 0.10294 0.51843 0.063906 0.216 -0.045815 0.27314 0.25421 0.63479 -0.12689 -0.32792 -0.12906 -0.20812 -0.26119 0.32182 -0.1373 -0.68817 -0.74557 -0.55277 0.9084 -0.59822 -0.30953 0.37655 -0.48964 0.24876 0.09039 -0.012301 0.29569 -0.49397 0.61861 -0.043744 0.1101 -0.030549 0.13442 -0.10458 0.74127 -0.68697 0.03045 2.0349 -0.21275 -0.54387 0.6814 0.57485 0.72181 0.52648 -0.33945 -0.18239 -0.30734 -0.10062 -0.74355 -0.72161 0.056229 -0.86181 -0.50724 -0.21086 0.67628 -0.14125 0.076337 -0.0041283 -0.042594 -0.080007 -0.19879 -0.0016646 0.71864 -0.027838 0.55359 -0.084541 0.31884 0.39567 -0.14263 0.32579 0.20588 0.34354 -0.31438 0.37792 0.9059 0.44958 0.49847 0.31526 0.25832 0.44334 -0.14473 -0.13098 -0.48177 -0.47683 0.6712 -0.10145 0.031127 0.29045 0.44427 -0.44357 -0.39766 -0.2127 -0.44915 0.40878 -0.13493 0.98119 0.53247 -0.49901 0.23121 0.61864 0.27728 -0.031362 0.39489 0.92938 -0.26434 -0.38515 0.72343 0.13343 0.43776 0.33797 0.31939 0.62335 -0.38022 0.48803 -0.27629 0.54385 -0.040979 0.20122 -0.089742 0.39775 0.03822 -0.29309 -0.016594 -0.49605 -0.67847 0.66428 -0.5586 -0.073409 0.17531 -0.074713
father -0.056632 0.26146 0.51961 -0.34969 -0.30648 0.11595 -0.014341 0.18282 0.3954 -0.12485 -0.015812 -0.093931 0.63469 0.39082 0.29744 0.1565 0.38902 0.29093 0.25017 -0.030551 0.48225 2.4345 0.34486 0.076839 0.2485 0.4483 -0.21695 -0.16593 0.31922 0.0020752 -0.0068712 0.12125 0.14768 -0.26364 0.07472 -0.37815 -0.40606 0.23334 -0.19079 -0.053158 -0.84549 -0.06462 -0.54458 0.32792 -0.078951 -0.10675 0.68768 0.79949 0.28766 -0.17895 -0.12122 0.016384 -0.20756 -0.24886 0.21033 -0.1126 0.15466 -0.094848 0.58052 -0.50249 -0.38622 -0.21511 -0.54345 0.31582 -0.29171 -0.28884 0.14384 0.50068 0.17792 0.41374 0.68119 -0.67689 -0.34515 0.43964 -0.32564 -0.6661 -0.7767 -0.23504 0.080678 0.40345 0.53329 0.5063 -0.95601 -0.35119 0.27782 0.33482 -0.66873 -0.38701 -0.19072 0.019512 -0.16317 0.16472 -0.28398 0.66247 -0.96173 0.32153 -0.1756 -0.23915 -0.11545 0.19383 0.0086032 0.20693 -0.38589 0.11766 -0.046669 -0.88736 0.49671 0.66576 0.21797 -0.18566 1.0675 0.12973 -0.57651 -0.13846 -0.19137 -0.054233 -0.20534 0.45894 -0.34466 -0.6586 0.079179 0.60926 0.17082 0.25596 1.0837 -0.50819 -0.018862 0.26021 0.62232 -0.3961 0.17722 -0.36735 0.046236 -0.15634 -0.036028 0.32649 0.59891 0.31313 -0.76054 -0.67226 0.35426 -0.072582 0.33086 -0.054318 1.8493 -0.031662 0.35574 -0.067689 0.03488 0.19845 0.13231 -0.36323 -0.50676 -0.13757 -0.46687 0.2818 -0.24766 -0.23608 0.00024554 0.056604 0.028411 0.021087 -0.039713 0.22168 -0.015598 0.08814 0.025465 0.34515 0.1328 0.34262 -0.062709 -0.38353 0.33116 0.38009 0.1332 -0.2374 0.037063 -0.37423 1.1924 0.014594 0.49391 -0.16738 -0.34041 -0.13756 -0.4356 -0.37242 -0.079189 0.045419 0.19716 -0.0022797 -0.19327 -0.26647 0.021622 0.28783 0.11196 0.035703 -0.046395 -0.029827 0.39965 -0.19136
son -0.20794 0.19615 0.30487 -0.22185 -0.10079 -0.22112 -0.074621 0.34512 0.17153 -0.058943 -0.013741 -0.57579 0.66803 0.2698 0.082076 0.13867 0.51524 0.12439 -0.060584 -0.090684 0.50477 2.1472 0.14742 0.29797 0.29739 0.13558 -0.49267 -0.060844 0.44312 0.019632 -0.23159 0.51238 0.074068 -0.20965 0.066825 -0.07257 -0.19247 0.12615 -0.42221 -0.16614 -0.9151 -0.38757 -0.97928 0.29299 -0.17839 0.138 0.54414 0.79426 0.19944 -0.28405 0.041672 0.15216 0.1422 -0.4669 0.30438 0.3188 0.20427 -0.16547 0.40587 -0.5735 0.015868 -0.16675 -0.47806 0.42778 -0.25172 -0.55576 0.058621 0.54536 -0.090065 0.51689 0.90839 -0.52593 -0.4615 0.83769 -0.063836 -0.33958 -0.76219 -0.061947 0.49362 0.32322 0.75588 0.6598 -0.82126 -0.46585 0.227 0.63984 -0.41272 -0.40908 -0.30156 -0.089553 0.057919 0.36178 -0.31882 0.45215 -0.96694 0.58539 -0.45132 -0.42245 -0.15063 0.27172 -0.24402 0.082062 -0.043858 0.18662 0.042897 -0.94995 0.30691 0.66112 0.44226 0.060873 0.82276 0.38643 -0.87085 -0.26921 -0.49092 0.016718 -0.33643 -0.10047 -0.47468 -0.83091 0.11838 0.26855 0.12329 0.098234 1.158 -0.8716 -0.16489 0.2143 1.2152 -0.082217 0.30933 -0.47909 0.10789 -0.040031 -0.22619 0.4582 0.53246 0.12796 -0.79089 -0.63685 0.44907 -0.026331 0.36139 0.086007 1.4647 0.31147 0.40546 -0.17052 -0.23673 0.4961 0.28197 0.027321 -0.49206 -0.054073 -0.49707 0.39095 -0.28015 -0.12333 -0.23479 -0.27228 -0.33289 -0.135 0.1424 0.12231 -0.035789 0.12681 -0.0031192 0.57865 0.32226 0.59777 0.22393 -0.55326 0.57329 0.39766 0.30027 0.10473 0.25512 -0.4234 1.4105 0.17222 0.4389 -0.39229 -0.23287 -0.1029 -0.59334 -0.54757 0.0036621 0.18802 -0.026279 0.0043632 -0.13993 -0.50796 0.2846 0.20414 -0.10843 0.03035 0.19017 -0.49445 0.01638 -0.066137
short 0.27643 -0.49341 -0.3999 -0.46164 -0.13949 -0.12847 -0.75332 -0.29854 -0.30667 0.14211 0.23355 0.27133 -0.24765 -0.29836 0.53331 -0.439 -0.5113 0.32968 0.39266 -0.31887 -0.042053 2.4507 0.48095 -0.33309 0.14479 0.35983 -0.30259 0.24553 -0.56797 0.30135 -0.36637 0.1963 0.19311 -0.20454 -0.00013048 -0.34717 -0.37433 -0.79192 0.036638 -0.34161 0.034297 -0.16578 -0.27522 -0.141 0.17714 0.3314 0.15121 0.35332 -0.30402 -0.0020068 0.28452 -0.44581 0.067494 0.23237 0.40323 -0.22422 -0.56627 -0.046617 0.17872 0.17781 -0.30268 0.14122 -0.80885 -0.14884 0.07189 0.39951 0.24215 -0.23159 0.14889 0.27238 0.44543 -0.24009 0.060332 0.32118 0.013472 0.44686 0.00067503 -0.60609 0.19229 0.51342 0.012547 -0.30114 -0.10562 0.63529 0.4926 -0.10679 -0.023622 -0.25096 0.57008 -0.8776 -0.14798 -0.31291 -0.15995 -0.023718 0.46089 0.091317 -0.30484 -0.00308 0.013569 -0.11971 0.15535 0.67231 0.49223 0.046551 -0.24111 0.42407 -0.42298 0.70297 -0.325 -0.1331 -0.48352 -0.47627 0.53452 0.11939 -0.23477 0.20565 0.2822 -0.38093 0.019108 -0.16461 -0.20877 0.23906 -0.54926 -0.42072 -0.37959 -0.32773 0.3604 0.16009 0.74923 -0.10861 -0.21233 0.47462 0.85822 0.052452 0.47873 0.39112 0.016927 -0.3009 -0.35659 -0.19717 -0.29727 -0.018316 -0.33502 0.24226 1.4033 0.12789 0.064965 -0.34787 -0.22143 0.38554 0.06594 0.42326 0.23663 -0.29401 -0.18867 -0.11241 -0.048878 0.15818 -0.069968 -0.5337 0.25262 0.41642 -0.29597 0.222 0.24833 -0.822 0.11622 0.20143 0.16074 0.60713 -0.33944 0.0010084 0.43102 0.29001 -0.15157 0.83491 -0.093728 -0.040576 0.48378 0.13617 1.0215 0.20808 -0.47324 0.49975 0.10569 -0.16305 -0.34519 0.20167 -0.37332 -0.084931 0.074062 0.055434 0.29131 -0.15079 0.34403 -0.032257 -0.38029 0.2109 0.21258 0.50166
low 0.13266 -0.53901 -0.25766 -0.023141 0.25538 0.074744 -0.15513 -0.48753 -0.34641 0.013831 -0.031162 0.35832 -0.0071731 0.30067 0.72252 0.62597 -0.59353 -0.5658 0.37007 -0.61197 -0.38118 2.69 -0.60303 -0.2124 -0.16885 -0.23082 -0.42181 0.40725 -0.17393 0.16092 0.087884 0.109 -0.28066 1.002 0.40194 -0.061025 -0.48718 -0.64863 -0.26778 0.03808 0.77619 -0.096155 -0.078287 -0.11845 -0.11044 -0.51035 0.91471 0.13546 -0.10349 0.20573 0.040362 -0.52267 -0.48963 0.45842 -0.39337 -0.20865 -0.067994 0.077147 -0.33083 -0.37672 -0.26061 0.012999 -0.21567 0.31595 0.15118 -0.22251 0.14464 -0.20344 0.57239 0.080417 0.42555 0.46934 0.21353 0.64123 0.15025 0.76186 -0.041294 -0.4546 -0.40598 0.26061 -0.15409 -0.43325 -0.67626 0.53843 0.36936 0.093079 0.7847 -0.70246 0.8717 -1.1236 0.16337 0.22092 -0.27137 -0.16244 0.52738 -0.31967 0.013039 0.10347 0.38722 0.28902 -0.15057 -0.26175 -0.16634 0.4843 -0.12423 0.14976 -0.25801 0.68557 -0.55276 -0.43039 -0.097639 0.11347 0.27811 0.4611 0.054961 0.2914 0.66142 -0.20988 0.40379 -0.11366 0.5131 -0.32931 0.22319 0.09943 0.38555 -0.41018 0.12241 0.25861 0.4543 0.4109 0.17665 0.11026 0.687 0.076867 -0.16517 0.045592 0.59523 0.24377 0.37729 -0.38488 -0.34541 0.31994 0.26647 0.075761 1.0022 -0.33626 0.22409 -0.19777 -0.34917 0.23541 -0.16629 0.064113 -0.12045 0.38187 0.51205 -0.13311 0.18192 0.64635 0.38608 -0.77514 -0.067171 -0.29681 -0.044944 0.70817 0.075832 -0.14348 0.48627 0.49396 0.069402 0.79894 -0.099215 -0.059264 0.03055 0.50088 -0.0063948 -0.34165 0.17923 -0.69053 -0.44621 0.66556 1.1008 0.24797 -1.0749 0.92077 0.41198 0.029137 0.084616 -0.28296 -0.16299 -0.31699 -0.3664 -0.20257 -0.12428 0.42378 -0.11743 -0.25387 -0.2866 -0.061275 -0.16672 0.22223
pakistan -0.15762 0.6753 0.42919 0.32134 -0.33586 0.16832 0.0042762 0.56534 -0.26426 0.54002 -0.34196 0.21148 -0.47261 -0.020804 -0.072428 -0.25625 -0.52713 0.25216 -0.71282 0.60967 0.12444 2.9339 -0.15281 0.34269 0.44005 -0.53382 -0.22762 1.0446 0.9388 -0.33011 0.54835 -0.96753 -0.078709 -0.53253 0.16725 -0.2085 -1.2593 -0.71599 -0.1118 0.21771 0.030332 -0.22739 -0.27248 0.5406 -0.68826 -0.54847 -0.78605 -0.4621 0.49092 -0.69484 0.1002 -0.051142 -0.24155 -0.18672 0.34202 0.041338 0.46314 -0.66128 0.38115 0.18686 -0.8944 0.51068 -0.21559 0.69871 0.96591 0.020286 0.59038 -0.65351 -0.16541 -0.61383 -0.24048 -0.78474 -0.87707 0.63863 -0.44035 0.63424 -0.0044283 0.35797 0.28615 -0.064419 -0.29437 -0.19757 -0.11921 0.22257 1.0077 -0.41446 -0.30266 -0.22274 0.28782 0.82213 -0.51873 0.10588 -0.22923 -1.4895 -1.0996 -0.27558 -0.035998 -0.2371 0.50693 0.071536 0.74068 -0.23048 -0.23277 0.49624 -0.20648 0.4683 0.073014 0.39788 0.33614 -0.6989 -1.2383 -1.165 -0.30329 0.57368 -0.36678 0.068766 0.41815 0.35032 -0.63854 -0.22221 0.40298 0.34072 -0.12399 0.5668 0.79189 -0.42517 -0.23414 0.0078738 -0.2881 -0.429 0.10387 0.93255 -0.6551 -0.45277 -0.24078 0.30737 0.24974 0.47103 0.31372 -0.57197 -0.14995 -0.31846 -0.17808 -0.21138 1.2834 -0.4018 -0.20194 0.10371 -0.22746 0.17245 0.3767 -0.29718 0.51193 0.80094 -0.14666 -0.058584 -0.67098 -0.31056 0.52377 -0.59966 -0.21196 -0.3029 0.29492 -0.093024 0.053243 0.20083 -0.37018 -0.18307 -0.030223 0.23871 0.038617 0.35028 0.046545 -0.46209 0.18019 0.13106 0.069639 0.34621 -0.69282 -0.51572 1.1891 0.3235 0.55085 0.3779 -0.80879 -0.28765 -0.7401 0.47156 0.025984 -0.48687 0.038491 0.28838 0.11578 0.48087 0.48056 1.3416 0.34801 -0.51244 0.034301 0.23166
