he -0.20092 -0.060271 -0.61766 -0.8444 0.5781 0.14671 -0.86098 0.6705 -0.86556 -0.18234 0.15856 0.45814 -1.0163 -0.35874 0.73869 -0.24048 -0.33893 0.25742 -0.78192 0.083528 0.1775 0.91773 0.64531 -0.19896 0.37416 -2.7525 -0.091586 0.040349 -0.064792 -0.31466 3.3944 0.044941 -0.55038 -0.65334 0.10436 0.016394 0.24388 1.0085 0.31412 -0.33806 -0.16925 0.10228 -0.62143 0.19829 -0.36147 -0.24769 -0.38989 -0.33317 -0.041659 -0.013171
his -0.033537 0.47537 -0.68746 -0.72661 0.84028 0.64304 -0.75975 0.63242 -0.54176 0.11632 -0.20254 0.63321 -1.2677 -0.17674 0.35284 -0.55096 -0.65025 -0.3405 -0.31658 -0.077908 -0.11085 0.97299 -0.016844 -0.73752 0.47852 -2.7069 -0.42417 -0.053489 0.018467 -0.11892 3.3082 0.17864 -0.50702 -0.22894 0.24178 0.5698 0.097113 0.95422 0.0076093 -0.54154 0.09828 0.41533 -1.116 0.0050954 -0.14975 -0.45133 -0.081188 -0.62173 -0.022628 -0.4383
new 0.19511 0.50739 0.0014709 0.041914 -0.16759 0.037517 -1.397 -0.92398 -0.24296 -0.15171 -0.47829 0.054612 -0.24986 0.38398 0.016182 0.34938 -0.22627 0.086618 -0.41001 -0.18139 0.75607 -0.0262 -0.69557 0.10874 -0.47539 -1.8095 -0.1694 -0.059863 -0.16806 -0.094546 3.661 0.041462 -0.29161 -0.69772 0.30805 -0.28457 0.13217 -0.007643 -0.09239 -0.49237 -0.27055 0.060425 0.095107 -0.23679 -0.086108 1.0243 -0.22779 0.030488 -0.14272 0.45411
she 0.060382 0.37821 -0.75142 -0.72159 0.58648 0.79126 -0.72947 0.68248 -0.12999 -0.22988 0.11595 0.22427 -0.44679 -0.11515 1.0334 -0.088019 -0.78531 0.34305 -0.11457 -0.11905 0.45883 1.6333 0.68546 0.22308 1.0099 -2.6332 -0.52128 0.25665 0.023468 -0.82616 3.1084 0.27219 -0.29227 -0.47259 -0.12297 -0.13545 0.11192 0.86438 0.33121 -0.96616 -0.044785 -0.06674 0.0030367 -0.33905 0.017784 -0.58499 -0.005014 -1.257 -0.060723 0.42247
her 0.13403 0.89178 -0.76761 -0.64184 0.86204 1.3122 -0.64018 0.82067 0.32783 0.021457 -0.095194 0.40825 -0.63602 -0.018275 0.69708 -0.29531 -1.1912 -0.23897 0.34341 -0.33196 0.23702 1.8364 0.12295 -0.18624 0.86503 -2.636 -0.7791 0.203 0.18985 -0.79897 2.9882 0.44336 -0.28367 -0.19588 0.061875 0.38558 -0.027622 0.71847 0.17156 -1.2168 0.081636 0.17293 -0.31718 -0.37039 0.18977 -0.89175 0.18492 -1.6251 0.039134 -0.10279
most 0.53248 0.030684 -0.12955 -0.15673 0.25168 0.20269 -0.71869 -0.27819 -0.47384 0.49715 -0.12525 -0.249 0.23788 0.11087 0.44788 -0.10767 0.44033 0.16702 -0.34068 -0.5413 -0.56092 -0.12457 0.23586 0.39872 0.13578 -1.4765 -1.1334 -0.23475 0.17915 0.20182 3.9566 0.0092012 0.61391 -0.75382 0.42119 0.092947 -0.2623 0.48914 -0.78757 -0.10654 -0.68392 0.34472 0.4279 0.71161 0.051375 0.33759 -0.72084 0.069335 -0.34333 -0.067937
china -0.22427 0.27427 0.054742 1.4692 0.061821 -0.51894 0.45027 -0.32164 0.57876 -0.049142 0.52523 -0.18784 0.52539 -0.058431 0.19741 0.30754 -0.45412 0.38268 0.33441 0.42801 0.98406 -0.7637 -0.066755 -1.0027 1.1942 -2.3916 0.24326 -0.40705 -0.63413 -0.20832 3.8851 0.75046 0.14857 0.24485 -1.0143 -0.76356 -0.63824 0.73037 -1.2025 0.18932 -1.2139 -0.55377 1.3033 -0.82461 0.9965 0.15117 -0.65753 0.28569 0.45374 -0.85646
high -0.65758 1.2502 0.19082 -0.6742 -0.10125 -0.046932 -0.27648 -0.48253 0.39254 0.3704 -0.24111 -0.6429 0.27676 -0.62422 -0.52203 0.29799 -0.1996 0.36884 -0.81686 -0.48865 0.11511 0.066147 -0.38797 -0.18239 -0.5759 -1.8776 0.61045 0.43434 -0.090497 0.17718 3.4808 0.026707 0.60486 -0.7885 1.248 -0.32864 -0.15526 0.12868 0.65885 -0.27297 -0.69856 0.46953 0.19621 0.40444 0.061996 0.046055 0.72038 -0.45636 -0.19089 0.099351
old -0.48533 0.98378 -0.29031 -0.33076 0.7467 0.59922 -1.4261 0.084897 -0.25334 -0.10804 -0.073621 -0.24042 -0.60009 0.27719 0.61283 0.077262 -0.47997 0.50699 0.1302 0.66519 -0.84582 0.94113 -1.0953 0.40358 0.16514 -2.5206 -0.16821 0.20541 0.20474 0.07438 2.7209 -0.70897 -0.049539 0.96305 0.72107 0.55294 -0.13857 0.59796 0.58361 -0.42162 -0.21735 0.36125 0.18277 0.33058 0.58751 0.1003 -0.16219 -0.95943 0.03837 -0.73304
long 0.46955 0.82963 -0.13828 -0.45398 -0.075682 0.45397 -0.37753 -0.31824 0.04492 -0.23272 -0.65296 0.0076419 -0.52617 0.29746 0.23553 0.19954 0.17268 -0.027087 -0.30702 -0.27463 -0.50451 0.06611 0.048848 -0.3727 0.28044 -2.012 0.32445 0.696 0.33016 0.052136 3.7978 0.016551 -0.029049 0.40461 -0.067641 -0.3214 -0.42906 0.34667 -0.40094 -0.26477 -0.54929 0.20108 0.12476 0.53417 -0.10315 -0.57693 0.26055 -0.3884 -0.81348 -0.086581
good -0.35586 0.5213 -0.6107 -0.30131 0.94862 -0.31539 -0.59831 0.12188 -0.031943 0.55695 -0.10621 0.63399 -0.4734 -0.075895 0.38247 0.081569 0.82214 0.2222 -0.0083764 -0.7662 -0.56253 0.61759 0.20292 -0.048598 0.87815 -1.6549 -0.77418 0.15435 0.94823 -0.3952 3.7302 0.82855 -0.14104 0.016395 0.21115 -0.036085 -0.15587 0.86583 0.26309 -0.71015 -0.03677 0.0018282 -0.17704 0.27032 0.11026 0.14133 -0.057322 0.27207 0.31305 0.92771
won -1.5561 0.86241 0.14604 1.1389 -0.16875 0.68905 -0.64142 0.40618 -0.88795 0.065865 -0.099475 -0.86429 -1.1493 -0.42725 0.75917 -0.68994 0.79301 0.015027 -1.6869 -0.24158 -0.54559 -0.0021012 0.39753 -0.46364 -0.095394 -1.4212 -0.2692 -0.909 -1.2531 -0.2427 2.274 1.0078 -0.31668 0.4283 0.18199 -0.70904 0.10949 1.2528 -0.24527 -1.3725 -0.11136 -0.082122 -0.043902 -0.52759 -0.73033 0.20293 -0.82448 -0.60593 -0.061551 -0.48898
dollars 0.17336 -0.1091 1.5309 0.12964 0.85039 -0.43068 -0.092161 -0.93305 0.45594 0.65308 -0.60152 -0.22764 0.68729 -1.0398 1.455 -0.18741 -0.35927 0.35645 -0.62279 0.067274 2.2073 0.077706 0.32049 -1.7435 -0.52395 -0.97421 0.98369 -0.6466 -0.049127 0.19113 3.4492 0.90843 0.73396 1.3564 0.11133 -0.31444 -0.31101 0.18748 0.21064 -1.1671 -0.42262 -0.11309 1.6084 -0.044605 -0.6724 -0.39772 -1.085 0.5146 0.034737 -0.49133
iraq 0.8643 -0.18699 0.99589 -0.65489 0.64392 -0.44191 0.36037 0.31072 0.70071 -0.90208 -0.66442 -0.77709 -0.88973 -0.081438 0.2968 0.74191 0.39566 -0.59606 0.3467 0.76214 0.053087 0.43839 0.77542 -0.48396 -0.3259 -2.3488 -0.40539 0.059394 1.0076 1.112 2.9111 0.14878 -0.92753 -0.42307 -0.07785 0.16759 -0.41354 -0.23573 -1.4501 0.21852 -0.30933 0.27827 0.71862 -1.1314 0.2044 0.57201 -0.86646 1.4808 -1.157 -0.1834
women -0.95897 0.86149 -0.53064 -0.19908 0.42945 0.93177 0.067319 -0.21413 0.39488 -0.53561 0.42881 -1.3334 -0.038192 -0.15667 0.94351 -0.21873 -0.15586 0.084439 -0.058604 -0.55145 -0.53281 1.2434 0.63441 0.79234 0.0097936 -1.7124 -0.77291 -1.0024 -0.69472 -0.50487 3.0517 1.4981 -0.32957 -0.53871 -0.21201 -0.14259 -0.02706 0.5858 -0.56642 -0.55984 -0.60905 -0.57062 1.3338 0.67097 1.0643 -0.4181 -0.44273 -1.0158 -0.35795 -0.31111
children 0.53888 0.50514 -0.045316 -1.3606 0.6785 1.4193 -0.8518 -0.66912 0.45732 -0.15827 -0.037624 -0.20835 0.54524 -0.64056 1.2267 -0.26497 -0.45656 0.27901 0.3855 0.14437 0.0026343 1.7084 0.56702 0.60751 0.43173 -1.1765 -0.45223 -0.98725 0.19464 -0.64467 3.1015 1.0881 -0.17687 -0.81104 0.28289 0.65915 0.38012 -0.27123 0.6249 -0.054019 -0.6409 0.10671 0.79348 0.10989 0.66735 -0.065263 -0.63952 -1.249 -0.034498 0.18429
washington -0.5102 1.0375 0.10136 0.00097878 -0.067061 -0.496 -1.2587 0.061059 -0.090142 -0.68128 -1.2128 -0.13272 -0.37778 0.091412 -0.065661 0.2295 -0.10412 -0.70233 0.093941 0.47418 0.66055 0.34302 0.0033139 -0.26057 -0.29605 -2.5996 0.52698 0.22915 0.25215 -0.49094 2.3924 -0.0042369 -0.26823 -1.2988 -0.3363 -0.66419 -0.55199 -0.0021881 -0.016903 0.11451 -0.40708 0.33462 0.56522 -0.56362 0.17956 1.0133 -0.5184 0.72511 -0.77215 0.69085
man -0.094386 0.43007 -0.17224 -0.45529 1.6447 0.40335 -0.37263 0.25071 -0.10588 0.10778 -0.10848 0.15181 -0.65396 0.55054 0.59591 -0.46278 0.11847 0.64448 -0.70948 0.23947 -0.82905 1.272 0.033021 0.2935 0.3911 -2.8094 -0.70745 0.4106 0.3894 -0.2913 2.6124 -0.34576 -0.16832 0.25154 0.31216 0.31639 0.12539 -0.012646 0.22297 -0.56585 -0.086264 0.62549 -0.0576 0.29375 0.66005 -0.53115 -0.48233 -0.97925 0.53135 -0.11725
men -0.41714 0.46493 0.13769 -0.19283 1.0112 0.14966 -0.020232 0.37339 -0.37315 -0.89002 0.15083 -0.93411 -0.78542 -0.34753 0.84648 -0.463 0.12469 0.31815 -1.0671 -0.70007 -0.69082 1.0479 0.79692 0.54943 -0.41094 -1.7671 -0.60518 -0.59613 -0.19805 -0.51482 2.6693 0.79256 -0.37652 -0.27977 0.44484 0.28957 0.064096 0.35282 -0.62789 -0.091884 -0.25639 -0.26261 1.0343 0.59887 1.0275 -0.70789 -0.39715 -0.94399 -0.28476 -0.75795
israel 0.062029 0.53371 0.54099 -0.53311 0.47668 0.46988 0.021711 0.68731 -0.51518 -0.22619 -0.071631 -1.1262 -0.55618 0.19939 -0.094747 1.3724 1.2533 -1.1202 0.394 1.5422 0.63093 0.56363 -0.30163 -0.31444 -0.088435 -2.0561 0.43319 0.032101 0.75979 -0.00098003 2.899 -0.10687 -0.91409 0.06818 -0.6215 -0.043759 0.75295 -0.79991 -1.0516 0.93283 0.059276 -0.24426 0.38394 -1.0952 0.7231 -0.26365 -0.93865 1.5106 -0.96647 -0.19816
chinese -0.51742 0.40543 -0.35109 0.78151 0.33735 -0.79946 -0.094045 -0.19927 -0.25549 -0.043867 0.64488 0.051654 1.1569 0.49355 0.17844 -0.38467 -0.74389 0.6078 0.1081 -0.097775 0.8682 -0.22863 0.0017747 -0.50405 1.1444 -2.2063 -0.48134 -0.93773 -0.94641 -0.32139 3.6555 0.36522 0.021378 0.29677 -0.32398 0.045491 -0.63062 0.41415 -1.2073 0.34021 -0.7668 -0.28595 1.3208 -0.16975 1.7651 -0.46696 -0.71656 0.29103 0.49508 -1.1306
french 0.45339 0.26154 -1.3094 -0.90162 -0.41122 -0.069015 -0.76039 0.40611 -0.87056 -0.42965 0.91374 -0.028381 -0.31879 0.17625 0.22379 -0.98918 -0.020874 -0.52391 -0.86188 -0.73082 0.1003 0.64379 -0.51221 0.47627 -0.53172 -1.6459 -0.93771 -0.28375 -0.53267 1.2579 2.8713 -0.13863 -0.79716 0.67035 -0.11338 -0.26626 -0.38983 0.49285 -0.28017 -0.25558 1.5804 0.29426 1.8829 -1.3065 0.42648 0.13532 -0.72596 0.19036 0.50769 -0.61832
great -0.026567 1.3357 -1.028 -0.3729 0.52012 -0.12699 -0.35433 0.37824 -0.29716 0.093894 -0.034122 0.92961 -0.14023 -0.63299 0.020801 -0.21533 0.96923 0.47654 -1.0039 -0.24013 -0.36325 -0.004757 -0.5148 -0.4626 1.2447 -1.8316 -1.5581 -0.37465 0.53362 0.20883 3.2209 0.64549 0.37438 -0.17657 -0.024164 0.33786 -0.419 0.40081 -0.11449 0.051232 -0.15205 0.29855 -0.44052 0.11089 -0.24633 0.66251 -0.26949 -0.49658 -0.41618 -0.2549
small 1.1419 0.21621 0.05988 -0.22087 0.721 0.55394 -0.85043 -0.27485 0.0788 -0.54447 -0.16458 -0.39355 0.94567 0.3132 -0.57388 0.006172 0.51563 0.59235 -0.5439 -1.1097 0.13733 -0.66901 -0.16584 0.44869 -0.42889 -1.1225 -0.43607 0.55676 0.39962 -0.25964 3.8543 -0.33091 0.38144 0.059943 0.19653 0.50617 -0.41123 0.16168 0.1503 -0.061063 -0.0063997 0.1881 -0.037663 0.29605 0.46124 0.0066039 -0.30738 -0.64137 -0.058311 -0.45848
japan -0.31739 -0.14033 0.32292 1.072 0.33008 0.39406 -0.016682 0.076903 -0.74591 -0.31521 1.0033 -0.12659 0.063252 0.64006 0.70721 0.84303 -0.68832 0.47214 -0.66002 0.73962 1.1116 -0.89428 -0.90364 -0.47281 0.88529 -2.0194 0.30623 -0.31662 -0.44423 -0.52139 3.0287 0.70315 0.92315 0.52263 -0.62674 -0.58995 -0.15876 -0.078332 -1.0794 -0.71552 -1.2764 -0.85554 1.2827 -1.2134 1.0125 0.40329 -0.16276 0.99117 0.031016 -0.35431
big -0.32396 0.30786 0.2859 0.3718 0.10526 0.10052 -0.98277 -0.072153 -0.11142 0.45271 -0.79607 0.25116 -0.51931 0.37099 0.39548 -0.047569 0.93469 0.31508 -0.63288 -0.88939 -0.12822 -0.66293 -0.2379 -0.070894 -0.089608 -1.6695 -1.1222 0.396 0.58173 -0.91747 3.4002 1.0156 0.56367 0.55291 -0.070436 0.1004 -0.48305 -0.036555 0.38574 -1.0722 -0.76553 0.32584 -0.58773 0.21893 0.23514 0.31318 -0.11412 -0.090951 -0.13374 0.47298
france 0.66571 0.29845 -1.0467 -0.66932 -0.78082 -0.00013007 -0.17931 0.3711 -0.18622 -0.40535 0.98644 -0.60545 -0.94571 -0.69207 0.56681 -0.3861 0.027634 -1.2464 -0.73561 -0.52222 -0.061766 0.16771 -0.37462 0.4225 -0.63095 -1.636 -0.25094 0.04495 -0.39758 0.98099 2.6293 0.8348 -0.77338 0.39402 -0.57976 -1.029 -0.26709 0.98714 -0.51029 -0.42477 1.3956 -0.029347 2.2295 -1.7079 0.025562 0.6906 -0.579 -0.17824 0.42916 -0.5394
israeli 0.0024655 0.35072 0.64493 -0.79251 0.47871 0.51105 -0.59744 0.86685 -1.0761 -1.0041 -0.33253 -1.6657 -0.48359 0.79662 -0.34028 0.82714 0.99694 -0.80682 -0.13874 0.91085 1.001 1.1971 -0.57032 -0.28881 -0.29923 -1.7085 -0.1402 0.022503 0.72247 0.71079 2.854 -0.55879 -0.91743 0.18206 0.20955 0.65911 0.78777 -1.2752 -0.94377 1.0842 -0.016361 -0.12939 0.3155 -1.0583 1.3176 -1.136 -0.84954 1.8579 -0.39625 -0.43469
russia 0.32097 1.0144 0.50412 0.42314 -0.017368 0.42165 0.78563 1.2075 -0.82915 -0.12545 0.72666 -0.68589 -0.16918 0.89959 0.43864 0.24371 0.049558 -0.23954 0.35105 0.69405 0.47494 -0.80122 -0.11579 -0.33322 0.35565 -2.5386 0.37923 0.052781 0.54565 0.13112 2.7354 0.45458 -0.12994 -0.10698 -1.2169 -0.57424 -0.7642 1.2824 -0.95928 0.0053543 0.20225 -0.31514 2.1783 -1.7204 0.11169 0.62552 -0.87655 0.93488 -0.75778 -0.49446
free -0.41183 0.4528 0.02825 -0.28702 0.037029 -0.22841 -1.0803 -0.46185 0.68202 0.95844 0.22325 0.15388 0.016271 0.33186 0.41374 -0.0098567 0.60909 -0.77774 0.069414 -0.0095931 0.11433 0.096629 -0.082344 0.53318 -0.35387 -1.4886 0.77553 -0.32434 0.71493 -0.54821 3.4471 0.53604 -1.2305 0.13366 -0.30577 -0.0080669 0.35145 0.22877 0.096214 0.15633 0.61515 0.17427 0.11386 0.49481 -0.16223 -0.036013 -0.11342 0.01074 -0.03284 -0.16825
large 1.1303 0.28035 0.15825 -0.36373 0.63884 0.40727 -0.6041 -0.38511 0.12849 -0.4438 -0.25311 -0.36961 1.016 0.27822 -0.4178 0.016858 0.55661 0.3856 -0.57398 -1.0437 0.50172 -1.1141 -0.19099 -0.11988 -0.75892 -1.0916 -0.46073 0.61686 0.34421 0.078685 3.8287 -0.32661 0.50127 -0.26291 -0.16509 0.69122 -0.41489 0.19888 -0.071731 -0.18805 -0.026401 0.14917 0.028164 0.33275 0.41858 -0.020588 -0.62518 -0.40942 -0.23624 -0.65003
better -0.1209 -0.16821 0.24099 -0.30287 0.43578 -0.38367 -0.55203 -0.28681 -0.10092 0.47769 0.28969 0.29549 -0.44074 -0.13494 0.26022 0.45371 0.53749 0.06122 0.24366 -0.87761 -0.56241 0.24927 0.17941 -0.016943 0.57974 -1.3546 -0.53161 -0.26451 0.68211 -0.30482 3.7943 0.96326 -0.073896 -0.41032 0.24478 -0.14579 -0.086789 0.995 0.049928 -0.60302 -0.36585 -0.10114 0.40423 0.25951 0.087927 0.06196 0.075266 0.12755 0.066461 1.1163
building 0.96946 0.51658 0.40869 -0.44261 0.52557 -0.43554 -0.8864 -0.72144 -0.32513 -0.59368 -0.61602 -0.5777 -0.57443 0.05468 -0.5763 0.48652 0.10411 0.80692 0.071993 -0.25208 1.2826 0.16648 -1.6472 -0.73222 -0.40618 -1.0784 -0.054301 0.42463 0.29449 0.039102 3.3546 -0.95662 0.16766 -0.88352 -0.071421 0.64726 0.67146 0.43414 0.41453 0.43332 -0.38089 -1.0239 0.14656 0.047804 -0.078527 0.53889 -0.80031 -0.73521 -0.028602 -0.29638
young -0.3874 0.79979 0.008999 -1.0586 0.84764 0.48831 -1.2072 -0.041094 -0.77811 0.22285 0.14036 0.30871 0.056524 0.38498 0.35064 -0.61762 0.57805 0.37778 -0.38288 -0.059694 -0.69362 1.0951 0.29218 0.72216 0.45157 -1.7643 -0.36862 -0.99758 -0.32863 -0.3417 2.7919 0.59432 0.14142 -0.47239 0.40147 0.34521 -0.43788 0.04117 -0.0063478 -0.71631 -0.40433 0.36837 0.19039 -0.011441 1.338 -0.63506 -0.39155 -1.0359 -0.14267 0.29742
russian 0.19318 0.88272 0.40764 -0.15212 0.030107 0.061858 -0.022592 1.3055 -1.3762 -0.44537 0.99859 -0.57531 0.29709 1.7798 -0.03471 -0.71318 -0.42837 0.3603 -0.19656 0.36152 0.51278 -0.3219 -0.60105 -0.24699 -0.071204 -2.5388 -0.51611 -0.095628 0.22978 0.4803 2.7303 -0.30283 -0.37695 0.042352 -0.54901 0.29083 -0.5934 0.66886 -0.62287 0.3838 0.57779 0.044094 1.8773 -1.4023 0.52847 -0.33256 -0.74839 1.2133 -0.6449 -0.71372
india -0.20356 -0.8707 -0.19172 0.73862 0.18494 0.14926 0.48079 -0.21633 0.72753 -0.36912 0.13397 -0.1143 -0.18075 -0.64683 -0.18484 0.83575 0.48179 0.76026 -0.50381 0.80743 1.2195 0.3459 0.22185 0.31335 1.2066 -1.8441 0.14064 -0.99715 -1.1402 0.32342 3.2128 0.42708 0.19504 0.80113 0.38555 -0.12568 -0.26533 0.055264 -1.1557 0.16836 -0.82228 0.20394 0.089235 -0.60125 -0.032878 1.3735 -0.51661 0.29611 0.23951 -1.3801
germany 0.31098 0.05573 0.27293 -0.79354 0.15301 0.68547 -0.042667 0.23203 -0.90976 -0.71177 1.1649 -1.1234 -1.2657 -0.3255 0.96688 0.25919 0.57671 -0.55244 -0.73962 0.57585 0.67452 -1.1339 -0.74452 0.7491 -0.20376 -2.0823 0.081193 -0.29871 -0.64778 0.17616 2.4315 0.79447 0.40519 -0.011954 -1.1833 -0.91463 -0.013852 1.4251 -0.32726 -0.2092 0.76412 -0.55271 1.5657 -1.4095 0.51719 0.40492 -0.07026 0.2994 -0.34246 -0.28954
german 0.29942 -0.09967 -0.0012405 -1.3147 0.29656 0.67304 -0.65496 0.10273 -1.4988 -0.98879 1.4833 -0.50715 -0.73841 0.47889 0.39811 -0.60468 0.19186 -0.019224 -0.98668 0.14039 0.65313 -0.77528 -0.98685 0.62768 -0.15063 -2.0823 -0.94478 -0.49395 -0.80897 0.80822 2.654 -0.26725 0.17329 0.42389 -0.88264 -0.39425 -0.15823 0.5876 -0.14896 -0.082408 1.2181 -0.34753 1.3133 -1.2171 1.017 -0.53184 -0.073952 0.8638 0.014093 -0.23443
london 0.032886 0.99637 -0.6975 -0.58375 0.053403 -0.35758 -0.96735 -0.048156 -0.23417 -0.31642 -0.080246 0.0075121 -0.69211 -0.19357 0.040528 0.74492 0.079019 -0.13893 -1.5938 0.33824 2.5535 0.87576 -0.1597 0.85763 -0.68158 -1.3948 0.13189 0.10129 -0.7461 0.67386 2.5619 -0.19922 0.76751 -0.4867 0.39738 -0.6253 0.63504 -0.1989 -0.0953 -0.22472 0.61698 -0.21968 0.2584 -0.39371 0.47571 0.57736 -0.55713 -0.6259 0.60789 -0.30978
europe 0.63431 0.19426 -0.19142 -0.34604 -0.24929 -0.24643 -0.66725 -0.45531 0.041623 -0.31684 0.87932 -0.11264 -0.64424 0.33909 0.61846 0.66105 0.46586 -0.46063 -0.51687 0.052495 0.53148 -0.51817 -0.31279 0.58308 0.0069408 -1.4231 -0.39692 -0.16066 0.03825 0.94025 3.2401 0.69978 0.41932 -0.10443 -1.0062 -0.78398 -0.89708 0.3881 -0.94668 -0.04224 -0.0022959 -0.28459 1.4281 -0.71529 0.22455 0.93295 -0.37634 0.16061 -0.66537 -0.52696
iran -0.18997 0.11493 0.85566 -0.039811 0.10742 -0.44042 1.2496 0.49928 0.58689 0.8321 0.027948 -0.85445 -0.39854 -0.18763 -0.050099 0.95036 0.59861 0.25454 0.6548 0.87505 0.82139 -0.0041283 0.9193 -0.033385 0.1914 -3.0393 0.58703 0.23673 0.031058 0.17775 2.4503 -0.35655 -0.68777 -0.43984 0.12271 -0.46345 -0.29642 0.33648 -1.6442 0.23183 -0.019779 0.0057172 0.94701 -1.2708 0.53767 0.80297 -0.70422 1.7059 -0.64729 -0.97299
possible 1.4058 0.23482 0.25071 0.41173 0.062108 0.42572 0.26298 0.47372 0.24889 0.040888 -0.1546 0.20095 -0.34735 0.20077 0.74116 0.49246 0.39145 -0.81875 -0.19643 -0.66087 0.026083 -0.54113 0.090749 -0.096314 0.13847 -1.7233 -0.27808 -0.22414 0.63622 0.3327 3.4301 -0.0036893 -0.69896 -1.0641 0.26716 -0.11238 0.18196 -0.18665 -0.55805 -0.2119 -0.43309 0.11667 0.26491 0.31238 0.34154 -0.0089874 0.15736 1.1616 0.26563 0.05968
strong -0.28486 0.15815 0.044641 0.074495 0.62572 0.32729 0.011979 0.054972 -0.23145 0.66981 0.30527 -0.28122 -0.1431 -0.12982 -0.73904 -0.025547 0.27519 -0.41614 -0.40354 -0.86711 -0.63341 -0.058841 -0.44273 -0.79434 0.27998 -1.4932 -0.15541 0.18691 0.12789 0.84641 3.8373 0.45602 0.76044 -0.54549 -0.32262 -0.59138 -0.68035 -0.20346 -0.50434 -0.72351 -0.15833 0.32317 -0.36685 -0.38641 0.59325 0.19611 -0.31782 0.53302 -0.15775 0.23456
england -0.36165 -0.10607 -1.1168 -0.6727 -0.16521 0.068828 -1.1727 0.71667 0.16573 -0.75759 -0.14659 0.35785 -0.69141 -1.2047 0.15224 0.63566 0.87442 -0.61517 -1.7471 0.35292 0.022251 0.3899 0.020703 0.74169 0.0024097 -1.3529 0.58844 -0.4297 -0.5174 0.62258 2.8153 0.30152 0.78742 -0.079597 0.98699 0.27603 0.48672 0.59211 -0.36804 -1.2057 0.36812 -0.11797 -0.040688 0.16183 -0.20407 1.8425 -0.39529 -0.37771 0.13959 -0.77836
real 0.68997 0.54491 -0.044471 0.40682 0.84882 -0.33421 -0.25646 -0.10524 -0.63829 1.1445 0.088571 0.5939 -0.89007 -0.449 0.65968 -0.20617 0.62619 -0.0010909 -0.27785 -0.2776 -0.35532 -0.014778 -0.53777 0.31855 -0.23594 -1.2705 -0.55335 0.18315 0.9158 0.0086257 3.2495 0.45996 0.051268 -0.73256 -0.27552 0.14231 -0.70384 0.025998 0.43401 -1.0457 0.33861 0.072388 -0.13624 0.052895 -0.16058 -0.13831 0.084937 0.054471 1.0423 0.35811
car 0.47685 -0.084552 1.4641 0.047017 0.14686 0.5082 -1.2228 -0.22607 0.19306 -0.29756 0.20599 -0.71284 -1.6288 0.17096 0.74797 -0.061943 -0.65766 1.3786 -0.68043 -1.7551 0.58319 0.25157 -1.2114 0.81343 0.094825 -1.6819 -0.64498 0.6322 1.1211 0.16112 2.5379 0.24852 -0.26816 0.32818 1.2916 0.23548 0.61465 -0.1344 -0.13237 0.27398 -0.11821 0.1354 0.074306 -0.61951 0.45472 -0.30318 -0.21883 -0.56054 1.1177 -0.36595
korea -0.30067 0.32956 0.48158 0.75187 -0.59368 -0.52597 0.48813 0.5065 0.16268 -0.034976 0.27508 -0.22221 -0.19226 -0.11675 0.017398 0.87905 0.16556 0.29426 -0.092826 1.2171 0.59129 -0.17929 0.43377 -0.84162 0.55039 -2.4405 0.89472 0.042552 -0.33361 -0.44493 3.195 -0.055274 0.080788 0.69537 -0.15831 -0.77615 -0.017353 0.12928 -1.6166 -0.87956 -0.53023 -0.98761 1.2164 -1.1802 1.5171 -0.053297 -0.20255 1.2081 -0.70784 -0.45129
road 0.10042 1.06 0.24829 0.014362 -0.783 -0.12697 -0.85894 -0.16042 0.59427 -1.069 -1.2221 -0.61181 -1.1446 -1.3356 -0.93968 0.37353 0.75405 0.37777 -0.52882 0.024955 0.31032 0.083344 -0.59232 0.83623 0.65468 -1.1154 0.47597 0.77803 0.84934 -0.82595 2.8725 -0.1032 0.25725 0.074587 0.95345 -0.027788 0.60115 -0.15205 -0.50584 0.58003 -0.58731 -0.72368 -0.057061 -0.28228 -0.42823 0.21001 0.22496 -1.2876 0.87487 -0.6231
australia -0.66844 -0.028264 -0.36074 0.8417 -0.21838 0.20159 -0.79323 0.14662 1.0802 -0.64468 0.46575 0.14034 -0.18538 -0.61298 0.50717 0.60706 1.0197 -0.53141 -1.4366 0.28213 0.31179 0.38623 0.055987 0.38529 0.5494 -1.1372 1.0352 -0.66566 -0.82223 0.45742 2.7763 0.19196 0.80873 0.098878 0.14402 -0.37979 0.33395 -0.056501 -1.072 -1.3023 -0.030731 -0.38568 1.0704 -0.74367 0.31475 1.3934 -0.72732 -0.29135 0.1166 -0.52491
hard -0.53079 -0.21965 0.53268 -0.23144 0.074339 -0.065505 -0.10421 0.30725 -0.49644 0.65372 -0.38484 -0.16258 -0.6452 0.36771 0.089541 0.33131 0.72552 -0.05129 0.36862 -0.89896 -0.53229 0.33536 0.19408 0.18393 0.5277 -1.8321 -0.53567 0.11963 0.87309 -0.40913 3.5748 0.168 -0.26982 0.1895 -0.15528 0.23055 -0.30747 0.44402 0.14332 -0.56575 -0.13017 0.2943 -0.052564 0.40329 0.45792 0.3516 -0.019691 -0.20061 -0.24725 -0.030552
higher -0.64024 0.22079 0.79316 -0.71459 0.59939 -0.21182 0.24904 -0.63085 0.033044 0.50756 0.65401 -0.49695 0.6463 -0.72972 -0.11375 0.80608 -0.33519 -0.39879 -0.6108 -0.99099 0.78769 -0.66411 0.10332 -0.473 -0.23257 -1.178 0.21467 -0.16859 -0.14192 0.90384 3.9415 0.74366 1.0567 -0.21703 0.75132 -1.1666 -0.44778 0.092494 0.58773 -0.44638 -0.84593 -0.07333 0.68969 0.48407 -0.019144 -0.49032 0.58591 0.39169 0.48491 0.042346
japanese -0.30919 -0.35173 0.077699 0.28382 0.58852 -0.057347 -0.59888 0.069184 -1.4809 -0.27295 0.96721 0.24209 0.7149 1.2033 0.41348 -0.019271 -0.94934 0.71965 -0.53969 0.20194 1.2115 -0.39822 -0.87987 -0.42378 0.6151 -1.865 -0.40182 -0.46066 -0.31456 -0.10373 2.9272 0.016333 0.82838 0.55921 0.10666 -0.10548 -0.22221 -0.54478 -1.2444 -0.63589 -0.75659 -0.66823 1.2943 -0.87361 1.7536 -0.45602 -0.24003 0.95075 0.29086 -0.37979
california -0.094576 0.12842 -0.099356 0.46342 -0.99674 -0.041353 -1.815 -0.20399 0.69405 0.056446 -0.51808 -0.73496 0.97266 -0.42734 0.14013 -0.5512 -0.29905 0.5736 -0.33651 -0.47473 -0.23651 -0.2431 -0.56144 0.2039 -0.60267 -1.9407 -0.084779 -0.079509 -0.26599 -0.59215 2.596 -0.84078 -0.78666 -1.2118 0.34527 -0.89909 -0.80615 0.030595 1.3677 -0.41649 -1.2243 0.33881 0.38883 0.076045 -0.54893 0.52766 -0.084278 -0.81387 -0.19385 0.84154
father 0.095496 0.70418 -0.40777 -0.80844 1.256 0.77071 -1.0695 0.76847 -0.87813 -0.0080954 0.43884 1.0476 -0.45071 -0.58931 0.83246 -0.038442 -0.73533 0.26389 0.12617 0.57623 -0.23866 1.0922 -0.3367 0.081537 0.84798 -2.4795 -0.40351 -0.84087 0.12034 0.29074 1.9711 -0.50886 -0.45977 -0.13617 0.55613 0.22924 -0.18947 0.43544 0.65151 0.043537 -0.1162 0.72196 -0.66163 -0.17272 0.27367 -0.28169 -0.82025 -1.5089 0.052787 -0.035579
son 0.2771 0.97784 -0.1447 -0.48693 1.1714 0.67133 -0.86157 0.63143 -0.98881 -0.11358 0.2246 1.2442 -0.59939 -1.0432 0.67863 -0.10454 -0.62641 0.17461 -0.1696 0.95344 -0.46932 0.89562 -0.30832 0.10274 0.80234 -2.4357 -0.47613 -1.2526 0.1124 0.45486 1.7478 -0.45626 -0.63565 0.56231 1.0432 0.063764 0.10414 0.21323 0.56448 0.11494 -0.032541 0.75053 -0.71651 -0.50863 0.52775 -0.51207 -0.72506 -1.8436 0.38052 0.36673
short 0.08226 0.52026 -0.13314 -0.78449 -0.2366 0.58779 -0.4191 -0.39373 0.054773 0.012971 -0.62161 0.23175 -0.43722 0.499 0.39791 -0.28424 -0.051524 -0.32952 -0.88485 -0.35463 0.20174 -0.1279 0.61101 -0.31412 0.40172 -1.2991 -0.072569 0.61494 0.21407 0.032626 3.4835 -0.11963 0.45864 0.47906 0.22729 0.022899 0.22242 0.53241 -0.86963 -0.45325 -0.19527 0.35825 -0.08619 -0.0019633 -0.40885 -0.43347 0.66171 -0.022696 -0.34519 0.26502
low -0.25589 0.47538 0.75416 -1.0972 -0.037572 0.12092 -0.10886 -0.45542 0.31374 0.79293 0.20958 -0.42304 0.63525 -0.0046922 -0.20428 0.4947 -0.081891 -0.30669 -0.60734 -0.62661 -0.20518 -0.22546 0.15236 -0.2035 -0.26185 -1.312 0.45509 0.65863 0.77804 1.3161 3.7916 0.24891 0.94249 0.1129 0.83074 -0.29118 -0.2823 0.39475 0.46752 -0.75958 -0.36768 0.63075 0.43537 0.41162 0.056963 -0.38209 0.63026 -0.13501 0.26791 0.27179
pakistan 0.093731 -0.76398 0.33058 0.56553 0.34119 -0.43292 0.47741 0.2661 1.1704 -0.54634 -0.16965 -0.50994 -0.86457 -0.67518 -0.38377 1.1203 0.62431 0.065409 -0.12632 1.3 0.24576 1.0203 0.9235 0.41756 0.29078 -2.083 0.4507 -0.44789 -0.3796 0.48155 2.8687 0.56244 -0.087388 0.57662 0.97655 0.45718 -0.16975 -0.43693 -1.5763 0.19571 -0.52565 0.66193 -0.13605 -0.52883 0.37579 1.0104 -0.7011 1.2532 -0.10438 -1.348
lower -0.22492 -0.15599 0.33274 -0.75665 0.31325 0.2132 0.50755 -0.027856 -0.057906 -0.17188 0.37383 -0.70115 0.71375 -0.30271 -0.6462 1.1794 -0.38214 -0.8009 -0.3949 -0.96584 0.55352 -1.1825 -0.002944 -0.17211 -0.53418 -1.3003 0.14426 0.55481 -0.65616 0.57594 3.9183 0.22069 1.2892 0.3889 0.78073 -1.2605 -0.16506 0.061085 0.90305 -0.52317 -1.0507 0.15649 0.43754 0.50505 -0.50092 0.08064 0.59708 -0.53114 0.37657 -0.39513
dollar -0.12318 0.33984 0.85825 -0.31793 -0.033968 -1.1123 0.10244 -0.4929 -0.26084 1.0955 -0.62132 0.13373 0.084462 0.020772 0.79556 0.54846 0.027878 -0.3913 -1.0219 0.10898 1.3353 -0.53507 -0.73767 -1.5169 -0.64226 -1.4995 0.65463 0.46814 0.0095991 0.91297 3.1169 0.12388 1.2138 1.4885 -0.15059 -0.91252 -0.62391 -0.35212 0.0044067 -2.1639 -0.52815 0.13463 1.2257 0.02624 0.19675 -0.5044 0.28761 0.62596 0.27204 -0.15836
king 0.50451 0.68607 -0.59517 -0.022801 0.60046 -0.13498 -0.08813 0.47377 -0.61798 -0.31012 -0.076666 1.493 -0.034189 -0.98173 0.68229 0.81722 -0.51874 -0.31503 -0.55809 0.66421 0.1961 -0.13495 -0.11476 -0.30344 0.41177 -2.223 -1.0756 -1.0783 -0.34354 0.33505 1.9927 -0.04234 -0.64319 0.71125 0.49159 0.16754 0.34344 -0.25663 -0.8523 0.1661 0.40102 1.1685 -1.0137 -0.21585 -0.15155 0.78321 -0.91241 -1.6106 -0.64426 -0.51042
taiwan -0.13589 0.12037 -0.006837 1.6744 0.11618 -0.50099 0.43352 -0.15161 0.33186 -0.085848 0.60356 -0.21089 1.2892 0.18856 -0.3983 0.41349 -0.9078 0.018521 0.36678 0.37967 0.74225 -0.43836 0.02491 -1.0814 0.89024 -1.8472 0.49904 -0.44734 -0.43678 -0.56959 3.1902 0.83871 -0.35024 0.097752 -0.68373 -1.0679 -0.56269 0.061889 -1.0296 0.074187 -1.3109 -0.31199 1.1262 -0.62423 0.62092 -0.61025 -0.60632 0.22841 0.36818 -0.12629
wife 0.57651 1.1396 -0.21861 -0.28966 1.1153 1.5722 -0.93256 0.64556 -0.46543 -0.51727 -0.15117 0.42836 -0.16713 -0.69901 1.1323 0.011065 -1.0741 -0.0339 0.69631 0.57713 0.18758 1.8321 0.18763 0.01924 0.79317 -2.219 -0.059368 -0.31341 -0.13352 -0.28548 1.6446 -0.10649 -0.17428 0.12541 0.35026 -0.21368 -0.060237 0.45354 0.62313 -0.5117 -0.093284 0.76768 0.068956 -0.73425 0.24843 -0.85864 -1.0081 -2.0724 0.232 0.37039
english -0.98541 0.56102 -1.4616 -0.99062 -0.098958 0.13708 -1.0924 -0.029381 -1.3352 -0.17343 0.51113 0.71241 0.60143 -0.52178 0.045027 -0.53245 -0.042311 0.17772 -0.91474 0.33303 0.10717 0.44659 0.15705 1.3205 0.60204 -1.2999 -0.49939 -0.69691 -0.74926 0.44462 3.416 -0.85778 0.34839 -0.0079804 0.77704 0.41424 0.14291 0.097092 -0.45835 -0.62452 1.2574 -0.049453 0.113 0.13171 -0.088237 0.44374 0.18269 0.14735 0.31888 -0.47812
texas -1.1389 0.091966 0.21446 0.62652 -0.1462 -0.26751 -1.562 0.28762 0.41333 -0.16034 -0.97137 -0.67537 0.54321 -0.31701 -0.17978 -0.6268 -0.2967 0.23363 -0.41338 0.01201 -0.56012 -0.18485 -0.13951 0.0028572 -0.64935 -2.1038 -0.077681 -0.29024 0.37588 -0.87706 2.2688 -0.67516 -0.44354 -0.6818 0.46717 -0.70454 -0.62999 -0.029869 1.0305 -0.17831 -1.1296 0.41413 -0.17604 0.43166 -0.51009 0.79434 -0.32733 -0.35677 -0.80534 1.0604
canada -0.72491 0.40524 -0.35895 0.65977 -0.27592 0.60496 -1.217 0.14638 0.85096 -0.74799 1.0267 -0.0491 0.40083 -0.11647 0.14594 0.32253 0.38807 -0.72773 -1.0039 -0.015682 0.66613 -0.30068 -0.01085 0.57758 -0.26283 -1.3647 0.17607 -0.54651 -0.40292 -0.14113 2.3757 0.60026 0.072329 -0.4139 -0.30918 -1.166 -0.15287 -0.18237 -0.075067 -0.30076 -0.073329 -0.19173 1.1995 -1.1107 -0.57754 1.011 -0.81894 -0.11035 0.015073 -0.03693
woman -0.18153 0.64827 -0.5821 -0.49451 1.5415 1.345 -0.43305 0.58059 0.35556 -0.25184 0.20254 -0.71643 0.3061 0.56127 0.83928 -0.38085 -0.90875 0.43326 -0.014436 0.23725 -0.53799 1.7773 -0.066433 0.69795 0.69291 -2.6739 -0.76805 0.33929 0.19695 -0.35245 2.292 -0.27411 -0.30169 0.00085286 0.16923 0.091433 -0.02361 0.036236 0.34488 -0.83947 -0.25174 0.42123 0.48616 0.022325 0.5576 -0.85223 -0.23073 -1.3138 0.48764 -0.10467
indian -0.50272 -0.86278 -0.62779 0.91383 0.31368 -0.038815 -0.31021 -0.2526 0.30158 -0.64804 0.045761 -0.037186 0.70252 0.11521 -0.3486 0.08222 0.24425 0.90143 -0.72602 0.34732 0.79549 0.68965 -0.011682 0.25732 0.87478 -1.7585 -0.43138 -1.1128 -1.1055 0.25266 3.0408 -0.42061 -0.1143 0.74834 0.61912 0.36031 -0.71076 -0.8182 -0.66709 0.43353 -0.90637 0.86167 0.0090063 -0.089209 0.15429 0.45053 -0.46443 0.27031 0.10094 -1.3809
australian -1.4047 -0.07208 -0.44052 0.70985 0.018739 0.24777 -1.0239 0.019235 0.46536 -0.82913 0.65677 0.15618 -0.11463 0.12145 0.6679 0.024505 0.54538 -0.024967 -1.4924 -0.11921 0.51936 0.76334 -0.28641 0.10668 0.22595 -1.141 0.41114 -0.91738 -1.2074 0.88677 2.6194 -0.40798 0.77985 0.18551 0.43255 0.047056 0.3403 -0.42377 -0.66495 -1.6745 0.18333 0.006367 0.88721 -0.50006 0.50706 0.26863 -0.47496 -0.089711 0.23862 -0.24741
mother 0.4336 1.0727 -0.6196 -0.80679 1.2519 1.3767 -0.93533 0.76088 -0.0056654 -0.063649 0.30297 0.52401 0.2843 -0.38162 0.98797 0.093184 -1.1464 0.070523 0.58012 0.50644 -0.24026 1.7344 0.020735 0.43704 1.2148 -2.2483 -0.41168 -0.24922 0.31225 -0.49464 2.0441 -0.012111 -0.19556 0.085665 0.27682 0.015702 0.0067683 0.12759 0.87008 -0.40641 -0.21057 0.41651 -0.021812 -0.53649 0.54095 -0.43442 -0.52489 -2.0277 0.13136 0.11704
hand 0.088068 -0.42703 0.21275 -0.46137 0.88653 0.31964 -0.0094923 0.12259 -0.011234 -0.2113 -0.11769 0.085932 -0.54004 0.27666 -0.074244 0.11298 -0.31362 -0.30666 0.13833 -0.99789 -0.10509 0.56499 0.30105 -0.60911 0.21528 -1.9955 -0.23075 0.36169 0.36569 -0.83593 3.1593 0.38484 -0.58786 0.30266 -0.080106 0.7723 0.14527 0.54844 0.13905 -0.15815 0.37559 0.64325 -0.35815 0.2687 0.37035 -0.12839 0.14046 -0.37389 -0.24085 -0.80756
mexico 0.41189 -0.093082 -0.18871 1.0692 -0.53433 -0.99734 -0.55511 0.32821 0.13527 0.56191 0.4153 -0.76649 0.64603 -0.18546 0.78123 -0.89799 -0.49891 -0.2208 -0.13527 0.18387 -0.71566 -0.76888 -0.080441 0.00049022 -0.52532 -1.8385 0.17512 0.33196 0.24221 -0.56305 2.6126 -0.0023889 -0.5464 -0.73415 -0.46359 -0.75214 -1.2924 0.2636 0.28462 0.026416 -1.0242 0.57252 1.4757 -1.2457 -0.62902 0.40549 -0.41026 -0.60271 0.13786 -0.079502
afghanistan 1.2447 -0.6012 0.91558 -0.32839 0.55133 -0.90798 0.19726 -0.011695 0.9853 -1.1864 -0.29323 -1.1293 -0.53785 -0.52639 0.1525 0.45072 0.31377 -0.077195 0.2962 1.2003 -0.40543 0.50093 0.78234 -0.02051 -0.10183 -1.8625 -0.21898 -0.28833 0.4406 0.98703 2.6899 0.29544 -0.74035 -0.2833 0.25638 0.71681 -0.91745 -0.0050923 -1.517 0.28548 -0.75356 0.85136 0.7117 -1.4273 0.26013 0.13448 -0.46442 0.69723 -0.95135 -0.31487
italy 1.7704 -0.77758 -0.95302 0.329 0.040391 -0.086352 -0.096326 -0.14525 -0.85415 -0.091315 0.71825 -0.8378 -0.71724 -0.30078 1.2588 -0.72728 -0.26415 -0.17469 -0.57705 0.335 -0.51533 -0.43223 -0.80174 0.94644 0.0098356 -1.3264 0.59604 -0.12843 -1.0187 0.25605 2.6086 0.87975 -0.30444 0.31701 -0.66136 -0.15968 -0.28717 1.4486 -0.6017 -0.64794 0.37924 0.18643 1.2729 -1.2207 -0.20923 1.1948 -0.18 -0.35325 0.44488 -0.83675
beijing -0.27482 0.86905 -0.22339 1.027 -0.52538 -1.104 0.46268 0.14246 0.059472 -0.26456 0.094427 -0.86325 0.16614 -0.028474 0.36902 0.65291 -0.62934 0.5576 0.11536 0.26318 1.329 -0.26666 -0.074281 -0.40623 0.8963 -2.3329 0.39511 0.089482 -0.8775 -0.47589 2.692 0.88484 -0.20961 -0.54463 -0.89225 -0.71211 0.24093 0.73205 -1.0589 0.43071 -1.0627 -0.42214 0.57792 -0.38606 1.2183 -0.37839 -0.51012 0.13843 0.38774 -0.46025
florida -0.52717 0.16878 0.16146 0.93858 -0.65492 -0.31994 -1.9174 0.4698 0.56923 -0.41709 -0.89388 -0.47683 0.71533 -0.036128 0.075119 -0.4092 -0.39062 -0.44903 -0.79029 -0.051118 -0.7038 -0.11065 -0.10502 -0.099269 -0.40241 -1.7824 0.29444 -0.083841 0.32498 -0.84258 2.2678 -0.051775 -0.49952 -1.1586 0.38769 -0.3771 -0.53632 0.013655 1.1137 -0.5959 -1.1043 0.49261 0.17273 0.61982 -0.92921 0.83737 -0.30406 -0.47433 -0.14181 0.83255
computer 0.079084 -0.81504 1.7901 0.91653 0.10797 -0.55628 -0.84427 -1.4951 0.13418 0.63627 0.35146 0.25813 -0.55029 0.51056 0.37409 0.12092 -1.6166 0.83653 0.14202 -0.52348 0.73453 0.12207 -0.49079 0.32533 0.45306 -1.585 -0.63848 -1.0053 0.10454 -0.42984 3.181 -0.62187 0.16819 -1.0139 0.064058 0.57844 -0.4556 0.73783 0.37203 -0.57722 0.66441 0.055129 0.037891 1.3275 0.30991 0.50697 1.2357 0.1274 -0.11434 0.20709
child 0.30459 0.40631 -0.37512 -1.2075 1.0473 1.579 -0.15254 -0.27604 1.0093 0.08583 0.17895 0.26302 0.2241 -0.39434 1.4092 -0.43509 -0.6516 0.10294 0.73823 0.20905 -0.1405 1.1462 -0.1672 0.5987 0.31977 -1.9205 -0.25067 -0.94027 0.33703 -0.20613 2.6765 0.28159 -0.37146 -0.80129 0.30049 0.57209 0.326 -0.4331 0.60803 -0.71701 -0.68058 0.080862 0.40396 0.24926 0.61058 -0.48516 0.12207 -1.1695 0.33096 0.46469
yen -0.46777 0.13325 1.8419 -0.6583 -0.92177 -0.98208 1.1061 -0.25642 -2.5963 0.90396 -0.015859 -0.28835 0.16777 -0.75813 -0.26725 0.57494 -1.6789 0.55179 -0.87889 -0.19791 1.7184 -0.44999 -0.21244 -1.6521 -0.18784 -0.85276 0.46665 0.29435 -0.57421 0.15567 2.7329 0.72568 2.5509 1.6247 0.27979 -1.8707 0.092097 -0.40736 0.46929 -0.7818 -0.8427 -0.28009 1.4601 -0.42339 0.91943 -0.81587 -0.21109 0.64707 0.30957 0.2549
bad -0.17981 -0.40407 -0.1653 -0.60687 -0.39656 0.12688 -0.053049 0.38024 -0.51008 0.46593 -0.30818 0.79362 -0.85766 -0.25143 1.0448 0.18628 0.13688 0.092588 -0.2236 -0.13604 -0.19482 0.057702 0.56133 0.24823 0.627 -1.8437 -1.2573 0.64482 1.2787 -0.29522 3.0493 0.62079 0.90369 -0.030099 -0.13091 0.30525 -0.070138 -0.12912 0.72277 -0.79774 -0.70277 0.038009 0.27192 0.35679 0.26493 0.13037 -0.01369 0.33713 0.99956 0.72031
spain 1.1595 0.21344 -0.36298 1.0122 -0.18473 -0.30199 -0.35055 0.8532 -0.71617 0.35008 1.1401 -0.58245 -0.33837 -0.36144 1.1036 -0.85338 -0.37948 -1.2075 -0.44249 0.10017 -1.0162 -0.76619 -0.6012 0.76406 -0.20989 -1.0587 0.4871 -0.63722 -0.35631 0.30415 2.6428 0.52948 -0.64095 0.11115 -0.44187 -0.54406 -0.67595 0.69745 -0.37146 -0.19252 0.54152 0.29873 1.4091 -1.291 -0.57823 0.52369 -0.44592 -0.61992 0.56161 -0.94449
italian 1.3249 -0.72295 -1.4014 -0.038929 0.31079 -0.029466 -0.73726 -0.26476 -1.5154 0.17862 0.90742 -0.47018 -0.19712 0.51508 0.97645 -1.7018 -0.68926 0.72521 -0.55985 -0.15008 -0.3136 0.11762 -1.0012 1.1083 -0.21998 -1.2775 -0.17973 -0.10399 -1.207 0.76172 2.7922 -0.23252 -0.46951 0.66419 -0.29245 0.41382 -0.40453 1.0008 -0.33376 -0.51774 0.94343 0.41602 1.1146 -0.93192 0.32985 0.22213 -0.4394 0.15883 0.8059 -0.72778
serious 0.62999 0.26082 -0.50013 0.060337 -0.35979 1.1345 0.59982 0.67181 0.42182 0.17256 -0.32658 -0.075708 -0.90533 -0.2038 0.90723 -0.15516 0.23273 -0.037594 -0.040542 -0.24925 -0.49792 0.45037 0.075325 -0.21659 0.55145 -1.9198 -0.44356 0.13306 0.68516 0.80599 3.2151 0.33437 0.33525 -1.177 -0.24061 0.42343 0.13495 -0.15265 0.0010865 -0.24153 -0.77736 0.24175 0.23548 0.50138 0.78161 -0.028669 -0.34097 1.0458 0.32184 0.22979
paris 0.76989 1.181 -1.1299 -0.74725 -0.5969 -1.0518 -0.46552 0.27009 -0.99243 -0.04864 0.28642 -0.75261 -1.0566 -0.19205 0.572 -0.24391 -0.36054 -0.70876 -0.91951 -0.27024 1.5131 1.0313 -0.55713 0.52952 -0.71494 -1.0949 -0.60565 0.31329 -0.44488 0.55915 2.1429 0.43389 -0.5529 -0.24261 -0.43679 -0.96014 0.25828 0.79385 0.37132 0.49623 0.84359 -0.25875 1.5616 -1.1199 0.091676 0.076675 -0.45084 -0.86104 0.97599 -0.35615
immediately 0.7172 -0.50492 0.21984 -0.30208 0.19903 -0.083179 -0.58772 1.1666 -0.29177 -0.5886 0.27334 0.19478 -0.33608 -0.38698 0.59427 0.54657 -0.40463 -0.55764 -0.22545 -0.49183 0.41985 0.27288 0.46812 -0.13985 0.21151 -1.815 0.45912 0.33882 0.12157 -0.33507 2.9047 -0.13361 -0.72852 -0.48285 -0.047323 -0.1808 0.71836 -0.20453 -0.10711 -0.048934 0.037972 -0.010714 -0.24383 -0.32205 0.031772 -0.26141 -0.45491 0.15996 0.10173 -0.22334
longer 0.48451 0.38714 0.25167 -0.77417 0.2801 0.16307 -0.13793 0.058456 0.021693 -0.057757 0.24759 0.37767 0.022451 0.037534 0.59911 0.91215 0.10666 0.18424 0.22779 -0.71327 -0.42339 -0.20002 0.44794 0.29211 0.16819 -1.5699 -0.18898 0.38409 0.92561 0.024784 3.4005 0.18005 -0.095739 -0.21391 0.18975 -0.35275 0.20199 0.41773 -0.63125 -0.411 -0.25686 -0.31737 0.44627 0.83197 -0.43048 -0.32631 -0.069559 -0.072752 -0.61538 0.49232
korean -0.37091 0.45293 -0.02317 0.41713 -0.45777 -0.44084 -0.14999 0.29865 -0.3741 -0.34091 0.37764 0.0049877 0.35465 0.8761 -0.19744 0.024696 -0.38896 0.92814 0.059199 0.87424 0.52466 0.22725 0.20158 -0.3262 0.5885 -2.1577 0.10742 -0.18381 -0.60222 -0.18491 3.1231 -0.44597 0.12975 1.188 0.17618 -0.27286 -0.13756 -0.60492 -1.4584 -0.44235 -0.74184 -0.79881 1.1227 -0.78005 1.7246 -1.0448 -0.25364 0.95281 -0.47055 -0.75217
atlanta -1.0255 1.14 0.27088 1.2964 -0.22467 -0.55808 -1.9727 -0.52942 0.55607 -0.48596 -0.7555 -0.55799 -0.99334 0.13091 0.83527 -0.058354 -0.79702 -0.5973 -0.43055 0.095148 -0.42831 0.5277 -0.41006 0.64514 -0.59836 -1.0417 -0.060947 -0.45935 0.79238 -0.80473 1.781 0.52496 0.036867 -0.51445 -0.19282 -0.31396 0.094393 0.17953 0.91322 0.48565 -0.053946 0.3348 0.24868 0.71448 0.040415 1.4561 -0.15356 -0.15673 -0.55824 1.0741
heavy -0.10338 -0.46242 0.19695 -0.32096 -0.96777 0.093447 0.31747 0.59026 -0.020371 -0.15691 0.018346 -0.49632 0.17841 -0.1718 -0.55629 -0.12826 -0.11482 0.41995 -1.0997 -1.2921 0.36797 -0.25081 0.16933 -0.95802 -0.40706 -1.1558 -0.55634 0.7256 1.3522 0.77601 3.5984 0.068468 0.63273 0.39554 0.12556 0.72624 -0.098045 -0.43297 -0.14837 0.16954 -0.09219 0.45344 0.39436 -0.68246 0.96844 -0.28436 -0.3374 -0.077905 -0.26795 -0.32666
boston -0.15564 0.89573 -0.28029 -0.01753 0.13413 -0.101 -1.8954 0.14054 -0.64098 -0.075966 -0.70448 0.12627 -0.51151 0.39828 0.053494 -0.72117 -0.2585 -0.16947 -1.3793 0.45141 0.46818 -0.078311 -0.54636 0.071904 -0.86176 -1.6099 0.17396 -0.22364 0.16993 -1.0124 1.9848 0.42699 0.7497 -0.85074 -0.39701 -0.63296 0.007884 0.31607 1.3688 0.1338 -0.22721 -0.19089 0.015153 0.85278 -0.18927 0.7968 -0.40972 -0.14221 -0.51015 1.2253
turkey 0.38135 -0.20444 -0.57329 0.039556 0.56655 0.59311 0.40481 0.35574 0.14022 -0.56136 0.4968 -0.87828 0.56048 0.13002 0.53682 0.99199 0.71035 0.10209 -0.19113 1.3147 0.25936 -0.46464 0.40656 0.57927 0.30932 -2.2949 0.69226 0.39545 0.13891 -0.11567 2.5195 0.99871 -0.89958 0.98059 -0.66361 0.12376 -0.3936 0.49665 -0.99641 0.3154 -0.080299 0.51342 0.46186 -1.0601 0.31185 1.031 -0.5048 1.5887 -0.21222 -1.1793
daughter 0.37648 1.2426 -0.39739 -0.53184 1.187 1.5091 -0.84171 0.67881 -0.25809 -0.47984 0.17823 0.74667 -0.13473 -0.92361 0.95622 0.20569 -1.2239 -0.055043 0.56182 0.78077 -0.04409 1.5692 -0.066821 0.2514 1.0403 -2.1412 -0.31986 -0.77169 -0.029177 0.047146 1.4145 -0.23272 -0.34426 0.22699 0.88573 -0.20184 -0.15168 0.3621 0.6495 -0.68719 -0.068208 0.53595 -0.15289 -0.90156 0.38965 -0.523 -0.32187 -2.4262 0.30053 0.33888
usually 0.47939 0.30759 -0.31313 -0.47078 0.38959 0.41524 0.077847 -0.060201 -0.23406 -0.068036 0.22872 0.075107 0.91104 0.30106 0.35516 0.32206 -0.16271 0.043584 -0.27411 -1.1848 -0.095556 -0.54718 0.84406 0.71009 0.033511 -0.99343 -0.30962 0.39515 0.43081 -0.032132 3.666 0.054535 0.24327 -0.40758 0.3785 0.39631 0.30609 0.34743 -0.47051 -0.15875 -0.056496 0.20278 -0.12964 0.92894 0.31264 -0.31815 0.22013 -0.37241 -0.12417 0.13525
spanish 0.70881 -0.0045872 -1.0309 0.25621 -0.078768 -0.82823 -1.0692 0.6019 -1.2864 0.33568 1.3218 0.051735 0.50143 0.30306 0.39058 -1.601 -0.75984 -0.44891 -0.62745 -0.24528 -0.90699 -0.20482 -0.58004 0.84631 -0.28577 -1.1649 -0.25523 -0.3973 -0.38681 0.4262 3.0625 -0.52563 -0.84686 0.14209 -0.15395 0.074807 -0.7343 -0.040034 -0.3451 -0.06625 1.0024 0.23929 0.95497 -0.76798 -0.39267 -0.32809 -0.37894 0.02331 0.77921 -1.0226
chicago -0.83389 0.87909 -0.30872 0.25038 0.16209 -0.32452 -2.021 -0.10332 -0.55214 0.28976 -0.34745 -0.1644 -0.40631 0.3668 -0.010752 -0.69548 -0.40647 -0.10726 -1.4113 0.47048 0.60391 -0.10165 -0.3284 0.11019 -1.0949 -1.3657 0.33617 -0.042493 0.40142 -0.82294 1.9625 0.13051 0.60116 -1.0302 -0.2291 -0.70963 -0.062353 0.21721 1.0562 0.33816 -0.49867 -0.19095 -0.021891 0.1469 0.11654 0.55076 -0.65077 -0.31648 -0.24662 1.1191
professional -1.5058 0.59432 -0.94774 0.25047 -0.35738 -0.01501 -1.0501 0.5317 -0.36641 0.13518 1.1652 0.33063 -0.353 0.65077 0.39183 -1.0234 0.23005 1.2031 -0.62526 -0.46444 -0.069124 0.66144 -0.26636 0.86185 -0.61669 -1.1649 -0.3904 -1.3234 -0.5373 0.30509 2.901 0.44642 -0.17958 -0.98022 0.44397 0.79638 -0.1815 0.57759 0.045171 -0.91778 0.17393 -0.63065 0.24852 0.71628 -0.13022 -0.60415 -0.2412 0.40821 -0.11908 0.36694
quickly 0.56036 -1.1257 0.55507 -0.71007 0.059383 -0.29997 -0.78756 0.70269 -0.2864 -0.15299 0.36951 0.28308 -0.61024 0.0058911 0.22412 0.64999 -0.23358 -0.47678 -0.12418 -0.7531 0.26407 -0.049331 0.59658 -0.23219 0.55754 -1.5649 0.2196 0.26784 0.72161 -0.13073 3.0699 0.21293 -0.14069 -0.87782 -0.36846 0.11815 -0.27351 0.51589 -4.399e-06 -0.54707 -0.26419 -0.23358 -0.27178 -0.16913 0.074022 0.10568 0.085594 -0.5575 -0.27034 -0.2592
brother 0.38241 0.56538 0.17174 -0.32832 1.1811 0.64141 -0.75489 0.76061 -0.84549 0.067996 0.40488 1.3168 -1.039 -0.36122 0.74153 -0.20821 -0.46036 0.030236 -0.2302 0.59638 -0.48645 0.69894 0.16648 0.21533 0.2518 -2.0648 -0.20365 -1.1691 -0.1263 0.1645 1.5242 -0.32779 -0.42933 -0.11819 0.77706 0.26428 -0.0004162 0.41256 0.34926 0.24193 -0.09411 1.1235 -0.8575 -0.47789 0.45681 -0.23303 -0.93793 -1.7232 0.091327 0.19521
baghdad 0.83281 -0.22828 0.81876 -0.49577 0.77213 -1.4426 0.17629 0.60008 0.83618 -0.76835 -0.98172 -1.95 -0.88796 -0.4889 -0.28373 0.80724 -0.082767 -0.048784 -0.066642 0.84595 0.76957 1.1801 0.23635 0.17031 -0.77019 -1.7365 -0.28194 0.58383 0.86119 0.35972 2.0375 -0.13436 -0.45012 -0.45538 0.82046 0.51682 0.074054 -0.26436 -0.65936 1.4333 -0.17577 0.74618 0.26487 -1.3897 0.35262 0.55927 -0.63787 0.62347 -0.41874 -0.25097
mostly 0.32858 -0.30886 -0.056456 -0.7624 0.25143 0.43752 -0.88587 -0.28314 -0.68591 0.16894 -0.0544 -1.0499 0.95907 -0.11752 0.31504 -0.29301 0.2175 0.5066 -0.27924 -0.43986 -0.11306 0.14676 0.50229 0.64807 -0.21733 -0.61578 -0.40215 0.11083 0.17462 0.33725 3.6909 -0.23696 0.90206 -0.38358 0.34675 0.39702 -0.59336 -0.10631 -0.6768 0.17198 -0.44282 0.35389 0.50423 0.28512 0.13029 -0.067138 -0.79896 -0.20482 -0.79238 -0.63959
wide -0.16827 0.81538 0.37512 -0.0064869 -0.053923 0.30066 -0.7035 -1.2363 0.67936 -0.092645 -0.65003 -0.36389 -0.22231 0.34267 -0.49082 -0.15335 0.61964 -0.60863 -0.55718 -0.73403 -0.57163 -0.0065439 -0.13932 -0.36651 0.066125 -0.82064 0.90444 0.73971 0.076431 -0.3929 3.5106 -0.031175 0.31285 -0.43413 -0.32094 0.47638 -0.41296 0.45124 -0.56167 -0.2586 0.41102 0.71933 0.020139 0.48678 -0.57014 -0.071938 0.79237 0.059763 -0.6137 -0.43848
cars 0.51724 -0.26031 1.7203 -0.47484 -0.57787 0.16375 -1.4448 -0.85441 -0.28838 -0.2202 0.2977 -0.62934 -0.97335 -0.28439 0.93359 0.016909 -0.41153 1.6066 -0.3413 -2.7262 0.75217 -0.33267 -0.84953 0.67237 0.0052213 -0.68454 -0.50516 0.64063 1.2926 -0.074289 2.5438 0.72682 0.022884 0.1408 1.1335 0.42737 0.56392 0.025196 -0.81137 0.69468 -0.2126 -0.3785 0.83051 -0.52962 0.27608 -0.10377 -0.62393 -0.59529 0.476 -0.86396
hands -0.08166 -0.56358 0.30778 -0.74255 1.2714 0.044595 0.17356 0.19382 -0.51327 -0.35966 -0.21227 0.29218 -0.54824 0.21636 -0.084691 -0.14624 -0.42109 -0.1876 -0.043715 -0.64857 0.021307 0.89915 0.57699 -0.68322 0.035626 -1.6618 -0.015003 0.29002 0.31284 -0.66162 2.9354 0.62766 -0.026745 0.53263 -0.4576 0.52068 -0.32426 0.038437 0.29153 -0.3287 0.029001 0.18817 0.17088 0.4997 0.28319 -0.26887 -0.37646 -0.81927 -0.35343 -1.1022
ireland -0.2706 -0.2402 -0.88009 -0.40444 -0.011622 1.1021 -0.71965 0.51839 -0.0030454 -1.2369 0.20235 -0.036546 -0.69768 -0.98629 0.56019 0.60613 1.1449 -0.59555 -0.80208 0.32675 0.34654 -0.036589 -0.28541 1.3005 0.026286 -0.91857 0.3044 -0.6748 -0.78459 0.78328 2.3535 0.70181 0.24037 0.037098 0.17612 -0.092781 0.0065967 -0.51562 -0.39947 -0.79875 -0.009335 0.12563 -0.26138 -0.66795 -0.64793 1.2329 -0.542 0.2015 0.29772 -0.98084
husband 0.3966 0.59821 0.11068 -0.45436 1.2759 1.6052 -1.0662 0.1954 -0.60738 0.0081428 -0.07934 0.37204 -0.25451 -0.45528 1.2382 0.054297 -0.66169 0.0635 0.30669 0.37075 0.12926 1.7751 -0.06796 -0.26431 0.85356 -1.9176 0.074934 -0.3235 0.38055 0.02172 1.6803 0.14786 -0.15987 -0.087453 0.25015 0.030113 -0.12493 0.30738 0.69666 -0.40256 -0.16874 0.88117 -0.15934 -0.33762 -0.13911 -0.97545 -0.88182 -1.4575 0.29831 0.23416
complete 0.52439 0.51014 -0.30201 -0.087829 0.080008 0.24303 -0.17647 0.1692 0.42755 0.18225 -0.20883 0.028035 -0.57293 0.17337 0.53001 -0.262 0.12003 -0.339 -0.061782 -0.2323 0.24751 -0.061571 -0.42054 -0.54646 0.21377 -0.61008 -0.83732 -0.3668 0.38052 -0.32314 3.3913 -0.35434 -0.94014 -0.05342 0.16553 0.5496 1.2651 0.26022 -0.07985 -0.23223 0.01592 -0.96809 -0.17166 0.13896 -0.73601 0.2771 0.54434 0.49011 -0.37947 -0.025708
moscow 0.36366 1.4939 0.25894 -0.37835 -0.37487 -0.83621 0.52872 1.3824 -1.3646 -0.16165 0.28893 -1.1491 -0.49207 0.78691 0.093677 0.40731 -0.26552 0.36091 -0.20346 0.82827 1.1568 -0.027295 -0.5743 0.11437 -0.53875 -2.2521 0.22763 0.71361 -0.055496 -0.02831 2.0417 0.30655 -0.24599 -0.9115 -0.98252 -0.33366 0.067877 0.68164 -0.1721 0.65925 0.27524 -0.16436 1.0991 -1.2045 0.062384 0.17609 -0.62426 0.96782 -0.56523 -0.45671
brazil 0.014697 -0.4585 -0.049365 1.1068 -0.34228 -0.99984 -0.59754 -0.021446 0.070466 1.0038 1.3814 -0.15615 -0.04429 -0.64585 1.2024 -0.35262 0.094759 -0.26553 -0.16363 -0.29023 -0.90477 -0.64781 -0.23873 0.42291 0.019089 -1.194 0.68176 -0.019443 -0.42695 0.073599 2.5519 0.61103 -0.57614 0.053781 -0.22584 -0.67029 -0.91667 0.71881 0.012405 -0.55416 -0.52862 0.33267 1.2562 -1.3472 -0.43544 1.2502 -0.12576 -0.060888 0.79752 -1.1951
tokyo -0.31168 0.19471 0.19075 0.68413 0.29163 -0.8988 0.22633 0.17832 -1.4774 -0.091882 0.089789 -0.94473 -0.19385 0.58078 0.20208 0.9924 -1.0311 0.42467 -1.142 0.71974 2.1561 -0.14197 -0.92983 -0.28101 -0.011046 -1.6787 0.44449 0.54703 -0.71357 -0.67743 2.3393 0.28577 1.4062 -0.0078203 -0.15283 -1.1147 0.2415 -0.65908 -0.044945 0.046839 -1.1396 -0.44836 0.91807 -0.74048 1.0508 0.052699 0.13431 0.62261 0.61384 -0.097283
greater 0.10768 0.91082 -0.12185 -0.3765 0.31017 0.092112 0.81855 -0.026777 0.78575 0.51874 0.49918 -0.30915 0.39335 -1.2969 -0.90529 0.49545 0.74978 0.05962 -0.2233 -0.33034 0.0222 -0.38098 -0.48946 -0.26045 -0.21087 -1.4353 -0.18188 -0.17174 0.30901 0.1952 3.2316 1.3341 0.21517 -1.2965 -0.070717 -0.76545 -0.51567 -0.45832 -0.030049 0.13768 -0.39462 0.070163 0.14618 -0.14372 -0.80835 0.29136 -0.12947 0.48711 -0.30308 0.11632
indonesia 0.50731 -0.87783 0.24249 1.3903 0.022146 -0.81473 0.75249 -0.15269 0.59991 0.50067 0.71337 -0.52647 0.21689 -0.037839 0.68195 0.64152 0.066501 0.36262 0.1056 0.85045 0.063619 0.29074 0.0071922 -0.08543 0.46046 -1.177 0.59601 -0.43192 -1.087 0.20318 2.6747 0.3077 0.14464 0.37428 -0.08624 -0.19423 -0.25764 -0.96367 -0.57695 -0.3511 -1.3974 0.32864 0.903 -1.1811 0.23645 1.0362 -0.58633 0.30987 0.32511 -1.2101
deep 0.31445 1.2024 0.066651 -0.20096 -0.049636 0.66882 -0.049386 0.44174 0.1799 -0.10196 -0.43674 0.12076 -0.12495 0.43378 -0.87784 0.010281 0.54592 -0.28928 -0.46115 -0.32058 -0.69094 0.49733 0.40657 -0.90062 0.69699 -1.1536 -0.12229 1.0657 0.93207 0.20439 3.3004 0.14223 0.46493 0.075359 -0.56755 0.30769 -1.1251 -0.37871 0.57479 -0.12629 0.13589 0.10633 0.058432 0.40321 0.10243 0.12004 0.41383 0.051987 -0.5835 -1.1159
buildings 1.0435 0.31534 0.53733 -0.65561 0.27654 -0.37083 -0.78489 -0.8996 -1.0484 -0.76091 -0.77184 -1.1094 0.21712 -0.16464 -0.50369 0.65385 0.18492 0.34262 0.0074045 -0.48361 0.69912 0.058518 -1.5224 -0.53608 -0.50869 -0.065242 -0.54818 0.5369 0.53374 -0.1766 3.1795 -0.74438 1.0215 -1.4149 0.34812 1.563 0.87659 0.092558 0.13722 0.87696 -0.71197 -0.46386 0.96303 0.36824 -0.083568 0.72454 -1.1134 -0.9492 0.23083 -1.1
georgia -1.3427 0.4592 0.19281 0.71305 -0.5934 0.063595 -0.87187 0.79427 -0.28496 -1.0274 -0.3005 -1.1219 0.41312 -0.78615 -0.3023 0.34274 -0.03919 0.23077 0.10951 0.53196 -0.45369 -0.0050708 -0.30418 -0.11958 -0.13399 -2.0671 0.22732 -0.057002 0.33504 -0.53461 1.9394 -0.18969 -0.806 -0.85693 0.18234 -0.051312 -0.737 -0.042606 0.16411 0.11965 -0.33128 0.24235 0.42535 -1.1329 -0.37384 1.0152 -0.24836 0.47535 -0.95568 0.11488
euro -0.18573 0.071188 0.47094 -0.65685 -0.09764 -0.53174 0.065894 -0.71937 -0.6576 0.61375 0.43488 -0.24952 -0.4416 0.48804 1.1226 0.67967 0.56345 -0.99166 -1.2352 0.059424 0.32377 -0.74202 -0.54559 -0.41019 -0.52761 -0.76294 0.75632 0.43768 -0.62578 1.2816 2.8639 1.045 0.47786 1.2119 -0.72668 -0.99186 0.12777 0.035577 -0.35305 -2.1473 0.26896 -0.33284 1.2578 -0.25247 -0.22707 0.4411 0.13437 1.032 0.6621 -0.63665
older 0.14872 0.55275 0.77985 -0.79642 0.70256 1.2159 -0.94201 -0.91722 -1.0801 0.11273 0.50394 0.069062 0.63677 -0.20201 0.59924 0.46956 -0.70005 0.44506 0.10907 -0.40183 -0.6265 0.29397 -0.0071172 0.54157 0.60816 -0.75454 -0.36409 -0.92627 0.50558 0.048055 2.6447 0.35489 0.56731 -0.43171 1.0701 0.056213 -0.10855 0.47887 -0.16187 -0.2425 -0.33612 0.17157 0.79387 0.69805 0.36484 -0.014387 -0.29538 -1.1203 -0.27845 0.35091
vietnam 0.015116 -0.10943 -0.27907 0.21508 -0.29031 -0.53296 0.19078 -0.41052 0.44114 -0.62994 0.18833 -0.21939 0.41152 -0.50776 0.43244 -0.53374 -0.64635 0.71545 0.32507 1.2133 -0.28625 -0.70367 0.3289 -0.75187 0.36866 -1.91 -0.045114 -0.29222 -0.13062 -0.085536 2.4892 0.38918 -0.20016 0.6271 -0.70908 0.065848 -0.6934 0.42858 -0.96318 0.21551 -1.26 0.10016 0.88836 -1.2289 0.66346 -0.34112 -0.59078 0.12597 -0.30163 0.0054462
tough -0.62506 -0.41594 -0.38828 -0.2393 -0.14216 0.031775 0.23745 0.23941 -0.55095 0.051646 -0.98923 -0.14361 -0.92158 0.57386 0.33701 -0.013238 0.86336 -0.28105 0.28156 -0.74946 -0.80004 0.29844 -0.35365 0.036641 0.14497 -2.0694 0.1724 0.52309 0.69278 -0.00092812 2.9257 0.43625 -0.50256 0.081334 0.023402 -0.012819 -0.092396 0.61191 -0.64909 -1.3195 -0.64253 0.24193 0.42437 0.17824 0.838 0.25057 0.24953 0.44416 0.2482 0.91655
egypt 0.75689 0.81669 -0.25743 -0.036118 -0.010797 -0.6895 0.10243 0.41161 0.33417 0.2597 0.23271 -0.32065 -0.4423 -0.24886 0.2994 0.85705 0.61531 -0.90883 0.097914 1.8604 0.37089 0.3509 0.62258 0.0058125 0.092549 -1.6326 0.30094 -0.3016 -0.16522 0.51995 2.3563 0.21679 -0.84397 0.79183 0.093384 -0.061096 -0.14283 0.44168 -1.2029 1.0734 -0.15193 0.11218 0.58621 -0.68003 0.32269 0.48905 -0.92192 0.52071 -0.24261 -1.8315
fast -0.20784 -0.80485 0.10014 -0.28913 -0.02678 -0.27864 -0.7156 -0.19953 0.88322 0.47223 -0.027356 0.17704 -0.62175 0.41581 -0.12808 0.41097 0.40763 -0.043396 -0.58299 -0.90552 0.087957 0.12834 -0.12993 0.59827 1.0866 -1.0565 0.4097 -0.12531 1.1902 0.56308 3.2721 0.38928 0.31798 0.59272 0.39924 -0.17766 -0.034477 0.71217 -0.62543 0.11305 -0.36788 0.36579 -0.23087 0.35788 0.60797 0.34241 0.4804 -0.57778 0.17871 0.59466
boy -0.32345 0.23332 -0.20082 -0.52848 1.0926 0.62445 -0.99859 0.28085 0.088326 0.36919 0.32199 0.3499 0.067459 0.24211 0.92565 -0.32581 -0.99134 0.80767 -0.22845 0.40076 -0.8577 1.3836 0.056439 0.76561 0.3608 -2.0692 -0.46679 0.12359 0.35127 -0.77092 2.2064 -0.42605 -0.24279 0.3832 0.6069 0.62835 0.31825 -0.8851 0.38329 -1.146 -0.41949 0.2606 -0.6568 -0.11511 1.0591 -0.61148 0.32152 -1.3182 0.31744 0.02527
thailand 0.17765 -0.79639 -0.049988 1.4182 0.034575 -0.84028 0.55555 -0.080121 0.52679 0.0023122 0.53119 -0.56702 0.43976 -0.3047 0.8868 0.89656 -0.43682 0.1023 0.2095 0.98867 0.30654 0.0054663 -0.043085 0.040747 0.21038 -1.1335 0.72388 -0.46893 -0.80514 0.44199 2.7999 0.73158 0.16846 0.81892 0.13799 0.29929 -0.30541 -0.037902 -0.86127 -0.65529 -1.0705 0.48492 0.80139 -0.86803 0.60769 0.37644 -0.56813 -0.10958 0.6117 -1.1001
greek 0.47579 0.85731 -0.53654 -0.32309 0.5503 0.1877 -0.33495 -0.12701 -2.0501 -0.2584 0.83052 0.53798 0.93145 0.58362 0.40926 -0.25876 0.0772 0.33428 -0.58827 0.52007 -0.0265 -0.56974 -1.0749 0.3361 0.75392 -1.3767 -0.32555 -0.35715 -1.1027 0.31586 2.5088 -0.24754 -0.25209 0.43139 -0.077172 0.50486 0.07714 -1.0469 -0.41801 0.42929 0.13491 -0.031975 0.75488 -0.26409 0.14745 0.54562 -0.19292 1.352 0.59571 -1.9645
hot -0.76663 0.69023 0.075462 0.11688 -0.79722 -0.19606 -0.77409 0.17351 0.26248 0.55295 -0.2919 -0.24505 0.59885 1.2445 0.26401 0.20211 0.042139 0.51844 -0.81704 -1.0801 0.22864 0.091212 1.5638 0.75056 -0.061206 -0.69001 -0.53558 1.1311 1.3871 0.36151 2.8475 0.10733 -0.017073 0.45358 -0.0071374 0.11177 -0.15955 0.30205 0.54222 -0.54103 0.23276 0.21756 -0.041444 0.0017056 0.76265 0.66241 -0.045484 -0.81479 0.046763 0.31134
lebanon 0.61099 0.22178 0.465 -0.65615 0.051067 -0.19286 0.17782 0.88151 -0.044085 -0.65499 -0.1737 -1.3923 -0.56698 -0.30894 -0.21569 0.79511 0.86659 -0.42232 0.20173 1.4308 -0.24653 0.9494 0.048814 0.46067 -0.67189 -1.3736 0.027747 0.27568 0.70622 1.0839 2.1865 0.20462 -1.1198 0.24473 0.12295 0.37059 -0.31139 -0.95159 -0.86855 0.61266 0.096185 0.34315 0.40441 -1.5101 -0.18955 0.44369 -0.85606 1.32 -0.83578 -0.71802
easy -0.023259 -0.10774 0.19567 0.033223 0.074798 -0.2464 -0.37363 0.23737 -0.04382 0.75206 -0.68002 0.14228 -0.051052 0.12944 0.061359 0.1398 0.67984 -0.58867 0.11884 -1.012 -0.42694 0.1589 -0.074903 0.53789 1.0589 -1.3319 -0.38969 0.083434 1.2894 -0.79956 3.0825 0.37201 -0.49131 0.15977 0.43779 0.12637 0.11982 0.99909 -0.24347 -0.77499 0.47008 0.17949 0.26817 0.66041 0.20982 0.32454 0.66948 -0.0029127 0.63353 0.52693
poland -0.37702 0.47362 0.31344 -0.23711 0.70257 0.63318 0.59792 0.65035 -0.66145 -1.2128 1.2191 -1.2979 0.28255 -0.42147 0.77957 0.84576 0.32248 -0.077685 -0.20554 1.1082 0.36429 -1.4393 -0.99148 0.45876 0.13942 -1.8145 0.19684 -0.43794 0.35225 0.11821 1.7225 0.8554 0.064044 -0.38668 -1.3531 0.01901 -0.20663 0.93854 -0.73513 0.33702 0.57519 0.30103 0.8791 -1.5753 -0.7214 1.2538 -0.6145 0.19247 -0.83043 -0.68375
dutch -0.063253 -0.50402 -0.63031 -0.62135 0.057163 -0.16309 -0.92577 0.17099 -0.49375 -0.071504 1.7497 -0.23725 -0.020054 0.38232 0.44484 0.10823 0.93845 -0.60769 -1.1832 -0.085575 0.1722 -0.074705 -0.79495 0.84532 -0.85019 -1.4248 -0.79222 -0.31556 -0.80657 0.91049 1.9769 -0.52684 -0.5119 0.44607 -0.11121 -0.26965 0.23935 0.14862 0.25746 -0.22647 1.2724 0.30706 1.3612 -0.66697 0.31481 0.16868 -0.71223 0.34183 0.43173 -0.96733
girl -0.34471 0.69563 -0.78086 -0.58482 1.2263 1.2544 -0.76466 0.40575 0.18862 0.098834 0.32557 -0.31816 0.23869 0.33554 1.0592 -0.25266 -1.0308 0.70027 0.030457 0.53866 -0.30279 1.7515 0.3128 1.2103 0.41335 -1.9421 -0.93756 0.32453 0.52249 -0.86708 2.1258 -0.20377 -0.19061 0.37736 0.66205 0.50211 -0.12544 -0.83069 0.21155 -1.3091 -0.44973 -0.11648 0.033598 -0.68382 0.99419 -0.88262 0.56601 -1.327 0.37319 0.022389
jordan -0.067766 1.3374 0.46885 0.56762 0.78882 0.054231 -0.70562 0.30646 -0.030009 -0.17922 0.18456 0.041657 -1.0832 -0.40831 0.72563 1.0185 0.64158 -0.47875 0.12663 0.7247 0.020762 0.52991 0.2019 -0.12955 -0.056138 -1.457 0.73463 0.045322 0.36243 -0.19072 1.8135 0.36106 -0.31145 0.12494 0.36438 -0.1666 -0.11732 0.096942 -0.63866 0.72358 -0.027591 0.67767 -0.063789 -0.9655 0.15212 -0.09569 -0.58146 0.41611 -0.88047 -0.22795
happy 0.092086 0.2571 -0.58693 -0.37029 1.0828 -0.55466 -0.78142 0.58696 -0.58714 0.46318 -0.11267 0.2606 -0.26928 -0.072466 1.247 0.30571 0.56731 0.30509 -0.050312 -0.64443 -0.54513 0.86429 0.20914 0.56334 1.1228 -1.0516 -0.78105 0.29656 0.7261 -0.61392 2.4225 1.0142 -0.17753 0.4147 -0.12966 -0.47064 0.3807 0.16309 -0.323 -0.77899 -0.42473 -0.30826 -0.42242 0.055069 0.38267 0.037415 -0.4302 -0.39442 0.10511 0.87286
larger 1.2487 0.087988 0.47495 -0.36961 0.4887 0.60362 -0.20401 -0.65056 0.0074782 -0.32327 0.13068 -0.43683 0.58543 0.15284 -0.49235 0.3482 0.41847 0.5212 -0.54211 -1.0813 0.10588 -1.1184 -0.39483 0.16217 -0.59144 -0.76414 -0.42994 0.29797 0.33817 0.18938 3.2667 0.15264 0.32387 -0.51649 0.11717 -0.016736 -0.38464 -0.032177 -0.51997 -0.23448 -0.10376 -0.25952 0.1391 0.22982 -0.37494 0.13224 -0.00063832 -0.082759 -0.56704 -0.14627
smaller 1.1998 -0.23055 0.69906 -0.1176 0.36606 0.57779 -0.62184 -0.6137 -0.41405 -0.24856 0.14361 -0.56083 0.68587 0.43607 -0.55022 0.40384 0.26088 0.26201 -0.45767 -1.3575 0.16209 -1.1499 -0.012015 0.36464 -0.71587 -0.41222 -0.39604 0.10225 0.13425 -0.14918 3.4935 0.38427 0.69106 -0.096564 0.27325 -0.20039 -0.54823 0.14732 -0.46445 -0.022909 -0.2768 -0.039195 0.34513 0.50713 -0.072703 -0.097248 -0.2894 -0.24848 -0.3833 -0.23238
prince 0.98846 1.4535 -0.53081 0.10509 0.84058 0.14018 0.066562 1.3341 -0.75813 -0.35223 0.16588 1.0016 0.019623 -0.66392 0.092825 0.25132 -0.16274 -0.11954 -0.50072 0.67374 0.66886 -0.038679 0.20223 -0.15211 0.12169 -1.8324 -0.85664 -0.62454 -0.31896 0.60221 1.411 0.50157 -0.11413 0.51808 0.847 0.17618 -0.035265 0.56405 -0.38524 0.6027 0.34331 1.1836 -0.37197 -1.1069 0.00012758 -0.18202 -1.3696 -1.497 0.40618 -0.42445
malaysia -0.2733 -0.54583 -0.32637 1.8247 0.29108 -1.0569 0.44993 -0.60195 0.87542 0.017496 0.96876 -0.022208 -0.071889 -0.60675 0.25868 1.3338 0.18284 0.33957 0.14609 1.074 0.51863 0.12927 0.37627 0.26633 0.083352 -1.0532 1.0728 -0.43277 -1.0341 0.3701 2.7104 0.76851 0.21712 0.85278 0.14638 -0.35619 -0.19071 -0.091202 -0.91903 0.0073924 -0.90297 -0.12835 0.41989 -0.21922 0.39808 0.40928 -0.79796 0.12977 0.90538 -1.1855
irish -0.78095 0.045923 -1.0007 -0.85958 0.24289 1.2958 -1.2734 0.22019 -0.70714 -0.75661 0.30453 0.26837 0.13984 -0.27681 0.26592 -0.26708 0.81404 -0.15625 -0.82105 -0.13514 0.27044 0.2565 -0.33152 1.0759 -0.090456 -1.0575 -0.49108 -0.8018 -0.82628 0.9101 2.2789 0.032519 0.01077 0.53954 0.16511 0.12697 -0.24255 -1.1667 -0.023626 -0.72888 0.5126 0.33533 -0.53501 -0.2175 -0.044847 0.37616 -0.71202 0.44099 0.29703 -0.93785
swiss 0.43374 -0.028131 -0.37431 -0.16019 0.20218 0.57005 -0.77359 0.017419 -0.56751 -0.36206 1.1108 -0.52451 -0.3257 0.46672 1.0489 -0.22574 0.16336 -0.38506 -0.59179 0.0042059 0.29832 -0.020399 -1.1389 0.23407 -0.79761 -1.5788 -0.34892 -0.17667 -1.2848 0.31442 1.7627 -0.10157 0.0042403 0.88495 -0.55688 -0.81415 -0.22328 0.59159 0.85042 -0.42254 0.63921 -0.13718 1.9912 0.12346 0.073731 -0.47635 -0.54772 0.89411 0.32005 -0.9562
cold 0.065776 0.50093 -0.56052 -0.76206 -0.61884 -0.099842 0.11455 0.4468 0.066765 -0.036494 -0.17953 -0.067204 0.28505 0.77787 0.20036 0.64272 -0.20341 0.15725 -0.83838 -0.37446 -0.31464 0.32295 1.0952 -0.25047 0.19203 -1.4469 -0.50573 1.0873 1.9172 1.1996 2.702 0.034828 -0.28479 -0.0077015 -0.47356 0.3285 -0.66162 0.34865 0.29464 -0.25905 -0.38361 0.2613 0.39353 0.25633 0.89202 0.95139 0.22781 -0.55425 -0.6592 0.068041
safe 0.82824 -0.38285 0.28854 -0.40331 0.55057 -0.58244 -0.55631 0.2089 1.1278 0.18073 0.27462 -0.27867 0.51273 0.01266 0.061183 1.0037 0.79961 -0.0035723 0.19964 -0.1948 -0.32393 0.67132 0.0057699 0.35096 -0.018524 -1.2916 -0.065977 0.36986 1.4406 0.12498 2.7895 0.060375 -0.72426 -0.35687 0.38117 0.012956 0.47403 0.23586 -0.22132 -0.3054 -0.058053 -0.20364 0.91986 0.32143 0.13541 -0.13329 -0.82082 0.082733 0.6005 0.5524
apparently 0.9508 -0.66274 0.3809 -0.50642 0.55988 0.4882 -0.86998 0.92612 -0.37872 0.039384 0.21541 -0.20438 -0.43406 0.05506 0.38235 0.24542 -0.49002 -0.14969 -0.41896 -0.30194 -0.049929 0.68206 0.31557 -0.041245 0.51386 -2.0429 -0.17435 0.56967 0.82694 -0.13738 2.3429 -0.39391 -0.11865 -0.83073 0.16189 0.10593 0.16384 -0.11995 -0.43011 0.094367 -0.15611 0.13309 -0.21388 0.19961 0.63713 -0.55554 -0.62824 0.088418 0.18802 -0.48891
immediate 1.0418 0.19322 -0.10186 -0.19602 0.0029242 0.081346 0.23767 1.1098 0.38337 0.099693 -0.13575 -0.10995 0.11708 -0.75759 0.47111 0.26213 0.14184 -1.0056 0.23809 -0.2613 0.14343 0.010617 -0.74515 -0.82806 0.10377 -1.2822 0.073668 -0.27407 0.53118 0.96404 2.9877 0.27062 -0.77941 -0.61535 -0.004105 -0.028307 0.74966 -1.0397 -0.34164 -0.30839 -0.21325 0.049364 -0.17437 -0.30256 0.19413 -0.21519 -0.3992 1.5066 0.18959 0.20275
brothers 0.62211 0.10254 0.051336 -0.21852 0.95118 0.51949 -1.1686 0.24241 -1.0857 0.23226 0.209 1.2516 -1.3081 -0.061904 0.53186 -0.14768 0.078718 -0.33186 -0.23717 0.011669 0.57416 0.65016 0.15299 -0.072699 -0.85072 -0.69968 -0.86785 -1.2044 -0.19954 -0.32067 1.827 -0.22348 0.44948 0.24178 0.59265 -0.098359 -0.60547 -0.67463 0.64875 0.23563 -0.50675 0.21285 -0.30689 -0.58163 0.60872 -0.16558 -0.8146 -1.3581 -0.71062 0.067596
pennsylvania -1.1152 0.57789 0.32837 -0.90493 -0.29276 0.41777 -1.1669 0.15112 0.69145 -1.4134 -1.222 -1.3206 0.54303 -1.0283 -1.099 -0.13122 0.14471 0.50532 -0.49136 0.33656 1.0522 -0.58563 -0.27599 0.16543 -0.47145 -1.9837 -0.79908 -0.4245 -0.49339 -0.60295 1.4689 -0.17778 0.17551 -0.94958 1.0215 -0.67426 0.043947 0.49584 1.0793 0.40321 -0.90378 -0.35992 -0.075259 0.12323 -0.94343 0.56986 -0.085175 -0.057736 -0.20201 0.80758
ohio -1.3857 0.43054 0.28695 0.043636 -0.36111 0.22566 -1.3329 0.651 0.17815 -0.89704 -0.79939 -1.0773 0.24022 -0.88236 -0.84119 -0.32137 -0.36331 0.36225 -0.24382 -0.025555 0.15705 -0.52253 -0.0094335 0.38822 -0.69149 -1.9798 -0.30054 -0.044077 0.00064888 -0.81907 1.5589 -0.27182 -0.21313 -1.129 0.95552 -0.78183 -0.38352 0.48594 0.911 0.098693 -0.80742 0.059937 -0.44163 -0.38893 -0.72532 1.137 -0.10895 -0.2124 -0.57775 0.7135
houston -0.54662 0.72036 0.37492 1.0408 0.077141 -0.28919 -1.7541 0.48773 0.32414 0.30764 -0.37342 -0.34196 -0.6026 0.043254 0.23669 -0.45033 -0.41594 -0.144 -0.82188 0.0841 -0.054347 0.44881 -0.48093 -0.27214 -0.83943 -1.0858 0.28209 -0.32464 0.57512 -1.1337 1.6677 0.038747 0.40762 -0.96801 0.2978 -0.45677 0.075049 0.26674 1.2791 0.40962 -0.65051 0.11254 0.14617 -0.00019175 -0.33386 0.70976 -0.69798 -0.42231 -0.69166 1.2099
sister 0.73844 1.2935 -0.011455 0.092898 0.57597 1.2912 -1.0506 0.57835 -0.14364 -0.46163 0.48305 0.55707 -0.32888 -0.19178 0.31023 0.079763 -1.2981 0.18495 0.52382 0.66812 -0.075753 1.4345 0.1894 0.98617 0.67427 -1.4132 -0.33093 -0.36307 -0.14782 -0.61211 1.7107 0.17398 0.23408 0.026432 0.1582 -0.50177 -0.037997 -0.00063127 0.28831 -0.57345 0.13439 0.02288 0.069726 -0.96704 0.14316 -0.26588 -0.63387 -2.0158 0.024152 0.59217
syria 0.62395 0.77901 0.48223 -0.64884 -0.01705 0.026791 0.43694 0.82965 -0.25865 -0.06123 -0.14311 -0.64412 -0.66485 -0.50086 -0.19818 1.1363 0.93584 -0.493 0.88779 1.4441 0.41768 0.29601 0.82733 0.3406 -0.24956 -2.2131 0.48872 0.43886 0.47738 0.50218 2.0231 0.019003 -0.99317 0.073811 -0.002206 -0.3035 -0.51903 0.010207 -1.6223 0.89773 0.45601 0.27536 0.40537 -1.3459 -0.029235 -0.011326 -0.85618 1.5412 -0.86498 -1.12
sweden -0.086848 -0.054822 -0.21686 0.48929 0.090268 1.2334 -0.078229 0.86243 -0.012906 -0.30699 1.7013 -0.92249 -0.55586 -0.20242 1.0713 0.88238 0.40502 -0.7269 -0.64816 0.7063 0.44183 -0.28527 -0.30205 1.0943 0.33587 -1.2768 -0.18621 -0.92921 -1.0308 -0.12491 1.8197 0.90442 0.43316 0.933 -0.11454 -0.65215 0.50676 1.0817 0.25296 0.13582 0.6853 0.26261 0.85791 -0.95491 -0.53974 1.3396 -0.34398 0.3375 -0.45213 -1.0352
argentina 0.30309 -0.24835 -0.62801 1.068 -0.68397 -0.84683 -0.24429 0.69909 -1.1685 1.0031 1.0191 0.10211 -0.079516 -0.13184 1.1001 -0.91619 0.016927 -0.8497 -0.2852 0.28059 -1.1384 -0.78769 -0.43732 -0.061458 -0.39915 -0.76221 1.0491 -0.13895 -0.38365 -0.27953 2.5542 0.17744 0.011827 0.29512 -0.5911 -0.4105 -0.78927 0.40803 0.30279 -1.2068 -0.37791 -0.034194 1.8297 -1.5049 -0.38398 0.6953 -0.2524 -0.34135 0.60223 -0.84916
slow 0.093701 -1.0572 -0.037071 -0.7399 -0.56858 -0.0023965 -0.12769 0.27926 0.27691 0.69231 0.087284 -0.17897 -0.26495 0.48572 0.23008 0.1222 0.24844 -0.41416 -0.047819 -1.0534 0.032772 -0.3609 -0.096156 0.02083 1.2678 -0.86642 0.2919 0.33999 1.0498 0.63341 3.4117 0.13714 0.23189 0.26945 -0.079664 -0.29243 -0.02278 0.34447 -0.021117 -0.26652 -0.90768 0.20367 -0.32237 -0.18111 0.5523 0.033567 0.85723 -0.058859 0.10585 0.4525
queen 0.37854 1.8233 -1.2648 -0.1043 0.35829 0.60029 -0.17538 0.83767 -0.056798 -0.75795 0.22681 0.98587 0.60587 -0.31419 0.28877 0.56013 -0.77456 0.071421 -0.5741 0.21342 0.57674 0.3868 -0.12574 0.28012 0.28135 -1.8053 -1.0421 -0.19255 -0.55375 -0.054526 1.5574 0.39296 -0.2475 0.34251 0.45365 0.16237 0.52464 -0.070272 -0.83744 -1.0326 0.45946 0.25302 -0.17837 -0.73398 -0.20025 0.2347 -0.56095 -2.2839 0.0092753 -0.60284
eye 0.58481 0.6718 0.094112 -0.35 0.0062013 0.082544 0.21654 -0.21287 0.81582 0.30552 0.29478 0.38831 -0.095046 1.1678 -0.71374 0.78069 -0.39616 -0.71301 -0.35966 0.083376 -0.72936 0.68138 0.73529 -0.3673 -0.2245 -1.6707 -1.162 0.92514 -0.023536 -0.34776 2.4232 0.67698 0.58355 -0.40325 -0.3342 0.4124 0.1774 0.24396 0.63433 -0.68464 0.023153 1.006 -0.068346 0.52367 0.61541 -0.35235 0.49638 -0.53127 0.18813 0.12404
greece 0.58525 0.41562 -0.027563 -0.054355 -0.51295 0.31036 0.22298 0.28168 -1.3409 -0.17096 0.87762 0.11607 0.20055 0.010787 0.87665 0.66142 0.34807 -0.17357 -0.61898 0.89793 0.23915 -0.71939 -1.0643 0.1714 0.62876 -1.491 0.47072 -0.091562 -0.72593 0.058761 2.1492 1.032 0.15673 0.20119 -0.46821 0.10584 -0.15948 -0.48352 -0.60236 -0.43635 -0.40819 -0.096337 1.4404 -0.92939 -0.27673 0.95362 -0.12789 0.98709 0.58536 -1.711
mexican -0.10578 -0.61572 -0.71352 0.62459 0.013654 -0.74904 -0.96229 0.28141 -0.4946 0.73022 0.66804 -0.29309 1.1325 0.69434 0.70203 -1.6439 -0.77271 0.11756 0.21676 -0.30839 -0.56221 -0.57085 -0.35009 0.44868 -0.86661 -1.5671 -0.24887 -0.033631 0.071665 -0.30745 2.5089 -0.39509 -0.72836 -0.14803 -0.28633 -0.14974 -1.5096 -0.13306 0.21047 -0.20309 -0.88249 0.87406 1.166 -1.001 0.025008 -0.52062 -0.60305 -0.40459 0.37712 -0.21723
philippines 0.67166 -0.50978 -0.042586 1.1606 0.29798 -1.039 0.14091 -0.0038353 0.37521 0.1462 0.79247 -0.26469 0.72262 -0.22795 0.17277 -0.33822 -0.89928 0.31675 -0.19891 1.0077 -0.16834 -0.071295 0.088306 -0.20896 -0.27093 -1.1131 0.56127 -0.63922 -0.61902 -0.069162 2.3592 0.26383 -0.33826 -0.06612 -0.061878 -0.2542 -0.76878 -1.1012 -0.42139 -0.085953 -1.4476 0.19352 0.69993 -1.5084 -0.045248 0.24279 -0.45955 -0.2349 0.17556 -0.52728
simple 0.3697 0.17513 -0.71021 -0.16857 1.0182 0.72039 0.54183 -0.67518 -0.38091 0.58163 -0.5652 0.25869 0.30416 0.20938 -0.16593 -0.16318 0.0047429 -0.16316 0.56185 -1.4729 -0.16895 0.10599 -0.25052 0.21836 0.60406 -0.76026 -0.86243 0.40487 1.2218 -0.29943 3.3199 -0.61488 -0.6415 -0.085077 0.38904 0.35569 0.55171 0.62917 -0.18628 0.098374 0.74713 -0.068208 -0.27354 0.97136 0.11734 0.21786 0.68524 -0.075151 0.53507 0.33922
miami -0.59065 0.48669 0.23316 1.0822 -0.54907 -0.96478 -1.7694 0.42558 -0.062791 0.36638 -0.50417 -0.55302 -0.1254 0.053595 0.40962 -0.35621 -0.67128 -0.47456 -1.0363 0.090297 -0.74212 0.49953 -0.35469 0.084452 -0.78938 -1.3382 0.33856 0.012423 0.51412 -1.1261 1.6678 0.15947 -0.40807 -1.1751 0.4861 -0.085435 -0.16804 -0.14191 0.88021 -0.10223 -0.6931 0.62184 0.28272 0.13934 -0.63042 0.79863 -0.21831 -0.41622 -0.15446 0.58117
massachusetts -0.23478 -0.089118 -0.1567 -0.79478 -0.25833 0.55601 -1.4746 -0.2467 0.69618 -0.94228 -0.95841 -0.65705 0.78756 -1.0131 -0.81431 0.15147 -0.037668 0.060694 -0.83403 0.16122 0.71972 -0.28936 -0.66956 0.2782 -0.52413 -2.383 -0.10197 -0.60755 -0.61949 -0.13997 1.3394 -0.075279 -0.27585 -1.241 0.44069 -1.2421 -0.44595 0.29058 1.1631 -0.41735 -0.62704 0.10783 -0.15257 0.83662 -0.43103 0.70391 -0.28324 -0.49649 -0.2679 1.0544
cuba -0.093604 0.50806 -0.17568 0.61962 -0.65162 -1.0921 -0.11877 0.42463 0.31752 0.80837 0.5214 -0.0092062 0.52537 0.33207 0.69942 -0.67507 -0.5808 -0.67245 0.23742 0.48976 -0.90103 0.12241 0.032081 -0.50658 0.070364 -1.8252 1.1578 -0.31298 0.50013 -0.15252 2.0478 0.040124 -0.96593 -0.25804 -0.96169 -0.68567 -0.51045 0.42022 -0.80896 0.23058 -0.57546 0.37642 1.8614 -0.80437 -0.1745 0.33694 -0.77838 -0.61114 -0.76292 -0.30031
philadelphia -1.0057 0.91553 -0.15381 -0.018424 0.10308 -0.020293 -1.916 0.10594 -0.47195 -0.072138 -0.4667 -0.22993 -0.50704 0.19639 -0.48671 -0.79294 -0.62122 -0.45704 -1.4477 0.48261 0.32357 -0.056892 -0.35392 -0.14859 -1.1096 -1.0857 0.32638 -0.17159 0.6987 -1.1054 1.6515 0.31649 0.57153 -0.89628 0.027214 -0.57757 0.34891 0.24129 1.0822 0.46732 -0.42614 -0.48871 -0.036625 0.24445 -0.40304 1.1937 -0.76724 -0.3311 -0.29335 0.88859
arizona -0.87453 0.30132 0.18633 1.1275 -0.23615 -0.13878 -1.7065 0.26031 0.010125 -0.43736 -0.99438 -0.79427 0.83198 -0.028901 -0.15822 -0.62202 -0.23535 0.028304 -0.89262 0.53473 -0.98102 -0.48094 -0.086351 -0.1804 -0.42064 -1.7936 0.34761 -0.1927 0.53316 -1.2064 1.7115 -0.398 -0.56182 -0.95041 0.15123 -0.39469 -0.56631 0.15478 0.85521 -0.078268 -1.0779 0.14495 0.056428 0.77376 -0.66713 0.58398 -0.12502 -0.063372 -0.45979 1.0164
completely 0.55191 -1.3104 0.039413 -0.47308 0.11192 0.35994 -0.21931 0.2462 -0.42792 -0.15255 0.44304 0.038124 -0.45845 0.094318 0.38281 1.0228 0.18842 0.25204 0.33173 -0.25464 -0.32482 0.23725 0.38824 0.30836 0.63695 -1.0263 -0.38677 1.215 1.426 -0.23517 3.0576 -0.90485 -0.099739 -0.67966 -0.65972 0.48706 0.81384 0.57902 -0.5513 -0.5617 0.021149 -1.0458 0.2081 0.28524 -0.59742 0.33194 -0.6008 -0.38239 0.21431 -0.19289
netherlands -0.032669 -0.37075 -0.56831 0.032706 -0.16112 -0.20558 0.084165 0.38814 0.076116 0.059084 1.6459 -0.76493 -0.44912 -0.30316 1.0736 0.55036 1.0552 -1.2239 -1.1585 0.43487 0.28784 -0.42224 -0.14283 1.063 -1.053 -1.1665 0.19036 -0.52252 -0.79615 0.12746 1.6096 0.35691 -0.22035 -0.23128 -0.29734 -0.70532 0.63626 0.78947 -0.15596 -0.29645 0.92972 0.19664 1.9503 -1.2185 0.0092723 0.93407 -0.58845 -0.54178 -0.22943 -0.7371
eyes 0.21739 0.5358 0.086506 -0.66263 1.0461 0.16749 0.11916 0.05207 0.18294 -0.15525 0.30521 0.39767 -0.015529 1.1163 -0.19414 0.64015 -0.50497 -0.2802 -0.15803 -0.95083 -0.67273 1.0762 0.88944 -0.40049 0.42858 -1.4491 -0.72202 1.6721 0.21919 -0.80923 2.2511 0.75715 0.58867 -0.41223 -0.85697 0.2153 -0.3759 -0.35718 0.32496 -1.3689 0.071329 0.26783 0.055806 0.12708 0.59766 -0.07983 0.37148 -1.1972 -0.11671 -0.92117
michigan -1.6263 0.46701 0.29749 0.041904 -0.57911 0.51322 -1.595 0.44249 0.019865 -0.80932 -0.50225 -1.0654 0.085601 -1.1032 -0.67536 -0.28271 -0.14812 0.4531 -0.56568 -0.23483 0.028698 -0.62667 -0.17831 0.14422 -0.42233 -1.7837 -0.31591 0.0056336 -0.25782 -0.95634 1.5894 -0.062056 -0.14546 -1.2171 0.70703 -0.61923 -0.31926 0.50638 1.0932 -0.062743 -0.83468 -0.31927 -0.40225 -0.26377 -0.70832 0.72408 0.0030779 0.07573 -0.41506 0.43544
kansas -1.0702 0.052328 -0.014834 0.58406 0.041023 -0.19454 -1.7016 0.37167 -0.032807 -0.74771 -0.65794 -0.74147 0.38697 -0.59457 -0.38461 -0.59417 -0.52838 -0.096618 -0.82151 0.39511 -0.45484 -0.65819 -0.24022 0.04496 -0.74262 -1.5359 -0.090055 -0.25315 0.50441 -1.3308 1.6396 0.0761 -0.01389 -0.83622 0.4004 -0.66887 -0.35127 0.20462 1.1406 0.23221 -0.79006 -0.0020855 -0.22402 0.043985 -0.58654 0.95729 -0.41165 -0.2415 -0.39232 1.3087
thai -0.23957 -1.1127 -0.45141 1.0774 0.24813 -1.0792 0.5073 0.070523 -0.25018 -0.21347 0.54928 -0.15735 1.2776 0.37493 0.25888 0.40134 -0.61422 0.66707 0.40113 0.39055 0.64353 0.53759 0.052834 0.1151 -0.097472 -0.95147 0.24283 -0.42554 -1.0417 0.95874 2.7666 0.3666 -0.34416 1.4537 0.24936 0.57215 -0.28945 -0.53433 -0.32894 -0.78265 -0.61477 0.65148 0.37419 -0.38913 1.1656 -0.14399 -0.94727 0.18564 1.4395 -1.0229
nigeria -0.1002 -0.71776 -0.065878 1.1664 0.088241 -0.70581 0.14715 0.41536 1.3404 0.43015 0.85976 -0.31783 0.099693 -0.72363 0.6767 0.29136 0.41531 0.19075 -0.21264 0.49955 -0.12571 0.1804 0.39592 0.1831 -0.24054 -1.1642 0.72876 -0.54726 -0.6379 0.67629 1.9417 0.64861 -0.49602 0.37441 0.18206 0.063983 -0.70922 -0.46241 -0.09928 0.14539 -0.64004 0.92863 0.14358 -0.93657 -0.32357 1.4889 -0.85265 0.76541 -0.19807 -1.5821
switzerland 0.79869 0.33264 -0.91059 0.45683 -0.2667 0.70403 -0.41156 0.50774 -0.1844 -0.42769 1.1319 -0.96273 -0.79635 -0.10553 1.5255 0.13742 0.57205 -1.1546 -0.46592 0.61952 0.10267 -0.42356 -0.58459 1.0209 -0.63405 -1.1638 0.28353 -0.035803 -1.0052 -0.39756 1.6263 0.24798 0.11435 0.39505 -0.8008 -1.129 -0.15443 1.1941 0.44104 -0.067363 0.46842 -0.3743 2.289 -0.46953 -0.22216 0.093308 -0.26906 -0.043028 -0.10183 -0.77533
rare 0.6667 0.96651 -0.93643 0.60174 0.29611 0.76397 -0.37004 0.16423 0.69744 0.63363 -0.080795 -0.23491 1.0677 0.15342 0.60878 -0.10731 0.0035345 -0.35835 -0.72405 -0.27225 -0.66915 -0.32364 0.18036 -0.50025 0.24875 -1.0239 -0.93288 0.33181 0.34548 0.27456 2.7194 -0.47116 0.31229 -0.49395 0.16952 0.474 0.48181 0.16873 -0.74692 -0.47942 -0.27088 0.24672 -0.10374 0.48459 1.0628 0.35657 -0.43627 0.34614 -0.20729 -0.36411
machine -0.34165 -0.81267 1.4513 0.05914 -0.080801 0.39567 0.10064 -0.5468 -0.18887 0.11364 -0.040956 -0.5637 -0.32191 0.15968 -0.59756 -0.14571 -0.77074 1.2955 -0.72002 -0.90818 0.76644 0.05346 -0.0031632 -0.15341 0.22065 -1.191 -1.0775 -0.29768 1.327 -0.51359 2.6229 -0.67411 -0.82558 0.14283 -0.014214 0.90775 0.66828 0.48431 0.1543 0.26044 1.0191 0.015872 -0.75325 0.58992 0.4546 -0.19678 0.42138 -0.43168 0.11985 0.14094
detroit -0.71426 0.82191 0.58634 0.43494 -0.4438 0.28918 -1.9478 0.31175 -0.95952 0.15214 -0.2123 -0.43976 -1.1877 0.17079 -0.0010158 -0.55804 -0.22566 0.0039684 -1.0119 0.0024421 -0.072654 -0.24118 -0.6313 0.13486 -0.97991 -1.1208 0.039548 0.092326 0.80924 -1.2647 1.5254 0.59514 0.45887 -0.65903 0.40863 -0.41269 0.09723 -0.10654 1.084 0.42693 -0.50912 -0.17251 0.15688 -0.72837 -0.25822 1.1846 -0.66255 0.34191 -0.28023 0.74671
younger 0.21236 0.62645 0.61075 -0.86168 0.77617 0.79699 -0.8501 0.21643 -1.1705 0.23039 0.38753 0.55859 0.0062125 -0.25557 0.4884 0.22568 -0.13387 -0.078009 0.15845 -0.31141 -0.54415 0.45804 0.5144 0.70281 0.61055 -1.1897 -0.46563 -1.3553 -0.25111 0.31496 1.9646 0.76911 0.3328 -0.59356 1.0845 -0.12559 -0.60999 0.80482 -0.44025 -0.37026 -0.51285 0.68137 -0.062781 0.12938 0.53545 -0.29093 -0.4577 -1.4558 -0.27642 0.49245
usa -1.256 0.67149 0.1418 1.5068 -0.54231 -0.014556 -1.0648 -0.60224 0.55127 -0.67244 0.39114 -0.55533 -0.54794 -0.37832 0.35629 0.15954 0.030876 0.31742 -0.87051 0.21663 -0.30207 0.12983 0.19678 0.79039 -0.56554 -0.82879 -0.19614 -0.82778 -0.6898 -1.0809 1.8179 -0.26586 0.065575 -0.1093 -0.66603 -1.1031 0.12164 -0.29828 -0.0003941 -0.72735 0.905 -0.74758 0.76054 -0.4513 0.10696 0.8653 -0.43969 -0.47675 -0.91554 0.9724
zimbabwe -0.56405 -0.83578 -0.40294 0.58531 -0.33904 -0.38982 0.2213 -0.012655 1.0989 -0.59159 -0.12069 -0.13803 -0.43715 -1.2012 0.79288 0.36965 0.97168 -0.2873 0.34649 0.028587 -0.046324 0.76211 0.33457 0.32289 0.15299 -0.67402 1.2314 -0.66878 -0.69693 1.1835 2.3964 0.44275 -0.35917 0.57823 -0.32921 0.14098 -0.11716 -0.57874 -0.52509 -0.82744 -0.37451 0.44321 0.28556 -0.551 0.072928 1.5266 -0.99166 0.22147 0.40409 -1.2424
colorado -0.62563 0.70791 -0.077217 0.91055 -0.35555 0.18164 -1.8732 0.37697 0.29273 -0.30162 -0.57627 -0.88815 0.23623 -0.16725 -0.31165 -0.62023 0.23039 -0.16629 -1.2473 -0.015163 -0.95415 -0.27521 -0.14049 0.21251 -0.75928 -1.2457 0.18827 0.11129 0.41301 -0.84458 1.6674 -0.012024 -0.63945 -0.87887 0.51342 -0.64931 -0.63639 0.040939 1.5985 0.53327 -1.0743 0.17168 0.11431 0.33213 -1.0165 0.77541 -0.15055 -0.29024 -0.12036 0.58008
ukraine 0.010116 0.928 0.5651 0.47088 -0.12828 0.62916 0.79648 1.5639 -0.45899 0.0058128 1.0009 -0.8081 0.50041 0.60974 0.43451 -0.13704 0.11206 0.18364 0.40581 0.66037 0.45986 -1.0758 0.17123 -0.15856 0.15824 -1.5566 0.73764 0.1829 0.40501 0.44695 2.0744 0.74401 -0.46557 -0.21248 -1.4617 0.010621 -0.45303 1.1061 0.35433 0.037317 0.34839 -0.43922 1.4033 -1.7432 -0.70741 1.1817 -1.1879 0.92637 -0.027758 -1.0023
egyptian 0.53358 1.05 -0.32885 -0.13417 0.65501 -0.7838 -0.53659 -0.069053 -0.1709 0.19219 0.2776 -0.012688 0.055352 0.93463 0.088418 0.2454 0.119 -0.30092 0.03612 1.3588 0.59818 0.91587 0.47273 -0.23173 -0.22307 -1.3903 -0.32648 -0.18273 -0.60165 0.8073 2.1149 -0.59525 -1.0128 0.83837 0.58167 0.45145 -0.0056295 -0.19045 -0.82086 1.2401 0.15742 0.31052 0.44705 -0.1217 0.8758 -0.57345 -0.97534 1.1178 0.089533 -1.8977
serbia -0.082613 -0.12671 0.402 0.44421 0.061098 0.23225 1.2263 1.2123 -1.2876 0.15957 1.0845 -1.8198 -0.79212 -0.32621 0.48031 0.64137 0.51567 -0.49401 1.5049 0.56216 -0.55111 -0.20864 -0.55665 1.0712 -0.93587 -1.0287 0.055744 0.3057 0.25088 -0.20528 2.2384 0.19199 -0.85477 -0.44044 -0.49902 -0.042769 -0.025799 0.038535 -0.58212 0.070392 0.12685 0.18334 0.66367 -2.1312 -1.0096 0.48833 -0.66836 0.35822 -0.379 -1.1743
madrid 1.3315 0.72181 -0.060088 0.43948 0.18419 -1.5083 -0.48125 0.46037 -1.4088 1.2701 0.68031 -0.59232 -1.6325 -0.30376 0.87685 -0.75531 -0.37583 -0.5363 -1.0669 0.45537 -0.66694 0.43001 -0.69525 0.67518 -0.93783 -0.67933 1.1104 0.37576 -0.36894 -0.083185 2.0346 0.96286 -0.56629 -0.7787 -0.10705 -0.14102 0.07384 0.62338 0.20366 0.0076751 0.71088 0.01501 0.53186 -0.82256 -0.35087 0.30876 -0.065328 0.23722 1.4692 -0.93469
color -0.86832 0.98449 -0.24756 0.21341 0.76931 0.54751 -0.12146 -1.8142 -0.37427 0.044667 0.5137 -0.20426 1.0065 0.10974 0.052051 0.16893 -1.162 -0.33376 -0.22194 -1.7457 -0.60825 0.067798 0.73597 -0.30665 -0.27827 -0.051636 -1.5245 0.98754 1.166 -0.34958 2.6078 -0.0093866 -0.56178 -1.3521 -0.073283 0.51592 -0.21913 0.17683 -0.4115 -0.50692 1.0167 0.45998 -0.10464 -0.39324 0.11567 0.31819 0.9566 -0.4299 0.0092608 0.13798
berlin 0.43801 0.78553 -0.19659 -1.3375 -0.078397 -0.37857 -0.19059 0.31307 -0.99329 -0.50101 0.15781 -0.99817 -1.0697 0.47282 0.5135 0.069309 0.47158 -0.094145 -0.92403 0.93513 1.6719 -0.38873 -0.69136 0.51696 -0.28509 -1.5811 -0.43986 0.38553 -0.97072 -0.346 1.5268 0.38354 0.15708 -0.66334 -1.3933 -0.44692 0.80848 0.94992 0.22149 0.3744 0.47636 -0.45211 0.48729 -1.2534 0.031507 0.35762 -0.074152 -0.098307 -0.27759 -0.084488
seriously 0.24542 -0.74245 0.32527 -0.53353 0.13794 0.57658 -0.1167 0.82409 0.20641 -0.28388 0.2351 -0.34419 -0.89032 -0.012591 0.41692 0.36625 -0.095458 0.24033 0.26887 -0.013171 -0.3875 1.2816 0.26733 -0.17786 0.80134 -1.7217 -0.25902 0.29192 0.81986 0.086492 2.3398 0.40443 0.28637 -0.89733 -0.04286 0.11041 0.32532 -0.17067 -0.21507 0.13724 -1.2002 -0.50078 0.81405 -0.20074 0.489 -0.20587 -1.0318 0.56512 0.63105 0.19876
roads 0.66258 0.2123 0.77968 -0.29735 -1.7562 -0.25392 -0.9175 -0.12077 0.082226 -1.4477 -0.87622 -0.61384 -0.18897 -0.92008 -0.76244 0.412 0.50552 0.23814 0.69856 -0.66039 0.25735 -0.21809 -0.34929 0.39163 0.56563 -0.14954 0.5056 0.79658 1.5936 -0.1479 3.2168 0.17621 0.38781 -0.23386 0.27452 0.94828 0.27032 -0.003935 -0.49437 1.4444 -0.78306 -0.14778 0.89745 -0.20894 -0.56203 0.015886 -0.71619 -0.99149 0.79767 -0.9672
seattle -0.27303 0.85872 0.13546 0.83849 -0.022363 -0.41724 -2.1974 0.27838 -0.35161 0.39205 -0.34437 -0.32687 -0.43923 0.65528 -0.00023978 -0.80586 -0.56114 -0.01944 -1.0856 0.44888 -0.17763 0.11756 -0.58001 0.13595 -0.45596 -0.94512 0.34022 -0.13418 0.66036 -1.1015 1.7347 0.29407 0.34572 -0.62959 0.027845 -0.65935 0.00040791 0.093474 1.0007 0.61746 -0.64467 -0.2692 -0.026631 0.10327 -0.1696 1.0302 -0.54987 0.060371 -0.54905 1.0027
quick 0.13967 -0.53798 -0.18047 -0.25142 0.16203 -0.13868 -0.24637 0.75111 0.27264 0.61035 -0.82548 0.038647 -0.32361 0.30373 -0.14598 -0.23551 0.39267 -1.1287 -0.23636 -1.0629 0.046277 0.29143 -0.25819 -0.094902 0.79478 -1.2095 -0.01039 -0.092086 0.84322 -0.11061 3.0096 0.51652 -0.76986 0.51074 0.37508 0.12156 0.082794 0.43605 -0.1584 -0.61048 0.35006 0.52465 -0.51747 0.0034705 0.73625 0.16252 0.85279 0.85268 0.57892 0.64483
possibly 1.1029 -0.1934 0.28084 -0.20078 0.2139 0.51973 -0.082385 0.52599 0.036433 0.15357 0.23625 0.19063 0.11223 -0.13577 0.63079 0.50406 0.088107 -0.365 -0.44629 -0.077548 -0.25307 -0.46656 0.35131 0.010996 0.20468 -1.4555 -0.14111 -0.029313 0.81782 0.25879 2.5769 -0.23601 -0.22427 -0.72674 0.26275 0.16691 -0.068734 -0.047573 -0.43041 -0.15908 -0.47287 -0.1096 0.36041 0.097021 0.27385 0.21895 -0.094568 0.066653 0.010765 -0.47385
polish -1.0256 0.44984 -0.05479 -1.0272 0.91859 0.53988 -0.12209 0.45987 -1.1462 -1.2688 1.4007 -0.66746 0.65045 0.68291 0.37318 -0.24412 -0.11646 0.40316 -0.23293 0.5445 0.48212 -0.75979 -0.88468 0.46177 -0.16248 -1.6029 -0.98525 -0.64809 -0.13017 0.62942 1.8231 0.27419 -0.26429 0.1012 -0.9719 0.93171 0.084058 0.22911 -0.1885 0.65573 0.95465 0.37913 0.44696 -1.106 0.15054 0.21602 -0.71841 0.62707 -0.44349 -0.96645
sudan 0.73035 -0.24628 -0.25172 0.45256 -0.14062 -0.22315 0.29425 0.083567 1.1997 -0.28948 0.46523 -0.29701 -0.55134 -1.2716 0.20386 0.30393 0.33801 -0.043013 0.98767 0.95797 -0.7981 0.78208 0.99817 0.20159 -0.44833 -1.3123 0.86005 -0.09803 -0.033466 0.50573 2.1297 0.12594 -1.525 0.58162 0.14797 -0.31618 -0.96033 -0.74894 -0.77345 0.55936 -0.19406 0.49795 0.38119 -1.4648 -0.02437 0.26846 -0.68173 0.85156 -0.77264 -1.1295
rome 1.7328 0.74491 -0.90946 -0.61916 0.11515 -1.3528 -0.044927 0.15027 -1.2333 -0.085559 -0.088266 -0.29123 -0.65817 -0.53225 1.1005 -0.51414 -0.78475 -0.30087 -0.55898 0.93097 0.045988 -0.077539 -0.66556 0.3753 0.0024896 -1.2641 0.078016 -0.12052 -1.0292 -0.047419 1.7711 0.28545 -0.48243 -0.50638 -0.7063 -0.067205 0.49704 0.95463 -0.30081 0.62246 0.44981 0.0045407 0.52488 -0.23153 -0.32818 0.80113 -0.48159 -0.58455 -0.11393 -0.82938
bird 0.78675 0.079368 -0.76597 0.1931 0.55014 0.26493 -0.75841 -0.8818 1.6468 -0.54381 0.33519 0.44399 1.089 0.27044 0.74471 0.2487 0.2491 -0.28966 -1.4556 0.35605 -1.1725 -0.49858 0.35345 -0.1418 0.71734 -1.1416 -0.038701 0.27515 -0.017704 -0.44013 1.9597 -0.064666 0.47177 -0.03 -0.31617 0.26984 0.56195 -0.27882 -0.36358 -0.21923 -0.75046 0.31817 0.29354 0.25109 1.6111 0.7134 -0.15243 -0.25362 0.26419 0.15875
austria 0.68244 0.52086 -0.24474 0.13063 -0.18005 1.1871 0.63095 0.86369 -0.63862 -1.0327 0.84655 -1.1607 -0.93247 -0.21312 1.184 0.43035 0.71449 -0.89772 -0.73869 0.36402 0.53176 -1.076 -0.6377 1.0677 0.14867 -1.4191 -0.27277 -0.72567 -1.0916 0.31745 1.3551 0.80775 0.28205 0.42085 -1.0809 -1.023 0.083998 1.455 0.14616 0.65347 0.24415 0.20305 1.706 -0.94448 -0.12588 0.54781 -0.54201 -0.45132 -0.16022 -0.56454
sharp -0.44306 -0.32144 0.012734 -0.30481 0.083703 0.80066 0.095349 -0.22151 -0.37908 0.077235 -0.53457 -0.328 -0.39197 -0.15499 -0.46633 -0.084903 -0.32805 -1.0069 -0.60977 -1.0687 0.2612 -0.34925 -0.2164 -1.0629 0.37353 -1.2373 -0.13824 0.6911 0.35747 0.56365 2.9314 -0.014286 1.4112 0.21866 -0.094985 -0.52306 -0.6441 0.002592 -0.078992 -0.48697 -0.1742 0.9127 -0.42336 -0.46979 1.0179 -0.29822 0.80913 0.37652 0.089024 0.29731
kenya 0.40044 0.04194 -0.047201 1.0901 -0.31929 -0.25377 -0.45639 -0.34451 1.5372 -0.75715 0.090759 -0.36166 -0.43692 -1.3226 0.72349 0.35523 0.87972 -0.051496 -0.13752 0.35615 -0.3303 0.64007 0.27121 0.43061 0.47067 -0.76419 0.99237 -0.72196 -1.0157 0.85898 1.5645 0.71899 -0.82299 0.25378 0.34654 -0.15065 -0.47152 -0.47869 -0.44868 0.15745 -0.72703 0.46383 0.42822 -0.66268 0.13954 1.0865 -0.73613 0.087425 0.59006 -1.5859
typically 0.48468 0.19782 0.19323 -0.44805 0.11655 0.50505 2.2459e-05 -0.42516 -0.11295 0.069534 0.14504 -0.062375 1.232 0.24857 0.076233 0.23148 -0.29419 0.063899 -0.23906 -1.3758 0.18536 -0.69646 0.63177 0.52353 -0.29718 -0.42191 -0.19836 0.05091 0.25592 0.12988 3.3666 0.011413 0.38707 -0.44853 0.5569 0.21255 0.02842 0.092823 -0.18556 -0.29574 0.018668 0.17366 0.30851 1.1588 0.28574 -0.43711 0.49114 -0.0576 -0.34001 0.42932
brazilian -0.54216 -0.672 -0.32586 0.51037 -0.17784 -0.99332 -1.3071 0.088978 -0.26704 1.2892 1.9282 0.1504 -0.060137 0.33472 0.57187 -1.0551 -0.18586 0.22088 -0.34251 -0.70342 -0.84325 0.045232 -0.64819 0.43856 -0.22253 -1.1393 0.33881 -0.031391 -1.0482 0.2648 2.2273 0.031049 -0.58513 0.28279 0.27073 0.021445 -0.8059 0.49853 0.42011 -0.43063 -0.1604 0.70352 0.56873 -1.0805 -0.14484 -0.02586 0.056231 0.24092 1.1361 -1.3381
weak -0.26241 -1.1103 0.50271 -0.43052 0.37468 -0.3055 0.36708 0.25938 -0.16993 0.54245 0.63919 0.11347 -0.3919 0.31521 -0.42901 0.49977 -0.2376 -0.79307 0.34494 -0.47877 -0.51945 -0.50665 0.057701 -0.31797 -0.080134 -1.0289 -0.1507 0.50944 0.60715 1.3049 3.2575 0.11849 1.5057 -0.36649 -0.17726 -0.20931 -0.59527 -0.025889 -0.2965 -1.1387 -0.52999 0.067286 0.094954 0.049722 0.51323 -0.11194 -0.007111 0.23775 0.68874 0.13873
dallas -0.73293 0.67683 0.13922 0.64817 0.18893 -0.38767 -1.8116 0.09888 -0.26243 0.32911 -0.56707 -0.3447 -0.75273 0.10879 0.075545 -0.28712 -0.15923 -0.24369 -1.2696 0.37416 -0.46778 0.31339 -0.41676 -0.014177 -1.2372 -1.0581 0.44373 0.18553 0.65905 -1.3585 1.5057 0.35712 0.27612 -0.8598 0.38667 -0.20082 0.1363 0.068106 1.1014 0.097493 -0.26038 0.3552 -0.24296 0.13181 -0.57702 0.98328 -0.37704 0.02548 -0.60043 1.081
colombia 0.76711 -0.53432 0.057884 1.1279 -0.021452 -0.64132 -0.15539 0.33413 0.23962 0.54064 0.76528 -0.90681 0.11757 -0.28853 0.6315 -1.3044 -0.2284 -0.1495 0.29548 0.30309 -1.1462 -0.1612 0.33058 0.16257 -0.95557 -1.2683 0.60833 -0.06357 0.39087 0.091681 2.0273 -0.17743 -1.4316 -0.22887 -0.35496 -0.23553 -1.8291 -0.013455 -0.084608 -0.15725 -0.34641 0.81083 1.4533 -1.8185 -0.34397 0.28276 -0.26321 0.28994 -0.19014 -0.82892
worse 0.13073 -0.6867 0.33153 -0.60591 0.028873 -0.037909 -0.060968 0.28775 -0.36646 0.17306 -0.10104 -0.16842 -0.79125 -0.33732 1.4887 0.4213 0.059961 -0.42983 -0.19379 -0.11216 -0.8832 0.13482 0.42737 -0.098613 0.75041 -1.3207 -0.72838 0.46175 1.2166 0.3806 2.5416 0.63799 0.73719 -0.47253 -0.3154 -0.30303 0.0086977 0.15483 0.50704 -0.56064 -1.2399 0.00063903 0.37316 0.26583 0.22338 0.090958 -0.070189 0.29429 0.51492 0.68625
swedish -0.57288 -0.071822 -0.44958 -0.0093645 -0.017481 1.1567 -0.70637 0.5988 -0.28292 -0.62753 1.9554 -0.28 -0.18387 0.80617 0.74976 0.26771 0.15468 0.11167 -0.74834 0.51644 0.88166 -0.0483 -0.6653 0.96348 -0.035658 -1.5257 -1.334 -0.75787 -1.0378 0.60683 1.7462 0.017043 0.14906 1.148 -0.17223 0.14073 0.36411 0.27929 0.32483 -0.092368 1.036 0.42319 0.58145 -0.85527 -0.03957 -0.096418 -0.43513 0.92529 -0.097775 -0.96168
minnesota -1.2279 0.59919 0.022093 0.36518 -0.4008 0.82205 -1.7717 0.32287 0.31339 -0.31836 -0.36164 -0.76642 0.35721 -0.108 -0.57188 -0.50786 -0.040871 -0.51388 -1.2738 0.40939 -0.78543 -0.35741 0.23247 0.18858 -0.91313 -1.4643 0.21324 -0.056125 0.41583 -1.106 1.3281 0.31494 -0.13964 -0.94416 0.47855 -0.88366 -0.17492 0.27105 1.5649 0.52242 -0.85669 0.10574 -0.11133 0.29134 -0.87229 1.1963 -0.39684 0.042188 -0.36596 0.91121
computers 0.56105 -1.1966 2.4125 0.35548 -0.046729 -0.73904 -0.70042 -1.6586 -0.030509 0.63224 0.40307 0.30063 -0.13483 0.20847 0.38823 0.5026 -1.8352 0.83701 0.6455 -0.72898 0.69954 -0.21853 -0.063499 0.34256 0.65038 -1.1123 -0.41428 -1.1233 0.62655 -0.60872 2.8103 0.19252 0.19487 -0.71785 0.21378 0.75274 -0.27748 0.81587 -0.24152 0.040814 0.40839 -0.0029812 0.35493 1.463 0.17201 0.8051 0.49982 -0.158 -0.26461 -0.38897
norway -0.19114 0.23106 -0.48758 0.21964 0.29405 1.3024 -0.6612 0.57164 0.46737 -0.94885 1.3151 -0.52541 -0.1717 -0.33167 0.6178 0.5718 1.6381 -0.29936 -0.90686 0.86231 0.82501 -0.59277 0.17933 0.67591 0.54459 -0.99754 0.055245 -0.37603 -0.43805 -0.05424 1.4531 0.72883 -0.4747 1.1558 -0.23406 -0.51622 -0.029749 0.61013 -0.11118 0.67288 0.14379 -0.29918 0.4844 -1.5894 -0.70701 0.52108 -0.59593 0.86088 -0.12518 -1.3032
croatia 0.17891 -0.40752 -0.043038 0.47625 -0.14171 0.013908 0.58128 0.90453 -0.8882 -0.69606 1.0277 -1.729 -0.83689 -1.2076 0.96837 0.28508 0.35819 -0.61004 0.75198 0.57405 -1.2163 -0.46473 -0.56318 0.8676 -0.76482 -0.87801 0.31141 0.051503 0.38433 -0.46045 1.9229 0.46344 -0.74 0.13063 -0.31505 0.36124 -0.14866 0.59128 -1.0077 -0.17099 0.49151 0.5279 1.02 -2.1465 -0.81584 0.50713 -0.017365 0.59254 -1.0431 -1.053
horse -0.20454 0.23321 -0.59158 -0.29205 0.29391 0.31169 -0.94937 0.055974 1.0031 -1.0761 -0.0094648 0.18381 -0.048405 -0.35717 0.26004 -0.41028 0.51489 1.2009 -1.6136 -1.1003 -0.23455 -0.81654 -0.15103 0.37068 0.477 -1.7027 -1.2183 0.038898 0.23327 0.028245 1.6588 0.26703 -0.29938 0.99149 0.34263 0.15477 0.028372 0.56276 -0.62823 -0.67923 -0.163 -0.49922 -0.8599 0.85469 0.75059 -1.0399 -0.11033 -1.4237 0.65984 -0.3198
illinois -1.3042 0.40388 0.24314 0.082291 -0.57165 0.2266 -0.94241 0.63631 0.32134 -0.5212 -0.95135 -1.0958 0.58905 -1.0201 -1.1685 -0.48756 -0.43171 0.72646 -0.40387 0.31753 0.17896 -0.6738 0.072016 0.1151 -0.80809 -2.1282 -0.043724 -0.018258 -0.41063 -0.85877 1.3968 -0.82422 0.049529 -1.2516 0.63883 -1.0657 -0.23547 0.67689 0.84448 -0.061613 -0.75638 -0.34227 -0.37321 0.018555 -0.24149 0.78788 -0.63914 -0.6538 -0.37909 0.90962
dream -0.04425 0.99856 -0.20423 -0.048967 0.39981 0.035118 -0.86745 0.1959 -0.36649 0.78803 0.00041858 0.30541 -0.73399 0.43037 0.93299 0.20663 0.52427 0.71785 -0.30939 0.079031 -0.2426 0.79301 -0.59451 0.24972 1.0406 -1.0524 -1.3649 -0.38529 0.97883 -0.34811 2.0077 0.45486 -0.85641 0.029487 -0.14606 0.1694 -0.099531 0.049733 -0.17635 -0.9044 -0.41801 -0.77153 -0.25648 -0.30939 -0.19887 0.33251 0.081406 -0.82559 -0.2111 -0.0001517
sons 0.57419 0.95623 0.39117 -0.68704 1.1457 0.84772 -0.92038 0.34242 -0.99548 -0.40373 -0.14471 1.3889 -0.60302 -0.96567 0.4213 -0.15532 -0.27171 0.0077354 0.052916 0.53585 0.21187 0.79746 0.53759 0.094935 -0.018498 -1.0906 -0.46014 -1.7887 0.21938 0.051431 1.4974 0.066427 -0.035292 0.26192 0.81455 0.10872 -0.46325 -0.20349 0.43546 0.31341 -0.20575 0.029851 -0.15513 0.079466 0.81851 -0.010122 -1.1394 -1.8492 -0.45948 -0.034265
bangladesh -0.78462 -0.88502 -0.15896 0.63827 -0.24711 -0.75367 0.50816 0.24133 1.554 -0.26346 0.25973 -0.38475 0.26602 -0.38599 -0.066866 0.14641 0.23601 0.468 0.077611 1.153 0.15401 0.55081 0.77775 0.31938 0.34146 -0.72249 0.52206 -0.66022 -0.95038 0.83269 2.6301 0.76556 0.18253 1.1606 0.22053 0.83714 0.24177 -0.48216 -0.40501 0.076339 -0.8855 0.3561 0.025617 -0.67388 0.091004 1.1873 -1.1243 0.37364 0.94965 -1.6012
dog 0.11008 -0.38781 -0.57615 -0.27714 0.70521 0.53994 -1.0786 -0.40146 1.1504 -0.5678 0.0038977 0.52878 0.64561 0.47262 0.48549 -0.18407 0.1801 0.91397 -1.1979 -0.5778 -0.37985 0.33606 0.772 0.75555 0.45506 -1.7671 -1.0503 0.42566 0.41893 -0.68327 1.5673 0.27685 -0.61708 0.64638 -0.076996 0.37118 0.1308 -0.45137 0.25398 -0.74392 -0.086199 0.24068 -0.64819 0.83549 1.2502 -0.51379 0.04224 -0.88118 0.7158 0.38519
tehran -0.19937 0.47261 0.51866 -0.76862 -0.25102 -1.0259 1.0706 0.74073 -0.03393 1.1814 -0.069739 -1.3177 -0.46891 -0.11215 -0.1562 1.1167 0.36623 0.44177 0.49581 0.67438 1.626 0.87182 0.22501 0.30593 -0.20864 -2.4768 1.0025 0.79325 -0.22165 0.10428 1.6849 -0.30124 -0.74853 -0.85319 0.077003 -0.55541 0.25116 0.37751 -0.85375 0.67141 0.33353 0.003802 0.46622 -0.9454 0.51518 0.31531 -0.5199 1.5344 -0.39128 -1.0693
belgium 0.28962 -0.37887 -0.97663 0.019838 -0.97961 0.79907 0.10908 0.79106 -0.15738 -0.30476 1.0234 -0.95763 -0.60707 -0.38167 0.92968 0.22708 0.56678 -1.0038 -0.626 -0.0070412 0.51372 -0.2229 -0.21294 1.3628 -0.877 -1.0357 -0.12762 -0.41415 -0.56493 0.38149 1.6566 0.68424 -0.28076 0.51899 -0.061303 -0.67941 0.022433 0.84534 0.11892 -0.19788 1.0083 0.5456 1.8171 -1.5074 0.074819 1.0516 -0.43676 -0.21519 0.059401 -0.49498
stronger -0.39627 -0.60954 0.41391 -0.36951 0.5645 -0.066971 0.42519 -0.23021 -0.22426 0.7735 0.75474 -0.040149 -0.16121 0.028062 -0.47543 0.78198 0.085303 -0.39068 0.39 -0.8626 -0.23486 -0.32499 -0.26959 -0.59648 0.19708 -1.1299 0.099166 0.21463 0.50318 0.53496 3.1716 0.64085 0.66542 -0.22072 -0.20713 -1.0016 -0.48757 0.20071 -0.73171 -1.2684 -0.53844 -0.35937 0.46572 -0.33113 0.44698 0.080847 -0.0093437 0.37648 -0.1456 0.56793
portugal 0.6456 0.0049791 -0.67766 0.401 -0.75438 -0.82693 -0.23235 0.47536 -0.7391 0.38242 1.2815 0.20652 -0.010509 -0.88947 0.97918 -0.24879 -0.1911 -0.77615 -0.37822 0.19739 -1.0084 -0.40683 -0.47939 0.5094 0.18521 -0.79979 0.89761 -0.015352 -0.67984 0.4543 2.2591 0.92831 -0.52315 0.20742 -0.2015 -0.21062 -0.31176 0.31364 -0.43091 -0.79237 0.059534 0.34345 1.23 -1.3334 -1.0515 0.82561 -0.28397 -0.30602 1.0047 -1.3454
venezuela 0.25374 -0.13279 0.39656 1.1883 -0.36759 -0.70395 0.074684 0.46931 -0.092717 1.2899 0.84232 -0.28645 0.42057 0.17309 0.42469 -0.45683 -0.24398 -0.085802 0.36572 0.020408 -0.50871 -0.65908 0.22688 -0.2535 -0.73554 -1.4334 0.8889 0.14779 0.34656 0.28487 1.9534 0.15365 -0.8714 -0.12061 -0.76205 -0.77002 -1.3829 0.10867 0.039984 0.012471 -0.30518 0.75282 1.191 -1.4656 -0.76304 0.96938 -0.97976 0.17433 -0.32077 -0.66441
bigger 0.6057 -0.094638 0.84212 -0.16662 0.55662 0.0835 -0.15626 -0.1632 0.093989 0.32828 -0.21138 -0.19972 -0.17425 0.13159 0.53072 0.61031 0.86814 0.53084 -0.27766 -1.1602 -0.080529 -0.80348 -0.46839 0.055816 0.0038155 -1.1371 -0.69246 0.41399 0.72417 -0.23072 2.6914 1.2749 0.58283 0.09098 -0.20921 0.035626 -0.43839 0.21022 -0.32767 -1.1243 -0.55608 0.072933 -0.001306 0.091655 -0.006332 0.080233 0.084229 0.3206 -0.30612 0.47968
tight -1.273 -0.11158 -0.046484 -0.29965 0.007976 -0.48446 -0.31057 -0.23197 -0.034117 -0.62516 -0.57569 -0.17453 -1.0752 0.52081 -0.24474 1.0024 0.46677 -1.0413 0.19659 -0.75167 -0.46069 -0.19604 -0.28096 -0.40385 -0.61359 -1.2313 0.87308 1.3051 0.98464 0.062215 2.6285 0.55606 0.44065 -0.048067 0.3998 0.6052 -0.15219 0.56377 -0.59673 -0.32647 -0.85783 0.73531 -0.29423 0.55122 -0.059924 -0.68773 0.65853 -0.21991 -0.16705 0.18181
athens -0.080518 1.0627 0.14356 0.51284 -0.86614 -0.87747 -0.081332 0.62346 -1.0791 -0.26803 0.042063 -1.1343 -0.41609 -0.44612 0.75472 0.39791 0.26783 0.60382 -1.1654 0.2434 0.65747 -0.089722 -1.0805 0.016183 0.5644 -1.4807 0.26113 -0.0033073 -1.0285 -0.34615 1.4185 0.80099 -0.24248 -0.45811 -0.030437 0.17815 0.83084 0.14041 -0.14673 0.35092 -0.46702 -0.22738 0.71731 -0.29418 0.35399 0.34459 -0.27677 0.56476 0.75872 -1.3752
birds 1.4552 -0.14639 -0.81115 -0.82527 0.53932 0.31705 -1.2057 -1.0493 1.0798 -0.68083 0.3313 0.32213 2.2969 0.55405 0.43619 0.29305 0.63575 -0.3102 -1.8149 -0.34224 -1.1901 -0.59481 1.0911 -0.009304 0.70712 -0.23413 0.26068 0.50804 0.28816 -0.71806 2.1803 0.30127 0.88022 -0.32536 -0.49072 0.076984 0.31839 -0.40341 -0.94898 0.082242 -0.69083 -0.23787 1.0296 1.0471 1.7433 0.39539 -0.46843 -0.58919 -0.67998 -0.095097
romania 0.1232 0.36199 0.13819 0.1923 -0.93796 0.70297 0.57263 0.91297 -0.69626 -0.054828 1.2394 -0.87465 0.91791 -0.28632 0.71912 -0.23525 0.075219 -0.14894 0.41694 1.0402 -0.36619 -1.3843 -0.06398 0.38334 0.50793 -1.3401 0.81819 -0.084923 -0.83609 -0.68585 1.8433 0.8701 -0.13934 -0.2725 -1.367 0.22925 -0.041979 0.80299 0.038621 -0.38195 0.0072519 0.20913 1.0864 -2.0325 -0.46558 0.52418 -0.40482 0.10702 0.021184 -1.1139
cleveland -0.98221 0.77934 -0.061903 0.2623 -0.028213 0.19254 -1.6979 0.60916 -1.1142 0.28032 -0.41235 -0.34622 -0.40034 0.089889 -0.073156 -0.39509 -0.30214 -0.034256 -1.0752 0.4772 -0.41155 -0.063525 -0.49592 -0.17209 -0.88929 -0.81442 0.56036 -0.055908 0.73256 -1.1962 1.5388 0.19309 0.47597 -0.70479 0.45384 -0.23301 0.56185 0.29436 1.3677 0.37894 -0.86961 -0.20573 -0.236 0.15841 -0.51409 1.229 -0.76054 -0.2116 -0.42585 0.95611
easier 0.45065 -0.65021 0.56298 -0.33998 -0.086925 -0.0055748 -0.31212 0.1071 0.066174 0.46199 0.10566 0.21012 0.3549 0.20549 0.2845 0.75724 0.40732 -0.36158 0.89339 -1.2098 0.1892 -0.22807 -0.30459 0.66182 0.64822 -1.2511 0.11463 -0.43897 1.119 -0.68835 2.8485 0.39158 -0.58828 -0.2713 0.32403 -0.043517 -0.058233 0.76275 -0.27994 -0.52678 -0.0089199 0.0075258 0.93978 0.9526 0.11421 -0.19967 0.54386 0.066429 0.27481 0.49604
denmark 0.054976 0.10817 -0.50324 -0.019769 0.24695 1.1584 -0.26947 0.0031433 0.13016 -0.89177 1.217 -0.63195 -0.32401 -0.5139 0.87985 0.75084 0.84651 -1.0341 -0.87887 1.0882 0.49265 -0.59829 -0.048051 1.0969 0.20229 -1.2686 0.29324 -0.49264 -0.96397 -0.13358 1.4462 1.1363 0.082198 0.58515 -0.8055 -0.36287 0.44576 0.77141 -0.80198 0.08235 1.032 0.031318 0.88945 -1.2146 0.049257 0.85534 -0.5116 0.13401 -0.23439 -1.0067
obviously 0.13144 -0.37118 -0.22213 -0.041362 0.74176 -0.046083 -0.14711 0.51468 -0.34823 0.33691 -0.021292 0.49079 -0.83496 -0.28308 0.72082 0.52807 0.80909 0.13822 0.29877 -0.73728 -0.67001 0.53032 0.16653 0.066725 1.0742 -1.4857 -0.57755 0.53754 0.91788 -0.42697 2.2997 0.50639 0.47225 -0.72188 -0.19714 -0.21682 0.01056 0.41042 -0.41046 -0.55551 -0.33428 -0.1762 0.043672 0.47694 0.19684 -0.02307 -0.41985 0.70322 0.18747 0.90786
denver -0.58607 0.89532 0.51361 0.70732 -0.18601 -0.89055 -1.9037 0.018332 -0.11342 0.19125 -0.65519 -0.44484 -0.59626 -0.088293 0.19475 -0.090389 -0.17098 -0.16495 -1.1618 0.34951 -0.24042 0.25009 -0.19494 0.088446 -0.87362 -1.2091 0.22673 0.25841 0.57344 -0.95508 1.2227 0.2838 0.037509 -1.0854 0.40111 -0.31685 -0.092297 0.13233 1.0281 0.23156 -0.35512 0.27877 -0.15821 0.35495 -0.67654 0.78942 -0.42555 0.14512 -0.20265 0.83217
austin -0.88499 0.73486 0.42771 0.53152 -0.33275 -0.69202 -1.3926 -0.47548 0.3105 -0.35942 -0.77389 -0.088148 -0.49413 -0.24575 0.27501 0.0267 -0.19364 0.053011 -0.19606 -0.19697 -0.22481 0.61626 -0.21885 0.48354 -0.31253 -0.82742 -0.14236 -0.50968 0.09759 -0.20696 1.3895 -0.70472 -0.17107 -0.56504 0.079604 -0.33617 -0.30254 -0.15911 0.80456 0.11455 0.22747 0.56209 -0.19012 0.22695 -0.21445 0.64895 0.051276 -1.1333 -1.0925 1.4248
cool -0.65575 0.45659 -0.16748 -0.58345 -0.23073 -0.78348 -0.23166 -0.022452 -0.57968 0.526 -0.2214 0.17614 0.46513 0.79142 0.017403 1.0879 0.24418 0.27523 -0.26452 -1.0389 0.014045 0.68459 0.98151 0.21561 0.36278 -0.51819 -0.40552 1.349 1.5399 0.60541 2.6604 0.074535 -0.076292 0.12501 -0.026268 0.16843 -0.41844 0.44505 0.25033 -1.1557 0.24575 0.41847 -0.10633 -0.28433 0.51215 0.51371 0.53004 -0.889 0.054744 0.78793
apparent 0.80216 0.50893 0.10023 0.03958 0.40211 0.95821 0.58028 0.79847 0.034553 0.45539 -0.12933 -0.35387 -0.73998 -0.32531 -0.066092 0.071079 -0.41824 -0.71289 -0.50783 -0.15921 -0.26671 0.2811 -0.43224 -0.70882 0.38255 -1.8534 -0.47301 0.38433 0.88459 0.79963 1.9653 0.14332 -0.21406 -1.0562 0.19171 -0.13648 -0.12781 -0.51416 -0.57346 -0.041385 -0.27577 0.29884 -0.69027 0.0031585 0.2291 -0.41015 0.059856 0.80101 0.63272 -0.5553
taipei -0.29306 1.0873 -0.41008 1.6634 -0.2671 -1.4822 0.48547 0.21393 -0.26326 -0.053198 0.093722 -0.93446 0.8478 0.12154 -0.52681 0.40675 -1.3393 0.10902 -0.14299 0.39213 1.2653 -0.27093 -0.36175 -0.39511 0.033527 -1.2508 0.93573 0.16259 -1.1855 -0.89439 2.0306 1.1126 0.0114 -0.47686 -0.30334 -1.1533 0.3021 0.44305 -0.46218 0.42751 -1.277 -0.35405 0.55921 -0.33449 0.29295 -0.71801 -0.50303 -0.62521 1.1525 -0.11051
chile 0.33182 -0.16513 -0.54672 1.3101 -0.21218 -1.0186 0.37209 0.74408 -0.44245 0.91286 1.1364 -0.14136 0.91118 0.13516 0.50375 -0.58401 -0.28697 -0.28799 -0.099173 0.34281 -0.62559 -0.6669 0.55828 -0.31568 -0.70793 -0.62918 0.62175 0.17831 -0.15781 -0.13469 2.2996 -0.14002 -0.5948 -0.053659 -0.55316 -0.49428 -0.91637 0.47785 0.73395 -0.33678 -0.38148 0.33915 1.4632 -1.6686 -0.45462 1.1551 -0.45897 -0.31092 -0.08207 -0.52606
rapid 0.60892 -0.14008 0.018082 -0.44587 -1.0685 -0.078976 0.45734 0.14692 0.39697 0.53979 0.75794 -0.65412 -0.1838 -0.30818 -0.787 0.0063782 0.20424 -0.32629 -0.60287 -0.14302 0.12075 -0.88878 -1.0101 -0.33523 0.4455 -0.45228 0.2517 -0.19778 0.50325 1.0884 3.1154 0.53453 0.27812 -0.58024 -0.47929 -0.28486 0.2347 0.37247 -0.15273 0.3944 -0.18824 -0.14514 -0.207 -0.66217 0.44698 -0.41959 0.75924 0.51864 0.32705 0.49694
cyprus 0.72777 0.23947 -0.66363 0.61138 0.0082807 0.19379 -0.31387 0.56139 -0.75366 -1.0778 0.93748 -0.24814 0.15737 -0.15673 0.72806 0.93681 0.80451 -0.21953 0.04383 0.84399 -0.10482 0.039487 -0.86245 0.49546 0.75968 -0.87402 1.2557 0.091065 -0.40781 0.16886 1.7486 0.17777 -1.1234 0.6368 -0.068762 -0.46291 -0.065736 -0.34523 -0.95305 0.15359 -0.006031 -0.2491 0.97985 -1.0796 -0.87539 0.23959 -0.1314 1.4838 -0.080409 -1.2146
usual 0.064998 0.25623 -0.68569 -0.50733 0.087252 -0.1371 0.090617 -0.077181 -0.30148 0.30093 -0.38969 -0.29365 -0.013357 0.37099 0.33153 -0.087098 -0.43394 -0.1857 -0.39875 -1.1568 0.059531 0.11446 0.0095926 0.27253 0.025321 -0.76086 -0.34426 0.64672 0.9012 0.52467 2.7736 0.55327 0.19654 -0.17524 0.37012 0.18209 0.19828 0.13141 -0.79248 -0.0096379 0.046726 0.666 -0.27491 0.7867 -0.090972 -0.33519 0.50876 0.3239 -0.12277 0.44066
